0.04035327
0.29404166
0.26430133
0.05060108
0.07508355
-0.03282354
-0.10771372
0.12193384
0.33027783
0.11192704
-0.15586890
0.03551852
0.04082611
-0.13846277
-0.17909548
0.00656569
-0.30095613
0.33251372
0.08940206
0.09773713
0.13931891
0.22471049
-0.10678088
0.76613164
-0.18660930
0.04891959
-0.31624013
-0.05337562
0.12579741
0.24729866
0.11920026
0.51346761
0.18387748
-0.00617583
0.45883137
-0.06651148
-0.16944082
-0.14617708
-0.15276286
-0.12586826
-0.09722059
0.04459317
-0.05539848
0.29386842
0.36223409
0.28131077
0.12306958
-0.01103794
-0.31041968
-0.11905415
-0.38390392
-0.39013320
0.13260485
-0.52774626
-0.15633950
0.39610821
0.11938248
0.51309556
0.19059426
0.36328107
0.07566901
-0.24527697
0.06275578
-0.13809119
-0.20904784
0.06079388
0.11633364
-0.13113807
0.22181395
0.06281759
0.06537750
-0.22639884
0.33224234
0.02640363
0.16005836
0.19163212
0.00729346
0.30714917
-0.10552207
-0.18831351
0.32955161
0.07023504
-0.10212828
0.08729275
0.02659868
-0.22102281
0.23423603
0.14766960
0.18040143
-0.04260466
0.01987517
-0.12036941
-0.21573722
-0.15133978
-0.21702498
0.03094673
0.44329330
-0.31801039
0.13953397
0.35867661
0.41929287
-0.04498043
-0.00249330
-0.07580885
0.20389336
0.07964276
0.34261748
0.15560716
0.54942107
0.05589392
-0.01558614
-0.17662928
0.07557955
0.14696252
-0.32076553
0.49426290
0.08256654
-0.11159486
-0.24840921
0.09525630
-0.31915939
0.04662343
0.31755301
-0.18549727
-0.31368861
0.31278434
0.04256651
0.17214860
-0.03138389
-0.13910793
0.20577106
-0.07839323
0.25871533
-0.01224516
0.45394084
-0.15689366
0.30511037
0.20292620
0.36300445
0.03869987
0.25724849
0.19848716
-0.01780490
0.15826349
0.44382083
0.15201381
-0.14834306
-0.22350353
-0.34402728
-0.08719328
-0.19527198
-0.08785240
-0.03389525
-0.22043434
0.27736950
-0.20545891
0.25410193
-0.00505458
-0.10055423
0.08254010
0.10789923
0.04093016
0.04364927
0.16959848
-0.03704683
0.24241228
-0.26538771
0.13754396
0.23048565
-0.00782017
-0.48523921
-0.26665714
-0.04053649
0.44899794
-0.49643251
0.39658788
-0.02654984
0.20902877
0.25359419
0.04937186
-0.22332241
-0.25245944
0.09084120
0.07230244
-0.38241673
-0.35685480
0.13056315
0.13284379
-0.28800753
0.09450315
-0.01450780
0.10988226
0.05037716
0.06129768
0.25720441
0.01125881
-0.11889620
0.04218591
0.02923191
0.23932692
-0.28578776
0.01770830
-0.28521031
0.37481952
0.23881532
0.09562142
-0.07147294
0.17046013
0.02146085
0.47436488
-0.14870526
0.10288610
0.27901441
0.06178391
-0.23016578
0.10740669
0.07619458
-0.29106700
-0.02739149
-0.05826103
-0.06809603
0.01090631
0.01374399
0.10934001
0.09082223
0.00781141
-0.03997444
0.32816941
0.09496074
-0.15682419
0.12813167
-0.06512129
-0.07445636
-0.10839672
0.04311684
-0.24377213
-0.37559131
0.05308950
0.21901993
0.07530199
0.15103889
0.15983729
0.10019901
-0.24399006
0.10659524
-0.24510254
0.02546356
0.27329564
-0.27648830
-0.32904395
-0.18855929
-0.09616636
0.20170774
0.02665133
0.09370149
-0.09383649
-0.04101024
0.06178175
-0.11825324
0.32439080
-0.25105771
-0.04610567
0.32511911
0.07569672
-0.06917777
-0.25128099
-0.08219138
0.11447833
-0.02577749
0.11849909
-0.01916343
0.15571374
-0.06769644
0.18472368
-0.15168247
0.12083273
-0.06809393
0.06306545
0.01922662
0.21719983
0.12236510
0.12935327
0.41954750
-0.06655142
-0.04064171
-0.26261267
-0.42780414
0.08953991
-0.15022616
-0.40350711
-0.02176164
-0.05562961
0.27572137
-0.21789607
-0.17219496
-0.46186993
0.22284800
-0.10211574
0.61869329
0.30135271
-0.03817755
0.09851144
0.61602080
0.11167461
0.41205019
-0.16513553
-0.34638232
-0.16518882
-0.19845633
-0.03749766
0.03794222
0.08708250
-0.33971304
0.32789281
-0.03040596
0.02596306
-0.09847834
0.06863619
0.18298157
0.06701227
0.08653750
-0.00231442
0.03136142
0.04305998
-0.01233649
-0.23025022
0.00340584
0.00844201
-0.47185031
-0.15762582
-0.20311759
0.30725044
0.24522525
-0.09627920
-0.26654741
-0.19366571
-0.16915791
0.09081381
-0.10648637
0.09368773
0.12962452
0.00962998
-0.07594137
-0.18959506
-0.23739351
0.33104813
-0.05058403
-0.27851737
-0.00265317
-0.10429116
0.09271473
0.14452098
0.07844780
-0.25986475
-0.02789113
0.31182066
0.29102701
0.12442540
0.45388442
0.27887130
0.08932564
-0.36461318
0.05122883
0.06770355
-0.34649023
-0.03987974
-0.27968767
-0.10877828
-0.35117289
0.11758294
0.10450147
0.07218745
0.01622687
-0.20149511
0.38401908
0.07891930
-0.00906427
0.14860299
-0.12705937
-0.01876730
-0.15630957
0.07798634
0.03046430
-0.20864223
-0.10097373
-0.14203627
0.03357733
-0.15082565
0.25966403
0.01998924
-0.14495057
-0.66903663
-0.00581267
-0.20914508
0.13331032
-0.06103293
-0.19713990
0.08668035
-0.37743172
0.03329055
0.00964019
-0.20407405
-0.01117454
0.19902156
-0.00698364
0.36724564
-0.00339857
-0.05259629
-0.16141056
-0.21703623
-0.19545594
0.25702441
0.16824107
-0.41732284
0.00907822
-0.01875509
-0.63660812
0.02168344
0.03652238
0.02491308
-0.06377142
0.35744569
-0.21839175
0.12456796
-0.15736903
0.07926460
0.17307684
-0.00935721
-0.24290767
0.24388997
-0.26340768
-0.09572404
-0.04467807
-0.04347258
-0.25563687
-0.05810756
0.06525853
-0.00135459
0.05496323
0.28045112
-0.15503782
0.21910325
0.35148567
-0.15439840
-0.11425628
-0.07508273
-0.07768428
0.32585743
-0.06262301
0.33124667
0.11605933
-0.17055333
0.31743768
-0.21869798
-0.02534442
-0.35696107
-0.18599871
-0.07794265
-0.31132457
-0.00233498
0.10506713
0.10640464
-0.08211331
0.07402802
0.00216517
-0.13474153
-0.29345933
-0.29650712
0.05588259
0.09859249
-0.03686212
0.13061854
0.08597621
0.21003902
-0.10873356
-0.25110838
0.05052682
-0.03206596
-0.00016714
0.02296252
0.21101482
0.05425714
-0.09109827
-0.01133361
-0.04697091
0.31509781
-0.21497630
0.06797457
0.21924710
0.01057343
-0.04737880
-0.21743722
0.00706112
-0.03237296
-0.05949470
0.09777662
0.16952954
-0.17068529
0.07981859
-0.29003668
0.17114988
0.05351832
-0.10904384
0.17822754
-0.01869582
-0.09678274
0.12244846
0.54242939
0.15432417
-0.02205021
0.03695031
-0.52841294
0.04404427
0.01430203
-0.06695020
-0.04412641
-0.00643083
0.19682631
-0.09915704
-0.01387652
0.08303759
0.30591190
0.16351411
0.02512161
0.04450599
-0.24386525
0.27555835
-0.20124912
-0.33941573
-0.02040501
-0.23958877
0.13038307
0.26601994
0.08173124
0.19045548
-0.00317658
0.32666048
0.01197939
0.01270932
-0.04211816
-0.46139878
0.07788613
0.00606801
0.14706591
0.28214404
0.22491659
0.09184442
-0.08554430
0.05988118
-0.17522053
-0.04712244
0.28348109
0.24933696
-0.17695750
-0.51165944
0.15435022
-0.19828223
0.28775707
0.24418560
0.14209345
0.32337204
-0.42614093
0.04484497
-0.22817841
-0.19907929
0.14969176
-0.08134121
0.04239515
0.22244616
0.45395586
0.12482948
0.31039903
0.09972562
0.10371406
0.05800940
-0.12641534
-0.17975532
0.11889959
-0.36338022
0.04131963
0.13308939
0.07926721
0.16573560
0.06654928
-0.38298151
-0.09189736
0.07277697
0.17969719
-0.19513614
-0.38802853
0.21310394
0.12323995
0.01695523
0.10622421
0.17732945
-0.17989814
0.21155471
0.12993981
-0.01939175
-0.25551087
-0.35838848
0.05532350
-0.06109459
-0.30152038
-0.36246741
-0.10117069
0.08787711
0.07837179
0.18103112
-0.21101719
-0.01441611
0.05250043
0.08431099
-0.11517175
0.16947401
-0.16476902
0.00617107
-0.09787980
-0.06154663
-0.13790597
-0.02500628
0.37139240
0.18756285
0.02695980
-0.30412427
-0.06325458
0.08412848
-0.09881744
0.13492197
0.25426227
0.25379089
0.16818202
0.09228569
0.54565662
0.00868784
0.22812261
-0.56907398
-0.22796004
0.02832402
0.15489882
-0.08800812
0.39971673
-0.30387986
0.21193725
0.43326938
0.13278231
0.28976566
0.15254998
0.11122113
0.17967330
0.16494651
-0.06273919
0.45359242
0.10697629
0.07220171
-0.06832033
-0.05237640
-0.28173277
0.15131247
0.25499442
-0.06259768
-0.06437498
-0.20931083
-0.13169709
0.10350095
0.30172554
-0.32069525
0.05510927
-0.08495315
0.15528399
0.10299781
-0.32247207
-0.17334023
0.02435211
0.10290580
-0.26666626
-0.08695532
0.17357720
-0.01880060
0.50244319
-0.05212926
-0.06445627
0.02978126
-0.13212153
-0.01239671
0.15037291
0.05760237
-0.15762456
0.34395936
-0.25021628
-0.03441983
0.19825520
0.09771501
-0.05630615
0.09430677
0.30811715
-0.08216441
0.19269805
-0.26848322
0.04354165
0.22845644
-0.66509491
-0.20373106
-0.04912806
0.19567756
-0.00458305
-0.23463041
0.02485840
0.34694922
0.10268323
0.29904577
0.22777300
0.07367972
0.62074453
-0.16952129
0.14457899
-0.17522524
-0.22745296
-0.10357228
0.13338560
0.02703927
-0.13762288
0.38128847
-0.27590394
0.18138726
-0.04136885
-0.15695770
0.14252977
0.06118503
0.15023544
-0.21750116
-0.34842402
0.05194776
-0.35353884
0.31136107
-0.09350406
0.42852864
-0.36077815
-0.22507818
-0.02479555
-0.61013210
-0.07652697
0.23477140
-0.03899673
0.23407568
-0.28912309
0.22550873
0.20511919
-0.24249041
-0.15730226
0.13245346
0.13111155
0.11804221
0.09047820
-0.11343464
-0.15677273
0.32508814
-0.11037042
-0.03366920
-0.05333788
-0.19247447
-0.10665341
-0.12277710
0.39046875
-0.24611725
0.18640244
0.04997956
0.03316807
0.22661442
0.08650737
0.18077846
0.26106849
0.24155766
-0.21239851
0.26045850
-0.27798095
-0.06329665
-0.14321779
0.53380597
-0.16568585
0.18394440
-0.09951150
0.11922521
-0.42708489
0.29182798
-0.02708878
0.09725332
0.11336942
0.37107307
0.32393736
0.26050350
0.41018999
-0.59636110
0.11752694
0.18812576
-0.17400305
0.29842237
-0.14832909
-0.01554904
0.28502551
0.01953338
-0.47727928
0.22903140
-0.09336761
-0.02454125
-0.15089028
0.10282486
-0.04407924
0.00917160
0.16035970
-0.56305510
0.21764012
-0.27751625
0.15728098
0.19036444
-0.03288520
-0.00349687
0.07616743
-0.27539903
-0.09495000
-0.37408894
0.17092878
0.20620018
-0.31951222
0.10207587
0.15082894
-0.01692804
0.11572887
0.33977416
0.14019492
-0.07441338
0.02090640
-0.02929741
0.08227815
-0.11564694
0.25755480
0.10268348
0.24173705
0.16621144
-0.39065135
0.14943115
0.09744779
-0.21451899
-0.10166739
0.54343289
0.12274972
-0.29103771
0.15983896
-0.29149839
0.22561681
0.34704250
-0.03120606
0.20515649
-0.13677548
-0.50801575
-0.33997089
-0.15545027
0.29821280
-0.38610777
0.42414516
-0.09318822
0.18309253
0.28254279
0.02848229
0.06208905
0.31418002
-0.29903620
0.08826160
-0.09889699
0.07548035
-0.11069166
0.16184455
-0.03988682
-0.50297701
0.02266225
0.22063568
0.07481595
-0.06172523
-0.35242748
-0.17334960
0.20218456
0.30770341
0.14530653
0.36412960
-0.44412619
-0.10991805
-0.06118272
-0.08172666
-0.06842066
-0.30968347
0.25800219
-0.02226993
0.06840782
0.03950737
-0.23747681
0.01310286
0.33824316
0.19114798
-0.09344068
0.06432731
0.07822011
-0.15153608
0.22639082
-0.08616808
-0.18552668
0.05990301
-0.02698102
-0.13589184
0.46294510
-0.26137042
-0.25080371
0.35993171
0.01191855
0.16945440
-0.01215698
-0.34387064
0.22661339
-0.08350981
-0.00893773
-0.41021404
0.14920706
-0.47044480
0.00548194
0.12838949
0.04730053
-0.23097803
0.18418406
0.13511057
-0.08954042
-0.20526437
-0.02345778
-0.10114215
-0.07909722
-0.23139969
-0.02771254
0.02512711
0.12857586
0.00793150
-0.05979028
-0.17082542
-0.00906712
0.11305615
0.12430935
-0.15724768
-0.36339778
0.05186324
0.43488735
-0.04614705
0.01516289
0.08307911
-0.01045915
-0.08159675
0.02687265
-0.08133681
0.34195602
0.17188351
0.17906113
-0.18300600
0.16320464
-0.32041356
-0.05409089
0.00702506
0.12340748
-0.34969842
0.27119717
0.06572951
-0.27555794
0.21221197
-0.23580167
0.04771186
-0.40559563
-0.21067636
-0.25149798
0.08624709
-0.13857938
-0.14963290
-0.23730716
-0.13348511
-0.27938914
0.05580539
0.35379735
-0.23226640
-0.22763354
-0.13036084
0.23330486
0.05046584
-0.18212554
-0.11087681
-0.07538241
-0.15379171
0.03763108
-0.16098070
-0.15018052
-0.29113704
0.19366160
-0.39595056
-0.17832160
-0.16241151
-0.23234230
0.00800510
0.31297442
-0.50939697
0.12670445
0.01333442
-0.11033935
-0.14592634
-0.15406837
-0.25504121
0.09108533
0.10047973
0.06735339
-0.26303455
0.00243290
0.11082933
0.01060741
-0.06518404
-0.51536340
0.25318369
0.45581791
0.09558228
-0.08075804
-0.04154345
-0.15473182
-0.11511569
0.11353306
-0.15974937
0.10487773
-0.33657053
0.28706983
0.24132274
0.08897118
0.35775429
-0.04190589
0.27936420
0.07196914
-0.19786255
0.11027245
-0.03528787
0.24572751
0.21990868
0.31988245
-0.10523816
0.14782462
-0.11014265
0.09601931
0.19802138
-0.04664639
-0.03007055
0.07371750
-0.04165952
0.15533511
0.17133346
-0.74327362
0.03187239
-0.08906897
-0.10203213
0.07677019
-0.09403437
-0.03853884
0.17173530
0.17041788
-0.01986098
0.20915100
0.06711207
0.56718212
0.20278195
-0.06075199
0.29125467
0.05206003
-0.31909803
-0.17883176
-0.36452788
-0.10169990
0.13422969
0.12167203
-0.05413008
0.12234379
0.04851103
0.13043851
-0.20304003
-0.34805372
0.25040755
-0.06690051
0.04423234
0.34836018
-0.17388098
0.48056284
-0.10493943
0.11537235
-0.34141204
-0.09463330
0.13693629
0.05844277
0.05279890
-0.02224322
0.10038056
-0.14246641
0.04937604
0.00689862
-0.35041887
-0.02806019
-0.02278882
0.11747967
0.32641819
0.00247159
-0.14838925
-0.09857962
-0.42052028
0.16091037
0.26139376
-0.00810815
-0.22610243
0.16304931
0.03560242
0.06932913
-0.27492276
0.45140055
0.17555892
0.02683636
-0.16969463
-0.40494716
0.49271554
0.03836853
0.15717433
-0.15193333
-0.16127701
0.52875930
-0.04587707
0.30343431
0.39119411
-0.08368761
0.11311427
0.25546759
0.46212384
0.32874677
-0.17109096
0.06434495
0.01139066
0.02293197
0.05107619
-0.00214364
-0.35747787
-0.15401028
-0.36656922
0.16629374
-0.00325601
0.39967379
-0.12588419
0.08961146
-0.28844348
0.18190868
0.06446312
0.56398439
-0.13262175
0.33057353
-0.13500381
-0.30737317
0.32251993
-0.07815052
-0.13426012
0.02440113
-0.06595191
0.32303044
-0.09838142
-0.05766257
-0.28537244
0.02927256
-0.20809262
-0.31440771
-0.08485571
0.16579585
0.29856583
0.22868630
-0.25720790
-0.00607721
0.06874663
-0.00666355
-0.27791011
-0.12493628
-0.05982874
0.31646752
-0.07077471
-0.01744342
0.22056523
0.03954597
0.11794661
-0.01414681
-0.00509835
0.10399043
0.03599116
-0.15708229
-0.28984454
-0.21520841
-0.27691227
-0.05290003
-0.66906464
0.08892819
-0.01599244
-0.23013265
-0.24652946
0.21867612
0.72287709
0.33541232
-0.34398979
-0.13975631
0.19586866
-0.17393462
-0.03643618
0.31217313
-0.08129500
0.18712111
0.47767520
0.02983007
0.18089961
-0.14802855
0.04903304
-0.22549067
0.10927444
-0.09811551
0.09139581
0.14108542
0.14634234
0.19097838
0.23552471
-0.13274854
-0.05716259
0.08312433
-0.10866226
0.28474921
-0.29957160
0.04640058
-0.12938216
0.10834352
0.29846433
-0.34613657
0.13989201
-0.31698248
0.01673503
-0.02915081
0.30669197
-0.24910644
0.39140859
-0.42072895
-0.16630560
0.18300726
0.03652720
-0.18887322
0.10506230
-0.02671276
0.29526609
0.19491716
-0.11239475
0.21005759
0.08045691
0.05775232
0.04342199
-0.06183257
0.27545157
-0.21310604
0.05328753
0.12692571
-0.24776664
0.24225338
0.50416327
-0.36684212
-0.07216361
0.02712709
0.34363085
0.15164855
-0.06762502
-0.25028098
-0.08875658
0.14082879
0.00182322
-0.38894251
0.00707604
0.10279711
-0.16719282
-0.36508560
-0.30863285
0.35976455
-0.03014585
-0.07714368
0.11611774
0.01499860
0.05709971
-0.00604708
-0.06832044
-0.09380711
-0.34431899
-0.37864715
-0.14553806
0.29620239
0.04557883
-0.08992448
-0.03037679
-0.13145110
0.22155200
-0.07717514
0.15761448
-0.26388821
0.09258050
0.24391928
-0.18076131
-0.05694853
-0.10942418
-0.01874836
0.02961095
-0.32861269
0.19344212
0.09542111
-0.10590989
0.35000378
-0.28087151
0.10776243
-0.18968658
0.24872789
0.17805316
0.14495137
0.34785458
-0.15058024
-0.09471472
-0.11931846
-0.06091806
-0.03810634
-0.07229929
0.40807196
-0.29646006
0.19391818
-0.22101316
0.05363599
0.09763771
-0.36007828
0.28344369
0.18092419
0.02761766
0.00166574
-0.05360957
0.24751474
-0.03014451
0.07134435
-0.20528114
0.03928538
-0.21171074
-0.05621983
-0.58781213
0.14590050
-0.04897011
0.15504757
0.31312016
-0.25106311
0.35312238
0.42990136
-0.12968950
0.11736149
-0.14512622
-0.28309631
-0.02128016
-0.10097593
0.22721621
-0.02499128
-0.24691077
0.38876665
0.04180543
-0.18241575
0.22596501
-0.33156988
-0.08570848
-0.12418399
0.24280359
-0.06159608
0.45718950
0.10752697
0.11335348
-0.09392063
0.15222950
-0.20257074
0.34953797
0.40552434
0.10594944
-0.14032939
0.25713143
-0.20491165
-0.39049819
-0.06234685
-0.03409223
0.00289223
0.16477181
-0.17982711
0.12260428
0.03291007
-0.14232996
-0.35330638
-0.17043690
-0.03277414
-0.25949445
0.07831191
-0.02840000
-0.13077797
0.04023471
-0.05516649
-0.12316829
0.04797119
-0.07839986
0.26855424
0.02653265
-0.18416487
-0.02787553
0.23148176
-0.33180636
-0.03019197
-0.22527385
0.47209060
-0.58273363
-0.00826781
0.07038855
-0.01939189
0.10364120
0.39974430
0.06283129
0.07439387
0.07654459
-0.18565559
0.08573946
0.23778656
-0.08905288
0.05837264
-0.00985134
0.24248761
-0.12604706
-0.02596690
-0.25673667
0.16011934
0.04501715
0.39885178
-0.04874425
-0.24102052
-0.08596400
0.01790109
0.06319787
-0.03950324
0.18727437
0.10005128
0.16277142
0.23952740
-0.09595109
0.08182704
0.09180357
0.21307184
0.27393892
-0.07118905
-0.09010518
-0.10735955
-0.19617242
0.10339701
0.12121947
-0.33453503
0.21723801
0.13682412
-0.40466955
0.35001588
0.06184775
-0.09518594
0.06275962
0.01841989
-0.08551623
-0.07150342
0.00685707
0.10981196
0.32101756
-0.26407689
-0.04895426
0.09959653
-0.25877196
-0.31675497
0.10995245
0.19148494
-0.23213230
-0.19590233
0.35823518
-0.22908786
0.08021502
0.14362784
-0.25714985
-0.31942567
0.18340696
0.00612290
-0.04947899
0.46840379
0.27208090
-0.16703902
-0.38725168
-0.30753314
0.28753161
0.10535483
-0.33687365
0.17818086
0.18520531
-0.01140038
0.08929467
-0.10905553
0.25922954
-0.16283211
0.21493806
0.19128616
-0.00664587
0.16004781
0.31039575
-0.29773259
0.07139599
0.22252907
-0.31413189
0.05901286
0.16562229
0.34689480
-0.10574453
-0.40719309
0.29329723
-0.29701546
-0.04351661
-0.23463596
-0.22227547
-0.23358153
-0.18243749
-0.00735552
0.06754818
0.16541144
0.12169528
0.27359274
0.14048424
-0.20675725
0.10407635
0.18257016
0.08631536
0.14090453
0.07316841
0.07680131
0.14411034
0.16117372
0.14618941
0.21467893
0.05686719
-0.21533015
0.16407079
-0.10537431
0.10352973
0.55014819
-0.06863534
0.11013563
0.06243820
-0.16677353
0.14870407
0.14597669
0.09999246
-0.10683079
-0.07495108
0.44600329
-0.02159336
-0.06071731
-0.09633449
0.05536524
0.00700205
0.14566030
0.15517351
-0.12270016
-0.21385552
-0.12209146
-0.09373778
0.15831527
0.17977321
-0.20288856
-0.31238854
0.21526036
-0.22280292
-0.04694127
0.11786093
0.13245106
-0.05038547
-0.18245356
0.14310668
-0.43888015
0.09202945
-0.16577522
-0.46091452
0.03315698
0.24952991
-0.00452905
0.02311734
0.36234570
-0.06008596
0.25555223
0.10999403
-0.15267776
-0.04377838
0.05811883
-0.08034691
0.41743964
-0.04275645
-0.26875198
0.11625535
0.06989451
0.20084035
-0.37730342
-0.07103918
0.03984520
-0.45260945
0.00584652
0.02706056
-0.00472297
-0.10536160
-0.17196780
0.22550231
-0.31720722
0.23486640
0.06092807
0.06267057
0.04092352
-0.10303716
-0.27765802
-0.07304672
-0.14874949
-0.32351434
-0.19591047
0.15217823
-0.17360561
-0.19995730
-0.12761772
0.16211595
0.32992771
0.02159447
-0.12991245
-0.02167267
-0.24892305
0.16640387
-0.12400409
0.39517283
0.00442734
0.17916392
-0.14659187
0.05901436
0.05716217
0.07683700
-0.29918927
0.10547060
0.03021849
-0.13114978
-0.03398784
0.28949058
0.06974788
0.05200866
0.13164610
-0.34656522
0.18709290
0.09119227
0.24779087
-0.14678259
0.10246934
0.20749925
0.15156116
-0.04742593
0.00348547
-0.22763070
0.12715136
0.01979147
0.09498193
0.42449835
0.01531318
0.19954464
-0.34827325
0.16116999
-0.02880304
-0.53020757
0.10456449
-0.31396848
-0.13025224
-0.08329013
0.07361186
-0.00951913
0.12352978
0.27985314
0.20263110
0.05791353
-0.00414220
-0.38737366
-0.00458312
-0.46472961
0.29690415
0.24422322
-0.33736467
-0.23394388
-0.20789778
0.11626413
0.07537111
-0.23324403
0.05262493
0.06266138
0.11953177
0.05053435
0.06050358
-0.02818612
0.45995149
0.28667879
0.18900365
-0.02609180
0.06778825
-0.00776393
-0.39070815
0.25541395
0.09784002
0.12212653
0.13654663
-0.14686476
-0.16168162
-0.15275487
-0.15756747
-0.07594533
-0.39014277
0.12642539
0.04408200
-0.02450943
-0.09520492
0.13537575
-0.08874083
0.00061603
0.72808045
0.29205355
0.04475922
0.17034787
0.01131635
-0.34926397
0.06924649
-0.06626058
0.07045148
0.11853650
0.31111887
0.01428270
-0.14865141
0.06558604
0.14846885
-0.13709535
-0.31274879
-0.25821185
-0.16937140
-0.11303372
0.08686548
0.09052180
0.08698490
0.31003731
0.50728649
0.16460299
0.03890685
-0.02171587
0.00654664
0.00529287
0.08786350
0.35191628
-0.12701219
0.16671886
0.14632425
0.27113917
0.37803453
-0.02089737
0.11229426
-0.22722691
0.02880212
-0.10888965
-0.21117990
-0.45525941
0.20037088
-0.02728443
0.25437927
0.09550793
0.62533516
0.00025089
0.13947679
-0.16847500
0.22945510
0.04818144
0.13965225
0.14836513
-0.29968891
0.66272515
-0.03327303
0.02433088
0.04271691
0.28291169
-0.40395001
-0.35041508
-0.33840981
-0.19737084
-0.07366956
0.13784169
0.17515177
-0.05738293
0.07807358
0.21593693
-0.31098798
0.10341246
-0.37099633
0.18649259
-0.01881719
-0.00228945
-0.14776802
-0.07254564
0.45905957
-0.03292536
-0.08627930
-0.05228799
-0.13253318
0.12195838
-0.00031016
-0.24622220
0.16378726
0.14148854
-0.12805650
0.09413428
-0.08165067
0.19466797
-0.29421076
0.00605475
-0.19370657
-0.23671345
-0.19816691
-0.15351182
-0.11705443
0.16125374
0.15644202
0.23108557
0.35445774
-0.01079621
-0.29520890
-0.05883181
0.32231876
0.00164091
-0.27549842
0.19187000
-0.14793798
0.04776996
-0.17669035
0.08309524
-0.12490822
0.23198713
0.18196818
0.00013367
-0.06486976
-0.18651363
0.13840663
0.23525947
-0.24858268
-0.32180580
-0.57814151
0.20411086
0.00999129
-0.09431892
-0.18159588
0.06472956
-0.54568505
-0.00816268
-0.10885201
0.20928366
-0.30545580
-0.05907125
0.02189787
-0.17450044
-0.09712886
0.08614512
-0.14901803
-0.03622931
0.13686712
-0.07720693
0.06023322
-0.02173079
-0.12648043
0.00166015
0.05251439
-0.24503747
-0.03594531
-0.19552465
-0.19750097
0.01932486
-0.07839058
0.11931114
0.36531302
0.18801187
0.30748996
-0.14194341
0.43423247
-0.20796958
0.18325485
-0.33957276
0.17370552
-0.47182029
-0.34123272
0.02322199
0.13899007
0.22378480
-0.21052402
-0.10981278
-0.00870508
-0.22412422
-0.02587931
-0.30460310
-0.01925185
-0.11093705
0.31380644
0.14070404
-0.18894656
0.49082214
-0.04528110
0.12308235
0.16794175
0.46855035
0.43193346
-0.09411053
0.20011280
0.12244890
0.21285585
-0.09844456
-0.18923844
-0.18040909
0.08608998
-0.10444321
0.43833071
-0.01540571
0.10203004
-0.00739990
-0.32517770
0.11992643
-0.38570270
-0.19871256
0.08196403
0.05793740
-0.07486854
0.23543790
-0.28740534
0.30848724
-0.24993767
-0.15466529
0.05226288
-0.15862517
0.23924953
0.33315843
0.05423557
-0.23184507
0.19267800
0.14863178
-0.07283431
-0.11062384
0.00175500
-0.19867730
-0.21711542
0.28513160
-0.06610522
-0.08011638
0.46811011
-0.33580136
0.05836426
-0.26784375
-0.64780992
-0.18357001
0.14688121
-0.68415594
-0.07098855
-0.19348472
0.60019964
0.20393960
-0.22566767
0.04891981
0.28541699
0.09872222
-0.24386619
0.61632514
0.13261613
0.20367806
0.34939727
0.44501978
0.15144905
0.26688179
0.37195808
-0.02525559
-0.01636870
-0.11097048
-0.10843850
-0.06653344
-0.45689544
0.02078944
0.09925877
0.18576261
-0.20708077
-0.08648387
-0.08709764
0.04234589
-0.13379835
0.26220179
0.38430384
-0.06904268
-0.02328656
0.00090355
0.35172662
0.03969205
-0.20115457
-0.03975897
-0.35457221
-0.06818698
-0.01441614
-0.30927375
-0.23544689
-0.04952533
-0.21606947
-0.12830310
-0.18220565
0.21344832
-0.45287210
-0.00297328
0.08744801
-0.10521197
0.22015581
0.08702966
0.14412047
-0.28061935
0.26940599
0.01299126
-0.13192271
-0.13046065
0.10276210
0.17574359
0.09859049
0.12727471
0.22315575
-0.10166437
0.03322353
-0.17308736
0.18823592
-0.37671533
-0.25380930
-0.23303749
-0.28394157
-0.29298124
0.31023654
0.03842041
-0.02788415
0.18466690
0.21613351
0.15503238
0.03846278
-0.02454163
-0.10926680
0.41225633
