-0.02378627
0.10165518
0.12600908
0.12437687
0.06895698
-0.04603770
0.00023394
0.03033991
0.22050911
0.17607962
-0.10527447
-0.00393994
0.03637273
-0.09323037
-0.12586455
-0.03908141
-0.13498968
0.27321506
-0.01567398
0.05690464
0.08286321
0.20154455
-0.01151655
0.32969934
-0.08088374
-0.03902695
-0.21418223
-0.05648196
0.05579365
0.21555077
0.06705095
0.46887022
0.11152103
0.04036991
0.50310040
-0.00056487
-0.05403406
-0.11555473
-0.06224655
-0.12830140
-0.08344503
0.03507582
-0.01585431
0.17990983
0.22218011
0.17668346
0.10363629
0.01913170
-0.14127451
-0.11447722
-0.18613639
-0.20058122
0.01595798
-0.27701056
-0.03414823
0.34643424
0.01458051
0.41091999
0.13039105
0.33720219
0.12392651
-0.15716451
0.03303323
-0.07847553
-0.06865044
0.09470132
0.06451153
-0.11308053
0.12543611
-0.00593395
-0.00497964
-0.32240698
0.11718027
-0.01389561
0.08805180
0.14229926
0.07423326
0.23639119
-0.08942609
-0.08269930
0.24291402
0.02639989
-0.11412298
0.12886055
-0.00478412
-0.13841113
0.15108711
0.11932240
0.14836556
-0.01130452
0.05974955
-0.02322824
-0.11783543
-0.13071583
-0.15878351
0.00435449
0.36885375
-0.14332077
0.09039324
0.17576316
0.42119086
-0.00060755
0.00619891
-0.04761522
0.13994037
0.02516453
0.22428493
0.08305936
0.64142078
0.05739427
-0.01252809
-0.10287174
0.10829497
0.21854159
-0.23813267
0.26806366
0.03994573
-0.08328876
-0.13470319
0.05021384
-0.26701516
0.08280601
0.25249654
-0.12971407
-0.39828435
0.32877955
0.00823350
0.10282344
-0.01983227
-0.03232102
0.02651112
-0.10321823
0.28493983
0.01202472
0.27049407
-0.15766491
0.27269635
0.12743726
0.30900225
0.01937056
0.32612839
0.16203687
-0.02432647
0.06115129
0.58565444
0.24222921
-0.08030888
-0.09337415
-0.12261567
-0.05036508
-0.16537569
-0.03374645
0.05895084
-0.22809687
0.16191405
-0.08383813
0.12391521
0.00394281
-0.06461633
0.05785600
0.06919111
0.01517368
-0.00977080
0.15148692
0.03322906
0.29320592
-0.30547714
0.13675581
0.11496817
-0.08430699
-0.44117546
-0.27155095
-0.06517512
0.41976252
-0.27971387
0.37257189
-0.03574122
0.10706237
0.18588009
-0.01780055
-0.14374594
-0.16093315
0.11449172
0.04451165
-0.14380176
-0.20828527
0.05586760
0.08309239
-0.11408164
0.16348182
0.00463095
0.06605909
0.03125884
0.01385270
0.19626386
0.00110419
-0.12115298
-0.00269237
-0.01166974
0.14788966
-0.19733314
0.03373221
-0.22600050
0.19729108
0.21159904
0.08307907
-0.08665041
0.09354157
0.07427377
0.42654452
-0.19130589
0.04800373
0.27763447
-0.04196197
-0.15676114
0.11586759
0.12397947
-0.12504329
0.01355824
-0.07372511
-0.04332588
0.05098966
-0.00424775
0.03026798
0.09177066
0.02620933
-0.02177368
0.30395404
0.01465043
-0.12354921
0.01876080
0.01964413
-0.08361130
-0.02953271
0.04533217
-0.09790894
-0.37541503
0.04468264
0.18399340
0.06116765
0.34765086
0.09124924
0.00410457
-0.08472722
-0.02964059
-0.18623471
0.06943738
0.15950981
-0.21173391
-0.23041604
-0.10505948
-0.02225341
0.13748538
0.01737596
0.06728821
-0.01515931
0.01161222
0.06761137
-0.15157604
0.18328166
-0.18124525
-0.04265502
0.15604028
0.02395017
-0.06844431
-0.09310745
-0.16328155
0.06635614
0.07114230
0.08324161
-0.05637729
0.11607763
-0.02595789
0.13633181
-0.12189382
0.06258485
-0.04977483
0.02813526
-0.00872838
0.20835267
0.11576723
0.13364069
0.35029656
-0.04175663
-0.02098153
-0.26285824
-0.26596817
0.01954784
-0.05476415
-0.41924670
-0.06080249
-0.05423968
0.16691293
-0.37024304
-0.14492847
-0.38513184
0.15933394
-0.08538856
0.59516597
0.37044239
-0.08020353
0.03027204
0.49487230
0.09742089
0.38994041
-0.11810853
-0.15305226
-0.12520419
-0.16371214
-0.05240821
-0.01619024
0.08198376
-0.28181604
0.22707988
0.00898706
0.01094647
-0.10597922
0.04158736
0.07912992
0.00551988
0.08176541
-0.02916877
-0.01036076
0.08762918
-0.03732495
-0.06761187
0.07300584
-0.02720393
-0.24135868
-0.14304267
-0.18601045
0.24738057
0.16724868
-0.06605563
-0.14382951
-0.07133187
-0.13125052
0.00687819
-0.00302469
0.04081243
0.12692165
0.02066203
-0.12502107
-0.04448380
-0.08219372
0.31289619
0.01195325
-0.13957755
0.06111442
-0.03837094
0.08050902
0.06824620
0.06348277
-0.25192717
0.04594607
0.23633441
0.21309817
0.06083517
0.39995542
0.14199142
0.08355706
-0.49359393
0.08612828
0.01245808
-0.30919823
-0.02783949
-0.37533230
-0.07044379
-0.25243428
0.05661493
0.14213042
-0.02194905
-0.03625755
-0.12147617
0.29727226
0.06323205
-0.01319526
0.02191938
-0.09234116
-0.06542344
-0.08595085
0.10133696
-0.04000453
-0.04310514
-0.14850150
-0.04271440
0.04601409
-0.23157266
0.31249446
-0.01861408
-0.09269798
-0.39821133
0.02195786
-0.08264086
0.10070140
-0.01958372
-0.19743063
0.03826588
-0.29026705
0.03252931
0.03211741
-0.19872543
0.07799873
0.14956369
0.00727136
0.12521912
-0.01003388
-0.08238290
-0.03279965
-0.08478948
-0.05366729
0.20918010
0.14078288
-0.27681392
-0.00071567
0.02749959
-0.54013890
0.04543673
0.05507204
0.00710093
-0.05248761
0.28647959
-0.19123673
0.10100093
-0.27441677
0.01917539
0.17814155
-0.09196808
-0.40615392
0.22435561
-0.35172772
-0.00161591
-0.00122944
-0.11164773
-0.13620968
0.04661570
0.02108665
0.02318611
0.07619248
0.42792547
-0.14034803
0.21074653
0.24349138
-0.06882595
-0.01504670
-0.04022807
-0.04932104
0.24474297
0.00056049
0.38490906
0.04852197
-0.08851614
0.40819561
-0.16047524
0.04995572
-0.35150138
-0.15588744
-0.07878466
-0.15857661
-0.00003795
0.14008282
0.09168453
-0.01024219
0.14141306
-0.04566015
-0.16826995
-0.13056351
-0.13678160
0.01178742
0.06451255
-0.02578952
0.09533470
0.08437664
0.13497774
-0.08987854
-0.18645576
0.03868281
-0.08662433
0.03149342
-0.00298532
0.20883740
0.07829873
-0.06293539
0.02086215
-0.04748757
0.30104047
-0.16186705
0.07319549
0.28605402
0.00978817
-0.03173080
-0.16563888
-0.01432335
-0.03819277
-0.02592776
0.09953304
0.05948528
-0.16755855
0.02363640
-0.19034499
0.11028906
0.04265181
-0.07256184
0.13036039
-0.01001644
-0.05595830
0.09507729
0.69222313
0.15336959
-0.00616785
-0.03115989
-0.34888706
0.02459758
0.01093901
-0.01806349
-0.00577081
-0.06949715
0.24032366
-0.10662697
-0.05260863
0.02554512
0.25264630
0.09565805
0.06420843
-0.01920214
-0.13756858
0.09262489
-0.17993170
-0.24755144
-0.06577355
-0.10952429
0.08943197
0.08692609
0.09814901
0.13692056
0.03076235
0.37775451
0.01474712
-0.00048872
-0.04559810
-0.42197457
0.00294509
-0.02157685
0.12888362
0.28307447
0.21372709
0.06047462
-0.06642752
0.11816593
-0.13285241
-0.01184963
0.08662697
0.18226983
-0.07829173
-0.26165441
0.06437479
-0.16010813
0.10382568
0.12877826
0.06257168
0.18677787
-0.19848664
0.01807490
-0.21456195
-0.07761578
0.14169779
-0.06339319
0.10738190
0.13088883
0.29159921
0.09843074
0.28535250
0.06680696
0.04698614
0.05465890
-0.08994735
-0.10780369
0.05820692
-0.22040474
0.04744646
0.15220051
0.02763139
0.16657959
0.01929387
-0.28783873
-0.01588660
0.07245737
0.15558322
-0.10074020
-0.22496039
0.18021195
0.04829692
0.06106258
0.11523806
0.23469886
-0.12317149
0.11081193
0.07916745
0.01680657
-0.41423187
-0.21339458
-0.01026047
-0.11263949
-0.10477847
-0.23409157
-0.15754992
0.08008573
0.06007719
0.17130992
-0.22771740
-0.04400014
0.04379204
0.07391377
-0.05276397
0.16115294
-0.01441724
-0.05221489
-0.02698954
0.03504749
-0.10201893
-0.04674679
0.29533258
0.05122234
0.06027030
-0.16702211
-0.05049217
0.05208592
-0.09476272
0.08769502
0.11685687
0.20194998
0.10482183
0.09038866
0.35056490
-0.07607008
0.11906131
-0.27946243
-0.21203607
-0.00523184
0.16309223
-0.07452045
0.28803128
-0.26424727
0.09665240
0.40657616
0.06095577
0.17001955
0.03764150
0.11827389
0.05346005
0.14750223
-0.04858273
0.28133675
0.04807435
-0.01699037
-0.04758241
-0.03557427
-0.22702551
0.26662454
0.23999460
-0.03325219
-0.11270114
-0.14421602
-0.10915532
0.04274618
0.21289051
-0.28872842
-0.02304204
-0.06695493
0.06852548
0.02397262
-0.23024859
-0.08912387
0.06669163
-0.00555208
-0.19361299
-0.02964447
0.14656587
-0.01716500
0.29215267
-0.07662411
-0.07852128
0.06701250
-0.08895223
0.01503771
0.09142975
0.06206065
-0.07239175
0.23007376
-0.21902166
0.00265798
0.14158593
0.04332073
-0.03510383
0.04514653
0.20469479
0.00591312
0.07480069
-0.12110504
-0.04968632
0.03796493
-0.90254587
-0.14165588
-0.00694394
0.19777562
-0.00972760
-0.12384473
0.00084653
0.11583667
0.04851914
0.20551020
0.08525893
0.13101405
0.49662969
-0.23221980
0.09172411
-0.30894873
-0.17975256
-0.09100905
0.05443059
0.09684446
-0.10555554
0.44489682
-0.09400630
0.16027220
-0.03522209
-0.16823290
0.08135617
0.00484418
0.22969384
-0.30005568
-0.30661589
0.00604576
-0.26169464
0.27287662
0.00497569
0.26965412
-0.25981221
-0.13520811
0.01375189
-0.33256802
-0.13367067
0.32584280
-0.05099645
0.14297640
-0.16247450
0.21502768
0.19174910
-0.07501608
-0.08212554
0.10271896
0.05538075
0.12476313
0.05863533
-0.10040303
-0.10008101
0.30164576
-0.07245120
0.00332537
-0.02466972
-0.09940124
-0.05704650
-0.07685407
0.39629221
-0.11179492
0.09277921
-0.02110079
0.00185677
0.23848659
0.10652728
0.23400532
0.32713073
0.21633285
-0.14866203
0.10061754
-0.13121293
-0.02901914
-0.02149196
0.45178062
-0.10726254
0.19765937
-0.08910206
0.02719087
-0.18746790
0.18172961
-0.02150062
0.04944456
0.03406963
0.40010303
0.21286500
0.07596763
0.27875111
-0.33831495
0.01197078
0.13818406
-0.04098169
0.18590142
-0.13490738
-0.05081581
0.13159955
0.05731971
-0.34074938
0.20222440
-0.05407611
-0.01488228
-0.25296885
0.07302885
-0.13848375
-0.01780784
0.08415476
-0.51875961
0.09035031
-0.14354858
0.12400477
0.23964284
0.05171873
0.04210040
0.03220114
-0.30369401
-0.12690286
-0.28957203
0.16995488
0.08756659
-0.13186277
0.03325325
0.03969436
0.02812783
0.05493664
0.34267819
0.13091780
-0.11787052
0.07676231
0.00099771
0.03513009
-0.04339608
0.11285284
0.16561897
0.16624938
0.11191305
-0.28844994
0.06766427
0.07760144
-0.11305129
-0.01451893
0.46985742
0.04530322
-0.29268104
0.07663772
-0.17232974
0.30372560
0.51730961
-0.02855693
0.08287033
-0.10314303
-0.53301173
-0.21884091
-0.05324484
0.17108954
-0.34931070
0.29808792
-0.15108424
0.18992850
0.04850684
-0.00660499
0.01662084
0.23083441
-0.17331660
0.06598921
-0.05658663
0.03070020
-0.08616064
0.18722092
-0.01982326
-0.43589532
-0.00757378
0.18021700
0.06305848
-0.05952566
-0.30382466
-0.23688820
0.11689667
0.20186286
0.08509634
0.22471969
-0.27304479
-0.06375857
-0.00639457
0.00553677
-0.09183938
-0.08342105
0.10680345
0.09237635
0.09520517
0.13310501
-0.19179368
-0.03023134
0.17963263
0.19135703
-0.05369807
0.07665435
0.04466765
-0.08386946
0.29941815
-0.18074763
-0.19237947
-0.00074393
0.01150916
-0.06277086
0.54129016
-0.19608341
-0.20343119
0.43808171
-0.05903325
0.16065833
0.01631136
-0.27717170
0.22651593
-0.06074529
-0.04111221
-0.31258783
0.09292387
-0.30689773
0.04990227
0.07696219
-0.01924648
-0.10798272
0.20325625
0.13916953
-0.03761703
-0.21204171
-0.03892657
-0.17442113
-0.07440668
-0.18489364
-0.05043689
-0.01085049
0.16880637
0.07855780
-0.10208517
-0.18600987
0.00900704
0.19056499
0.08434282
-0.20242216
-0.44466960
0.08528481
0.31648633
-0.04783377
0.00773387
0.02304865
0.06967421
0.00356606
0.03965658
-0.07565578
0.11801091
0.13110386
0.27583227
-0.18548796
0.06527318
-0.16372800
-0.06138381
0.03408929
0.11736078
-0.44065288
0.07719903
0.03388062
-0.28570378
0.15833457
-0.12875485
-0.01131723
-0.47649470
-0.13618071
-0.18085280
0.01364703
-0.06052532
-0.08047400
-0.09973555
-0.08138079
-0.13837220
0.05688721
0.22025144
-0.24876228
-0.19238800
-0.13134015
0.19647944
0.06233351
-0.18675989
-0.01686122
-0.09277295
-0.07646195
-0.01594422
-0.14284064
-0.09183417
-0.23590650
0.10559213
-0.27268046
-0.09681278
-0.13878906
-0.09194072
0.07145817
0.16638447
-0.31129840
0.09236406
0.05592420
-0.05479739
-0.17094037
-0.02178187
-0.13433969
0.06130488
0.08800390
-0.04401864
-0.08353567
0.00189501
0.02091216
-0.00845838
-0.02762627
-0.71504533
0.21751575
0.31985256
0.07859880
-0.09196210
-0.03761568
-0.08340526
-0.04986685
0.07417642
-0.09430412
0.06653114
-0.19492941
0.16369730
0.10367129
0.05041394
0.30788246
0.03203053
0.12900254
0.09324917
-0.11494929
0.09254605
-0.00577718
0.08459838
0.13027403
0.23694421
-0.05876831
0.13464653
-0.09119782
0.06448687
0.10044865
0.01049413
-0.01592155
0.03535556
-0.02540621
0.06898240
0.10529786
-0.73075563
0.01380722
0.00828218
-0.20534581
0.02327056
0.00316690
-0.16217873
0.07430539
0.08696865
0.00995189
0.12672190
0.03395378
0.71576279
0.27595127
-0.01613603
0.20818728
0.05246482
-0.30527014
-0.04620498
-0.21025071
-0.09874453
0.27142099
0.05320007
-0.06462441
0.02950271
-0.00695045
0.15817527
-0.13447262
-0.19257985
0.26926705
-0.07287323
0.00596882
0.31424436
-0.08062805
0.49613938
0.01115253
0.07098473
-0.38623887
-0.09045930
0.18825832
-0.08888293
-0.00827416
-0.05992433
0.03038079
-0.10910394
-0.03542454
0.01517375
-0.16380431
-0.01420987
-0.17734466
0.15118937
0.12181119
-0.02001105
-0.18316671
-0.12314870
-0.41203192
0.08993210
0.31272224
-0.00587847
-0.15769476
0.08831438
0.02533143
0.07947961
-0.16183573
0.22369277
0.14376970
0.01720686
-0.09986948
-0.33749178
0.43771234
0.05470491
0.12137485
-0.11162623
-0.08760849
0.27699357
-0.06275363
0.20264688
0.52825248
-0.03101894
0.05104544
0.19239542
0.21267965
0.25643218
-0.07895274
-0.00782622
-0.02539274
-0.02924052
0.06271376
-0.00574539
-0.20262076
-0.09404416
-0.23945475
0.08502304
0.05709520
0.23574346
-0.12438101
0.09331823
-0.21397933
0.17654383
0.06671321
0.47444421
-0.02086091
0.27518225
-0.09811116
-0.32455093
0.34064767
-0.14138471
-0.09128932
0.04185564
-0.03687897
0.20244637
-0.05913891
-0.04282469
-0.13170721
0.08247571
-0.09756175
-0.31265080
-0.01437301
0.08979531
0.20966497
0.20944466
-0.26745823
-0.04618961
0.00066283
-0.01647310
-0.14772366
-0.19989753
-0.02210961
0.33263046
-0.01247411
0.03228183
0.22697192
0.01574501
0.12731089
0.03720342
-0.02340560
0.07225894
-0.03023645
-0.05015882
-0.31287810
-0.11433037
-0.17696267
-0.09699860
-0.44170067
0.11741689
-0.14440130
-0.24447049
-0.15475737
0.16570282
0.46894434
0.23119973
-0.25004408
-0.16724610
0.08465876
-0.12500979
-0.02489211
0.37908974
-0.06428885
0.18869632
0.52364391
0.03803214
0.06788047
-0.22684295
0.09578929
-0.12314517
0.10918337
-0.04855811
0.05866263
0.11529955
0.24461801
0.10464457
0.25703311
-0.10729858
-0.12782155
0.03958891
-0.04242985
0.24910846
-0.18736227
0.03425135
-0.03830346
0.13845280
0.09105420
-0.15050545
0.10030244
-0.14363529
0.01157246
-0.01871140
0.10173254
-0.24928017
0.42635885
-0.49998468
-0.07861573
0.19797383
0.00878124
-0.11526832
0.06897491
0.04550750
0.25129923
0.25781733
0.00185751
0.07769290
0.12027612
0.02292653
-0.02883216
0.02000433
0.37478322
-0.22273909
0.08320279
0.05505513
-0.19175512
0.17503147
0.30279678
-0.22408798
-0.02993441
0.03607236
0.39443612
0.16685994
0.01105592
-0.25338751
-0.00256796
0.02812711
-0.07333919
-0.27887446
0.01885676
-0.00326025
-0.11113733
-0.27577382
-0.16309185
0.49008986
-0.05694970
-0.11311574
0.13701257
-0.00791401
0.03916894
0.03768858
-0.09244186
-0.10109147
-0.27297989
-0.21817701
-0.12211247
0.20803402
0.03693448
-0.09065492
-0.04209782
-0.17106521
0.15900813
-0.05342203
0.21617377
-0.30190215
0.03368758
0.18115628
-0.18900615
-0.05506253
-0.04001128
-0.02042813
0.04540821
-0.14547046
0.10383984
0.05147422
-0.00829757
0.31985554
-0.17998260
0.06131064
-0.09812576
0.17208615
0.10354781
0.16393156
0.17041080
-0.07419022
-0.02705152
-0.04608206
-0.07046025
-0.02127340
-0.03198985
0.29126805
-0.22091018
0.19914964
-0.15887505
0.06008810
0.05572403
-0.38624084
0.17809957
0.20463261
-0.00294088
-0.00480253
-0.10592722
0.27560961
-0.01532040
0.05459236
-0.19742376
0.04305886
-0.20514280
-0.03341862
-0.56772935
0.11462793
-0.01732800
0.11284667
0.19211237
-0.15792079
0.35275656
0.33026657
-0.21895531
0.11979563
-0.13947904
-0.11785316
-0.02137520
-0.08415908
0.12458070
-0.07494647
-0.16289519
0.25509974
0.03794456
-0.09433211
0.12614679
-0.37722307
-0.03489105
-0.09035718
0.16925497
-0.04357560
0.39832121
0.07825449
0.14201942
-0.06576524
0.11187542
-0.14907235
0.33627900
0.33559868
0.06705172
-0.12831929
0.15116063
-0.06497993
-0.30275482
0.01982688
0.02080176
-0.00013971
0.10353892
-0.10047111
0.02663672
-0.02496813
-0.04872131
-0.24142423
-0.13119400
0.08361097
-0.30551413
0.11558378
-0.03452205
-0.13611174
-0.01797171
-0.06526563
-0.08083963
0.08086492
-0.07122627
0.17110814
0.02316885
-0.08964628
-0.11665425
0.15176778
-0.32177678
0.02608884
-0.12572515
0.35526338
-0.42789710
0.00713330
0.07168177
0.01789100
0.07113872
0.21603920
0.02337655
0.07259027
-0.02111289
-0.09673649
0.03668340
0.21682529
-0.05359095
0.02535224
0.02746519
0.35187864
-0.07013508
-0.07008854
-0.09346226
0.13401553
-0.02294681
0.20312223
-0.04447900
-0.10800496
-0.02848561
0.13026929
0.03543656
0.01167042
0.11430810
0.06219503
0.17335162
0.11931227
-0.03287850
0.04259745
0.09066965
0.24172896
0.25343612
-0.02406595
-0.04244189
-0.05685520
-0.11017928
0.26711971
0.05498409
-0.07370428
0.12231416
0.13787121
-0.24725816
0.32564798
0.03473994
-0.06435411
0.06382031
-0.00928856
-0.07667592
0.00243893
0.00786885
0.13094626
0.26126495
-0.20867388
-0.01036684
0.03655526
-0.25531855
-0.16464734
0.12488312
0.19433296
-0.16139515
-0.10934105
0.28590015
-0.06651202
0.04230526
0.03551746
-0.15375888
-0.15082654
0.20797561
-0.01054631
-0.00762700
0.39593723
0.19347686
-0.06671324
-0.33921519
-0.26253593
0.18364953
0.08247473
-0.34536019
0.14332715
0.09546873
0.08743459
0.04923959
-0.07397891
0.23777990
-0.08242550
0.10191511
0.10536695
0.03105827
0.10626604
0.17603879
-0.22889493
0.02978925
0.26961175
-0.33452588
-0.00300207
0.05176996
0.52277279
-0.09531546
-0.20911856
0.20021957
-0.19955292
-0.08198630
-0.12559934
-0.15405113
-0.11423039
-0.14199506
0.12031362
0.06680185
0.10301574
0.12750326
0.27527332
0.05655080
-0.13576718
0.03603496
0.18021974
0.16209434
0.08642287
0.02280573
0.10016952
0.07255477
0.11648843
0.15675791
0.19822574
0.18057735
-0.18452981
0.07707150
-0.13280152
0.08220734
0.30063090
-0.09519230
0.02075858
0.04373941
-0.06542378
0.04658259
0.12305966
0.04457225
-0.02720189
-0.03443877
0.37782529
0.06103274
-0.04056518
-0.10401169
-0.03496857
0.02055536
0.07302519
0.16424717
-0.09243432
-0.13498186
-0.09496642
0.01496415
0.01907602
0.13515431
-0.24504620
-0.39397922
0.07874981
-0.18285504
-0.04933223
0.08044753
0.06141555
-0.02503016
-0.06375389
0.11292055
-0.23590785
0.16513211
-0.10783111
-0.45964575
0.03654651
0.32460618
0.00890655
0.00275817
0.24177730
-0.05551444
0.14147741
0.11414904
-0.09864134
-0.09426108
0.03851639
-0.04522632
0.33119875
0.00614747
-0.25406727
0.07428524
0.02068613
0.08536821
-0.41123876
-0.03934453
0.05860859
-0.26843569
-0.02850439
0.10513455
-0.10709520
-0.14649259
-0.10472331
0.20795247
-0.23434937
0.14239436
0.01372101
-0.02431950
0.03980941
-0.05072827
-0.27453017
-0.02625165
-0.23303211
-0.15883678
-0.19047678
0.12605006
-0.07417928
-0.12324752
-0.00765068
0.05552285
0.30296972
-0.00028621
-0.10761226
-0.00406780
-0.32336628
0.07160033
-0.07767878
0.35177594
0.08387351
0.10541654
-0.07622149
0.03981164
0.06177286
0.06787788
-0.18615213
0.02592526
-0.01994585
0.00651534
-0.02469734
0.23797318
0.03244157
0.01134276
0.13878296
-0.51892734
0.19105908
-0.01957602
0.15216979
-0.08175928
0.06671663
0.05597972
0.05993298
-0.01849384
0.00477641
-0.10387640
0.06428547
0.02188535
0.06728606
0.54643446
0.02405770
0.18635519
-0.28569514
0.17481776
-0.00433593
-0.20439479
0.06020845
-0.07848568
-0.02316498
-0.14465164
0.09120114
0.06501859
0.18098584
0.13215463
0.11984802
-0.05031461
0.04509576
-0.41864106
-0.08362855
-0.31174511
0.12213254
0.10085154
-0.15300639
-0.16134481
-0.11713134
0.06106682
0.07811495
-0.21103899
0.09073732
0.04062347
0.12925529
0.10787284
0.00596477
-0.04281837
0.48455676
0.12994576
0.19356859
-0.00076702
0.11644197
0.00535475
-0.41771969
0.25015023
0.03744894
0.10535631
0.04013563
0.02138622
-0.12242800
-0.06743818
-0.07997493
-0.13172048
-0.37258855
0.07310387
0.07128730
0.08896863
-0.15548871
0.09314188
-0.00802173
0.01053443
0.70577526
0.28218824
0.06653909
0.24402741
0.07232281
-0.14281447
0.00940292
-0.12810194
-0.00823900
0.07382803
0.18646370
-0.00996931
-0.06494072
0.01501057
0.16925566
-0.08978383
-0.14754045
-0.14206298
-0.13786431
-0.12597921
0.11101769
0.03828052
0.05140477
0.26125479
0.20253873
0.18424480
0.02068308
0.05735032
-0.04299463
-0.02133553
0.17163678
0.15531427
-0.09008116
0.09131155
0.15827939
0.30617422
0.24484210
-0.02417509
0.00696547
-0.23584665
0.04309843
-0.01320006
-0.10669450
-0.43374574
0.14824086
0.02535222
0.15234835
0.07304826
0.38562945
0.01891037
0.06416038
-0.13896470
0.24289283
0.05191378
0.08057256
0.04510800
-0.17388977
0.62338775
-0.01648331
0.05620211
0.08174019
0.41300660
-0.17302251
-0.17376156
-0.18282570
-0.23884603
-0.02677489
0.07703567
0.09529829
0.00986124
0.00232854
0.06354388
-0.11172902
0.05294208
-0.30492333
0.11577251
-0.03723780
-0.03925178
-0.07170258
-0.20484793
0.23399960
-0.12404202
-0.08026678
-0.00750042
-0.15084553
0.14907274
-0.03422238
-0.35891849
0.19491412
0.10575470
-0.11292686
0.02905502
-0.13296719
0.06930268
-0.14669174
-0.07869638
-0.17803852
-0.23867618
-0.29593062
-0.08971675
-0.02680857
0.05904392
0.14470010
0.32577977
0.25843421
0.01082253
-0.24965078
-0.08089589
0.38981083
0.04904967
-0.30486715
0.13870446
-0.05238506
0.07917838
-0.08842308
0.06918006
-0.05278166
0.23947591
0.04140091
0.03756944
-0.09802771
-0.07475004
0.11036361
0.16944969
-0.01408975
-0.20174661
-0.44308645
0.37219948
0.03113223
-0.02526692
-0.06724088
0.07504638
-0.29058430
0.03052584
-0.06868124
0.19583037
-0.09140777
-0.04066356
-0.07847272
-0.19542356
-0.05153512
0.11069564
-0.12222102
-0.00521374
0.13295934
-0.13654020
0.02346028
-0.03846145
-0.13217293
0.07152023
0.04482172
-0.19660015
0.00062252
-0.13480456
-0.14471909
-0.01300423
-0.04891372
0.05846044
0.17526650
0.13861911
0.26756832
-0.13901769
0.46239775
-0.05808298
0.22063155
-0.07754178
0.15285710
-0.24782649
-0.15137832
-0.00758774
0.10250951
0.32395154
-0.16834238
-0.03799567
-0.03496244
-0.12333070
-0.03005546
-0.35945079
0.02341846
-0.02264526
0.16366492
0.17747167
-0.11106370
0.26006916
0.00636736
0.08460888
0.08704036
0.23600540
0.54745883
-0.07602447
0.10790616
0.06509314
0.10868227
-0.07870458
-0.08965714
-0.05819345
-0.00651992
-0.03236800
0.37385735
-0.08190170
0.02788290
0.00377736
-0.30815539
0.07200985
-0.54418164
-0.10510458
0.07814955
0.02166905
-0.05096039
0.19920449
-0.13507736
0.17285727
-0.22832918
-0.07623771
-0.00155237
-0.00030965
0.22096011
0.14583263
0.11383186
-0.09016871
0.04779551
0.14139992
-0.08710743
-0.11347511
0.03105054
-0.11686095
-0.15911314
0.26854911
-0.06764302
-0.04649177
0.38226110
-0.20740196
0.03162013
-0.15531375
-0.74186617
-0.08990809
0.09652260
-0.56309867
-0.04063250
-0.10767457
0.51220757
0.19577663
-0.22362234
-0.11654598
0.25823691
0.02965928
-0.11659479
0.56227291
0.03804784
0.09285361
0.38138011
0.42104378
0.07068736
0.15188193
0.25686011
0.01154750
-0.01866608
-0.01422978
-0.13627243
-0.02954037
-0.29092672
-0.01928083
-0.01092564
0.19821583
-0.16060935
-0.04045863
-0.03230157
0.04562012
-0.24678011
0.11100484
0.26385510
-0.00074799
0.05773928
0.00957004
0.15830082
-0.03093360
-0.17132936
-0.03873276
-0.28759077
-0.14899518
-0.03131728
-0.18118645
-0.15392184
0.00421858
-0.16904956
-0.10572061
-0.10930875
0.12019920
-0.17359515
0.02180084
0.13805398
-0.05451865
0.18502524
0.00582943
0.10360471
-0.10244495
0.16665395
0.04849316
-0.08777180
-0.13224724
0.11077468
0.03404452
0.02908208
0.10231087
0.10234307
-0.10509141
0.07092994
-0.10210373
0.21925937
-0.38408390
-0.33357212
-0.11193240
-0.22075166
-0.25255772
0.24151824
-0.05617233
-0.01954889
0.24775991
0.09944265
0.09270290
0.05260830
0.05586913
-0.11237562
0.17791127
