-0.00179247
-0.08270636
-0.01632317
0.07540226
0.23778628
-0.28114113
0.04342480
0.16401400
0.04181770
0.19148824
-0.18638261
0.05601634
0.07250317
-0.01646633
-0.22530131
0.13177228
-0.18719314
-0.10055557
-0.09560691
-0.00592266
0.12757547
-0.07802960
-0.04209429
0.31711784
-0.00765333
-0.19693632
-0.20572545
-0.10233517
-0.06199486
0.36677685
-0.10830470
0.11146111
-0.08360337
0.03214489
0.68247896
-0.02089898
-0.25709376
0.08337508
0.12052830
-0.04475791
-0.13176277
-0.09220459
0.21780691
0.00143761
0.07958937
0.02572872
-0.00600487
0.09871548
-0.10440021
-0.28879449
-0.04705939
-0.14312722
0.02090358
-0.07266858
0.00569625
0.02869277
-0.32626751
0.18735494
0.07612236
0.33382946
0.06995463
-0.18672103
-0.07875530
-0.08459298
-0.02869803
0.19839002
-0.02808496
-0.20303069
0.60039383
-0.21175273
-0.09310947
0.02251156
-0.07699426
-0.10785377
-0.17061098
0.25382009
-0.05072187
0.18151577
-0.15304928
-0.08121086
-0.09051778
0.11751048
-0.04945041
0.06027606
-0.10534511
-0.13029630
0.11241089
0.10286903
0.18666762
0.03936561
0.05572058
-0.10603838
-0.09908976
0.07273337
0.12105530
0.32489055
0.37463805
-0.19380477
0.00397879
0.22083822
0.17316726
-0.08799387
0.01116953
0.08269889
0.01871504
0.14269444
0.05632604
0.09558442
0.33788970
-0.10525130
-0.01520127
-0.05332599
0.10610577
0.24965334
-0.07603145
0.22081853
0.02540290
-0.06759498
-0.25020188
0.03417296
-0.14914586
0.22388750
0.26515993
-0.12673470
-0.43786213
0.39984491
0.09688706
-0.03661993
0.04412108
0.06093600
0.11973245
-0.23186947
0.11824371
-0.04666829
0.05602304
-0.01359463
0.22096707
0.04307622
0.29545212
0.03213923
0.39471477
-0.20111182
0.01316351
0.13315506
0.03873276
0.16344273
-0.12149941
-0.08850886
-0.19779555
0.08267280
-0.02691219
0.01204631
0.01965191
-0.37732354
0.11518998
-0.13574463
0.13919464
-0.11195176
-0.04242031
-0.04490098
0.06599313
0.01367783
-0.06623337
0.00729783
0.18270794
0.14109099
-0.17372391
0.14907704
-0.10046877
-0.24324307
-0.01186107
-0.35418010
-0.11467823
0.18291706
-0.03795969
0.20139545
0.23128878
0.09038582
-0.04144108
-0.02320561
-0.05312290
0.04799495
-0.11899090
0.06802408
-0.13223666
-0.17413177
0.09352756
-0.00026197
-0.05429530
0.08378208
0.37905204
0.05076186
0.12683654
0.10877585
0.13991873
-0.00964696
-0.01428756
0.12049328
0.17843455
0.15059750
-0.06607977
-0.06532266
-0.08341375
0.14142750
0.05686045
0.09951832
0.16946565
0.19908568
-0.03037489
0.30777133
-0.17332615
0.07796135
0.11126546
0.21472402
-0.10049970
0.23197688
0.24594645
0.02163712
-0.08778045
0.20144813
-0.11864092
0.12954883
0.04841861
0.03382181
0.26630840
0.09516655
0.05850400
0.25371414
0.10539477
0.00453168
0.08595216
-0.10470709
-0.25299510
0.13209316
0.10431121
-0.15248999
-0.29112130
0.25799826
0.09020493
-0.02549109
-0.01017650
0.15232334
-0.11032816
-0.13155317
0.00076231
-0.14353521
-0.03517449
-0.10839326
0.10986236
-0.28308481
-0.10407404
-0.26950818
0.04466400
0.23949285
0.10642214
0.18589769
0.05605802
0.01018129
-0.03014250
0.23356248
-0.13195919
0.14147300
0.05199251
-0.01095737
-0.00410581
-0.04265838
-0.01265766
-0.03903776
0.10693622
-0.11085388
-0.17578523
0.07685330
-0.02885781
0.14384583
0.01659002
0.07059361
-0.16984060
0.05401684
-0.06368209
0.10788862
0.08882190
0.05399134
0.16583869
0.05296173
-0.14098987
-0.16362749
-0.20401932
0.15129595
-0.02896725
-0.27632064
-0.09728139
-0.08750211
0.14786284
-0.28306827
-0.12470175
-0.11327773
-0.21101023
-0.15478995
0.48579946
0.42391184
-0.13416839
-0.11453922
0.44563729
0.13433619
0.28499693
-0.22426318
-0.02968451
-0.10942521
-0.15878066
-0.13798377
0.00435577
0.06241044
0.08923395
0.08727175
0.13088848
0.12127504
0.12262312
-0.08371692
0.14175716
0.25692663
0.17148431
-0.01400847
0.10824736
0.32883194
-0.03012270
0.04141059
0.14808612
-0.05734747
-0.12534250
-0.08443291
-0.08778467
0.08628035
0.06879459
-0.01339333
0.03692858
0.22795470
-0.02775246
0.06495631
0.03259818
-0.12335926
0.02625740
0.21658958
0.07983665
0.03141129
-0.08573708
0.07499874
-0.05691432
-0.17546645
0.10820556
-0.11361079
-0.06345935
0.09509172
-0.07288764
-0.09222060
0.10669924
0.17230706
0.15710764
0.05425740
0.19452915
0.14251088
0.14994843
-0.17036046
0.03868762
0.03800456
-0.46196094
0.00476524
-0.04632717
-0.07587278
-0.14295037
0.00655256
0.07445140
0.16197988
0.07346941
-0.02671608
0.31482047
0.07540763
0.03898271
0.00871183
-0.11554566
0.09129025
-0.12231313
0.03376991
-0.01424854
0.10802981
-0.03063717
0.02609964
0.15757841
0.05995845
0.37756962
-0.06166730
0.00982941
-0.25056207
-0.13636059
0.05528021
-0.11711235
-0.21687032
-0.03724450
0.05825055
0.18028004
-0.03043360
-0.04249712
0.26941556
0.06221614
0.12933549
0.08945289
0.24391718
0.08472071
0.10342626
0.14551730
0.01956720
-0.19720839
0.22619069
-0.01421512
-0.05309377
-0.05935285
-0.04888751
-0.09978381
0.07449985
-0.09967817
-0.05022991
-0.16674371
0.28086695
-0.04919726
-0.03899785
-0.04315620
0.03232070
-0.04132923
0.13757193
-0.16597827
0.27855352
-0.09696767
0.00444104
-0.06904548
-0.13461265
-0.17126378
-0.05114674
-0.05392438
0.02748115
-0.22601663
0.38939151
-0.16170634
0.01429941
0.15106161
0.04911377
-0.06802479
-0.20351914
0.08580435
0.17628075
0.13724613
0.24679959
-0.03869263
0.14545003
-0.11147244
-0.11252747
0.06255602
-0.26703632
-0.17858787
-0.13801321
-0.03217835
-0.07576689
0.04256101
-0.11631306
0.24220672
-0.40193149
0.03013841
0.09860687
-0.02894242
-0.09368697
0.03573390
0.22178766
0.06948765
-0.19658923
0.13191359
0.09511264
-0.09251853
-0.00392191
0.08108595
0.02377224
-0.01923130
0.08619521
0.21321368
-0.14620326
-0.25209600
0.20502104
-0.12636007
0.35496518
-0.23648177
0.11008792
0.29697642
0.04860407
-0.04002564
0.08951143
-0.03349347
0.08275095
0.08774537
0.05088094
0.02277425
-0.13237490
-0.09700999
0.06074211
0.19827566
0.11446881
-0.23421936
0.08449268
-0.01429124
-0.08818369
0.16718395
0.46237016
-0.05685296
-0.00563389
0.13945282
-0.25175241
-0.01724232
-0.04562490
0.16675262
0.07827664
-0.24844353
0.08613671
-0.20101099
-0.14422913
-0.06522729
-0.06201731
0.36975205
0.08026540
0.18372770
-0.14929478
0.02218260
0.06976157
-0.12821412
0.27370915
0.00665633
0.07023057
0.02294708
0.03922113
0.18005586
-0.00480704
0.27815580
0.02698415
0.12563550
-0.05435290
-0.38559407
0.14929013
-0.00041077
0.17217991
0.11400545
0.03562764
-0.01210217
-0.12029253
0.01856373
-0.10920528
0.31702656
-0.04581344
0.15600628
-0.05096741
-0.14818311
0.14977558
-0.27862900
0.20343769
-0.00605344
0.07252013
0.07846725
-0.09054364
-0.03766813
-0.11852105
-0.05716030
0.07944580
-0.22070397
-0.04572601
-0.14024083
0.32005250
0.06544091
0.24268822
0.15301119
-0.15475859
0.01772168
-0.03818769
-0.02530180
0.01393351
0.05435871
0.10679024
0.19487482
0.06857891
0.18065804
0.01836343
-0.34681186
0.00137915
0.20171307
0.10759296
-0.21273187
-0.21417618
0.25666389
-0.05079654
0.52069443
-0.12158659
0.23877168
-0.13056850
0.01647951
-0.15006278
0.09502391
-0.11700676
-0.23706076
-0.07095931
-0.10337637
-0.07831333
-0.08743808
-0.07315811
0.39896399
0.02181769
0.32252917
-0.29238975
-0.05448167
0.03930787
0.00269317
0.01374039
0.04765971
-0.04654615
0.09372444
0.18453282
-0.16527732
-0.13033502
-0.03506465
0.15954888
-0.08498196
0.02093590
-0.14879251
-0.02220188
0.10498869
-0.00266402
0.19350819
-0.00937331
0.02068822
0.31885582
0.04305257
0.23210163
-0.01833017
0.01303822
0.02622512
-0.08480645
0.24420021
0.00069162
0.08360987
0.04256961
-0.47384045
0.12035200
0.33658212
0.01729252
0.07975667
0.01588136
0.11977275
0.08956082
0.12304367
-0.07919370
0.16631924
0.24263512
-0.09891720
-0.02057599
0.05870402
-0.14493452
-0.02963746
0.08753995
-0.01719839
-0.26319286
-0.12489271
-0.14600839
-0.02760244
-0.11756932
-0.25821638
0.01847429
-0.11983010
-0.05192592
-0.14378275
-0.05581991
-0.07918476
0.00771864
0.05350145
-0.09053073
-0.04440259
0.04672059
-0.01095903
0.07907229
-0.23363717
-0.00378516
0.08195000
0.06440313
0.21000685
-0.00256441
0.14111067
0.03410533
0.01086056
-0.07020679
0.00098410
0.11950761
-0.22425447
-0.14957462
-0.02388805
0.06154644
-0.01256571
0.10832397
-0.02273812
0.18258549
0.00370580
-0.08243731
0.08122092
0.03338331
0.00272330
0.22302645
-0.05557326
0.17174841
0.10759039
-0.07757331
-0.14944769
-0.01750912
0.20025811
0.13468732
-0.09081940
0.15735663
-0.19010840
-0.10212991
-0.08490334
-0.01048710
0.29924473
-0.15164986
0.59140426
0.01367515
0.15980057
-0.09090744
-0.00359889
-0.13964064
-0.03520134
0.24528670
0.01027370
-0.21787675
0.08588278
-0.28269142
0.07313984
0.11060739
0.18236817
-0.23039621
0.05373363
0.09631617
-0.14480665
-0.03887226
0.00951308
0.03627213
0.20492455
-0.16969655
0.15170829
0.29605371
0.02343950
-0.21040151
0.11407237
-0.01658608
0.30952227
-0.00868432
-0.04209797
-0.08285318
0.41120672
0.02203451
0.07959516
-0.15472727
-0.13210104
0.05644912
-0.00635150
0.16314621
-0.22205831
0.08793741
-0.02844685
0.01514020
0.24389327
0.16163591
0.42795217
0.24052560
0.10042626
-0.04162477
0.06494452
-0.19571510
-0.18879928
0.02447133
0.08537607
0.15789606
0.18439204
-0.13916385
0.18425611
-0.25122020
0.13266559
0.20613147
-0.07997498
0.09783939
0.20578010
0.15561403
-0.12416929
-0.02179314
-0.14894982
-0.08453809
0.13785091
-0.07675891
0.09743565
0.01948541
-0.06476077
-0.04517266
0.15736568
-0.04789640
0.52615023
0.05175466
0.13407893
-0.07798602
0.00780678
-0.19198939
0.01029604
-0.03839369
-0.25212008
0.13765013
-0.27265283
0.07641175
-0.13906154
0.01994054
0.05998923
0.01570202
-0.31241786
-0.02474837
-0.23736717
-0.03648882
0.12488349
-0.07522890
-0.10308043
0.18380307
0.07894459
-0.02366130
-0.14888607
-0.13092430
-0.07365445
0.11453167
0.15685080
0.06249232
0.10129908
-0.20146948
0.17690797
0.15769055
0.15874313
-0.49139580
0.08278218
-0.00627433
0.09451146
-0.04742583
0.20414734
-0.00184749
0.05611033
-0.07385856
-0.31951204
-0.07677802
0.30851927
-0.05137078
0.14206298
0.00523606
-0.26585299
-0.14774218
-0.08941201
0.10234483
-0.44345006
0.18509281
-0.05691276
0.16833439
-0.03171233
-0.23570845
-0.02842871
0.20425776
-0.05344100
0.02566069
0.02900098
-0.05901499
-0.12379804
0.09598181
-0.08601744
-0.53897488
0.08192407
0.13014923
-0.10278299
0.08259447
-0.45833635
-0.27874297
0.18754624
0.08751789
-0.01615170
0.07169933
-0.27490953
0.05939315
-0.11066075
-0.10898233
-0.04352314
-0.14341041
-0.21743165
0.38305593
0.15667561
0.02673311
-0.10250856
0.03906880
-0.02665276
-0.41978565
0.05230566
-0.04044370
-0.05568145
-0.30109161
0.51579225
0.29556313
-0.01241439
0.21910892
-0.20653753
-0.30665937
0.09691270
-0.30334765
-0.12641540
0.35469839
0.13055615
0.16992845
-0.19632827
-0.22015311
0.16451582
0.19755816
-0.06500430
-0.17204131
0.07657846
-0.21453364
0.07797371
0.07033168
0.01363211
-0.13027391
0.21379744
0.18727881
0.08298613
-0.22740223
0.19646467
-0.03914071
-0.03673590
-0.22767566
-0.16119166
0.01677153
0.14397655
0.19021721
-0.14082031
0.17402723
-0.02437400
0.23853222
0.07967430
-0.18932039
-0.63219357
-0.04407836
-0.01303566
0.05625345
-0.14671192
0.02276440
0.18216215
0.24173965
-0.04846010
0.01770044
0.08740880
0.11917830
0.53957218
0.09924458
-0.08467908
-0.09702808
-0.00874552
0.18856719
0.02636424
-0.37576666
0.11194164
-0.21926315
-0.16226937
0.19165440
-0.02925857
-0.04308863
-0.09102250
0.08618675
-0.10398122
0.14653876
0.07960427
0.02930374
-0.06805837
0.13292606
-0.01128773
0.02686561
0.26026145
-0.25204089
0.17638199
-0.13937800
-0.12509049
-0.00216630
-0.06597277
0.00236006
-0.05938651
0.03967305
-0.22131497
-0.16290125
-0.20483421
0.06530071
0.05693118
-0.28878149
0.07878286
0.19714238
-0.04000100
-0.12855439
0.12091031
-0.08845691
0.19888237
0.01737604
-0.08138583
-0.00155193
0.08843824
-0.17798541
-0.00442752
0.23104766
0.00265854
-0.08120900
0.08624593
-0.03632380
-0.15362947
0.08016060
-0.58265406
0.25554350
0.12760757
-0.18993638
-0.08667534
-0.06302468
-0.13304266
0.07025545
0.00489897
-0.07370080
0.19809295
-0.11492358
0.09318114
0.32804200
-0.03479370
0.05733125
0.07514928
0.07618682
0.25188792
0.01806684
0.24379884
-0.01676744
0.05407372
0.17079943
0.16396058
0.01522314
-0.01667261
0.04259821
0.05934487
0.06042470
0.00015904
0.13668513
0.00943524
-0.01455699
-0.14264578
0.00558500
-0.63033879
0.02133123
0.26660687
-0.21160361
-0.03856368
-0.03860130
-0.14539495
0.13022220
0.15128830
-0.02905185
-0.00705847
-0.07010604
0.62439674
0.21415828
0.02285183
0.20399189
0.13519217
-0.18430494
0.01225042
-0.06863020
-0.16064490
0.37886178
0.12797146
-0.04031288
-0.01236775
0.16394150
0.17967616
-0.06398169
-0.05506867
0.19117731
-0.13623737
0.00544119
0.39131856
-0.10260072
0.73997027
0.11136097
-0.08308961
-0.44228542
0.00476749
-0.18936318
0.05830112
0.09719542
-0.06825899
0.00494539
-0.08974649
-0.18429522
0.15509835
-0.27704015
-0.06902503
-0.15183043
0.26681307
-0.00207393
-0.00609753
-0.30531904
-0.17468631
-0.13486376
0.11987614
0.30312282
-0.02901541
-0.14575592
0.06217721
-0.08580326
-0.09127117
0.07930520
0.10391768
0.31367722
0.04726495
-0.22388633
-0.54707474
0.43038261
-0.01729907
0.35982242
-0.06478711
-0.06299558
0.24020547
0.12114664
0.01685553
0.39594960
-0.03711046
-0.04746451
-0.02813267
0.11570868
0.16548471
-0.25510597
0.06701232
-0.04772583
-0.14771952
-0.03550889
-0.06536113
-0.05510757
-0.20408140
-0.06014400
0.10073217
-0.01123609
0.10160374
0.10021824
0.08171167
-0.07843369
0.12423325
0.23554714
0.12081508
-0.18173541
0.12755284
0.17557956
0.02919327
0.16263123
-0.03312412
-0.16175666
-0.11636370
-0.03036750
-0.25417361
-0.12202670
-0.08094762
0.02004693
0.29039788
-0.03781201
0.09140958
0.06857274
-0.07025974
0.11581793
0.01500054
0.14396591
-0.01628195
0.03291594
-0.14229237
-0.08643060
-0.10453416
-0.07590516
0.13006158
0.04177739
-0.00173850
-0.06233580
0.01921756
0.02353724
0.18037973
0.10846684
0.22273031
-0.05227775
-0.13803260
-0.19152226
-0.00282310
-0.18195195
-0.24967554
-0.28683764
0.06491579
-0.12914644
0.16084689
-0.13417256
0.07986283
0.26390195
0.33718368
-0.35189527
0.16880050
0.06397280
0.00649981
-0.10263204
0.13404584
0.03626821
0.29852191
0.24873510
0.33253849
0.21691819
0.00711904
-0.00825027
-0.16260441
-0.00459302
-0.03887246
-0.02290111
0.01992445
0.07140340
0.11143479
0.10086243
0.18065694
0.00492870
0.03852515
0.09849328
0.10851172
-0.07541712
0.11653284
-0.00844370
0.33256918
0.11373574
-0.08473977
0.33154830
0.04357170
-0.19529714
-0.03517624
0.16392681
-0.18067308
0.17014244
-0.36965853
-0.07776985
0.38266915
-0.02943500
0.09052277
0.14765944
0.01053117
0.07607584
0.16991502
-0.01363638
0.07514795
0.30372682
0.21743496
-0.21190828
-0.01861619
0.19166851
-0.17793812
0.15043245
-0.04565008
-0.14712745
0.28947732
-0.06130331
-0.11901055
0.04818343
0.11819404
0.10984757
0.13958517
0.08940741
0.13921697
-0.03950931
-0.01421035
0.01990916
-0.13423757
0.06149162
-0.00020111
0.07584076
-0.41021490
-0.15534230
0.56999111
-0.10367218
-0.09234598
0.10686712
-0.04362186
0.05238320
-0.13089909
-0.20225321
-0.05871997
-0.45089856
-0.23827070
-0.21934900
0.36716425
0.23602259
-0.12312137
-0.25806335
-0.11363260
0.28660572
0.11410861
0.20388234
-0.27061614
-0.01447239
0.28855431
-0.14348435
0.01333485
0.08144677
-0.01912645
0.02299055
-0.02423911
0.06271593
-0.18767090
0.05688500
0.24133381
-0.11387285
0.07920433
-0.05937778
0.13770679
-0.06964100
-0.20612031
0.05675040
-0.01571420
-0.18899767
0.26077724
-0.02196485
-0.00145266
-0.01035153
0.35223898
0.21098723
0.24685669
0.20427674
0.10219906
0.06521100
0.07433119
0.13214111
0.39982262
-0.04336804
-0.13287710
-0.24070325
0.00842544
0.06883654
0.11871095
0.01429502
-0.04814707
0.18885449
0.15758635
-0.65407002
0.34774369
-0.11576556
0.23322560
0.18955505
-0.13014816
0.41729754
0.18820687
0.09569245
0.14430480
-0.24256088
0.16768038
0.11241365
0.16623348
0.15220924
0.02201131
-0.16050135
0.02771948
0.20533322
0.04111228
0.09980174
-0.15664901
0.01260480
-0.18533114
0.15590404
-0.03518502
0.36938205
0.09930457
0.36489058
0.19279489
0.13402736
-0.21529335
0.13886845
0.12788162
-0.01540767
-0.13689911
0.09027962
-0.06666030
-0.29689270
0.36167556
-0.11585958
0.00638099
0.24485491
-0.16586891
-0.05436961
0.19335391
0.06542806
-0.37395027
-0.03421892
0.19880547
0.00803053
0.13830106
0.04311869
0.12019789
0.10730544
0.12197848
0.05407811
0.13939980
-0.16702840
0.10084693
0.20326971
0.03956012
-0.01097928
0.11098656
-0.01260910
0.03565337
-0.07435957
0.19215880
-0.05950424
-0.16727677
0.21993797
-0.08229087
0.11022587
0.14651357
0.04574141
0.06583736
0.01891198
-0.05691705
0.07119134
0.09482075
0.04873732
0.08089092
0.10132096
0.32305506
-0.00909186
0.06528173
0.02822827
0.14205994
-0.09473749
-0.06071721
-0.04601828
-0.11147036
-0.05563301
-0.00814174
0.12060039
0.06898091
0.20899382
0.37955835
0.25080723
0.27718651
0.19929083
-0.08125778
0.10025626
0.13567844
0.21373028
-0.12552352
0.01899974
-0.12879394
-0.20067728
0.43348753
0.03863177
-0.01627512
0.15179849
0.14816782
-0.14136524
0.20436230
-0.07105497
0.32880133
0.05938918
0.07200629
0.05085012
-0.08316506
-0.06991148
0.18362679
0.17483453
-0.20187308
-0.07441547
0.03583294
-0.10604078
-0.01714060
-0.22483084
0.24290606
-0.09406011
-0.06632631
0.03581817
-0.14173667
0.12385573
0.16824681
0.10395076
-0.25012246
0.00394016
-0.04007043
-0.15222797
0.47745687
0.21749571
-0.02909565
-0.25046289
-0.27920842
0.01802146
-0.36718717
0.09782282
-0.02273097
0.02190494
0.08696125
0.18154125
0.04681826
0.13337933
-0.10790828
0.01531856
-0.22712804
0.01110376
0.21067254
0.01850313
-0.09075125
0.08909229
0.16199203
-0.18218373
0.15125145
-0.06493603
0.07728153
0.13608904
-0.06846297
0.11306889
-0.04646932
0.07484486
0.06875831
0.00307427
-0.18661223
0.00097631
0.53627539
0.09639163
0.05226353
-0.01060811
0.25219971
-0.04091527
0.02327823
0.00638126
0.15372407
0.36142796
0.20332904
0.16470963
-0.01720194
0.10334634
-0.11003032
0.21433155
0.31075847
0.19681777
-0.11324098
0.18092005
-0.26903638
0.06715225
0.09505373
-0.14875993
-0.09258062
0.04703525
-0.13588724
0.02765673
0.04601439
-0.04266698
-0.11840627
0.04508802
0.20450039
-0.11777696
-0.06474663
-0.00760417
-0.14517809
0.03498743
0.01136611
0.33857444
-0.03574466
-0.21798770
-0.01426004
0.03252034
0.16760196
0.06334345
-0.02100814
-0.20466381
-0.03097683
-0.16222541
-0.13555218
-0.05394403
-0.11250986
0.26417312
-0.16815957
0.27871147
-0.14228268
0.20002061
-0.04333073
-0.18027383
0.17057568
0.15611020
0.19046950
-0.04867701
0.10739928
-0.02639492
0.08084357
-0.01473474
-0.05024793
0.52336574
-0.03139811
0.05466868
0.16492748
0.12289326
-0.31000239
-0.13856646
0.01653256
0.11507567
-0.18439534
-0.07153147
-0.03636896
0.01310019
0.05653734
0.06777259
-0.25267103
-0.06343084
-0.00226714
0.08468281
-0.32272348
0.08170143
-0.07019394
-0.06190757
-0.12164158
-0.15064117
-0.21623647
-0.07104419
-0.06225668
-0.05083791
-0.09642323
0.02837567
-0.20484284
0.09423286
-0.12384132
0.06188386
0.13187769
-0.00647787
-0.09137321
0.01638982
0.12051300
-0.00846127
0.06062223
0.44382098
0.11599790
0.01379483
-0.06687968
0.07876052
-0.04654065
-0.03113734
-0.23982792
0.02489622
0.04978470
0.04786104
0.09263699
-0.03175480
0.04149061
0.14323865
0.22932282
-0.41696936
0.15792558
-0.08611187
0.10940696
-0.11631177
-0.13019712
0.15676321
-0.21896939
-0.02882023
0.03110522
-0.06058752
0.31360796
0.08027814
0.00239792
0.32004040
0.06781857
0.18218134
-0.14252339
0.10389442
0.18081613
-0.22357544
0.12928081
-0.08793750
-0.01352396
0.08799879
0.06021820
-0.15900065
0.50626338
0.12759642
0.07984252
0.31713170
0.23976408
-0.28738415
0.18644406
-0.17488377
-0.10855079
-0.05633413
-0.19473282
-0.15131152
0.20548488
-0.05501831
0.28030398
-0.16636381
0.11850840
-0.03673800
0.18471713
0.29498944
-0.03223835
0.12881173
0.48943755
0.14410861
0.23215586
-0.02096619
0.23161186
-0.05920326
-0.23885509
0.02933057
0.03543330
0.15276004
0.01072630
0.10639378
0.15260747
-0.10614177
-0.08059211
0.24103427
-0.28647485
0.06262760
0.00798084
0.03415404
-0.19057085
-0.10543225
0.09866890
0.01290822
0.48925620
-0.04551183
-0.05764094
-0.05338186
-0.01754226
-0.12381350
-0.13765700
-0.21714777
-0.05153580
0.04182433
-0.04007496
0.01176894
-0.00162972
-0.21079130
0.30036953
-0.09204982
-0.07833309
-0.19410621
0.04557592
0.09601915
0.30786172
0.07030491
0.10208890
0.31051347
0.13384230
-0.09224650
0.00035161
0.11611276
0.38924405
-0.14871286
-0.02477931
0.14751223
0.00947426
0.04466507
0.25056034
0.34359640
0.16234243
0.03002404
-0.03240769
0.12077989
0.21851075
-0.10855681
-0.18363276
-0.28508186
-0.08681859
0.23002911
0.09873858
0.08927507
0.03172855
-0.00402821
0.00433493
0.07917698
0.10164595
0.00844221
0.16088489
-0.04178361
-0.18801279
0.66125458
0.06343149
-0.12799861
0.14553142
-0.07784352
-0.08401497
-0.08481746
-0.25381142
-0.21329619
-0.06360040
0.16410314
-0.00434028
0.34044358
0.18296577
0.00449347
-0.14370355
0.11204601
-0.18766348
0.07827505
0.10847456
0.03277812
-0.20375156
-0.28301048
0.02002637
0.03758161
-0.30468273
0.21170200
0.04650704
0.07969794
-0.05037088
-0.24282555
0.11996769
0.04071246
-0.11127055
-0.00982860
0.03534523
0.04333220
0.18548954
-0.23427431
0.02814546
-0.23124340
-0.50521368
-0.00805975
0.07499050
0.04373332
-0.07879887
0.30670586
0.04509721
0.07905596
0.31664303
0.07415403
0.48288974
-0.02131929
-0.29047787
0.35580134
-0.07087839
0.12977336
-0.03861509
0.07507871
0.03583043
0.08629701
-0.07142284
-0.01469964
-0.04282077
-0.09521959
-0.17189036
0.03927243
-0.04569967
-0.00570181
-0.08375082
0.39894363
0.02928768
0.00788724
-0.16125879
0.08884137
-0.13667475
-0.11647557
-0.27431536
0.15880832
-0.06613811
0.03981667
-0.16122098
-0.36044934
-0.06061167
-0.00673202
-0.07388855
0.24589257
0.24743107
0.10747188
0.11491003
-0.01118096
-0.34214833
0.15609547
0.00823927
-0.22619690
-0.17188010
0.09302836
-0.13210809
0.03628836
0.02542018
0.02052343
-0.02561397
0.15030906
0.39442065
0.00682689
0.42917317
-0.00341227
0.12294852
-0.08728992
0.15588194
-0.11675371
-0.14895143
-0.12535676
-0.13184679
0.13073952
-0.12665182
0.11809329
-0.08242304
-0.14248267
-0.05253546
-0.21422710
-0.00574426
-0.01779121
0.18407130
-0.01253578
-0.01564424
0.05042595
-0.01720473
0.21521969
0.06487281
0.12502201
0.54667199
-0.07420291
0.10753271
0.08394328
0.12110841
0.06445821
-0.11576883
-0.05050710
0.14666080
0.10014355
0.26788250
-0.12161528
-0.05961296
0.02549730
0.03597816
-0.15621158
-0.11045828
-0.10254905
-0.12771854
0.05043570
-0.01498154
0.07561593
-0.08205671
-0.01283234
-0.22337127
-0.00705803
-0.05575674
0.08939438
0.15016735
0.13267925
0.21325959
-0.22447573
0.05925734
0.05820214
-0.01706388
-0.20204188
0.15309088
0.05138532
-0.20980535
0.04222638
-0.09856694
-0.00110482
0.19042730
0.00455974
-0.05532400
-0.15351351
-0.55607653
0.21642800
0.06928124
-0.09368028
0.11687056
-0.06271986
0.33106053
0.19644050
-0.00651391
0.03969179
0.13503814
0.10439329
-0.08339875
0.13770592
0.04555915
-0.16011231
0.15868144
0.17200577
0.11963558
0.16151655
0.20533614
0.10281635
0.21787775
0.02096292
-0.16982765
0.02843875
-0.35104001
-0.13790561
-0.19460839
-0.12278607
-0.14431226
0.01466501
0.04181571
0.00597732
-0.52285105
0.04159223
0.17265202
0.06180188
-0.00632712
-0.01451463
0.05775981
0.08446094
-0.12357123
-0.21660478
-0.40767184
0.00166896
0.13679586
0.01992206
0.06010535
0.10597347
0.08584540
-0.12447055
-0.05050299
-0.00475254
0.09489775
0.19581701
0.08906189
0.18716188
0.14499156
-0.04288786
0.06790062
-0.06716128
-0.04160362
-0.00954502
-0.15608510
-0.09688987
0.11147496
0.12863450
0.11517189
-0.09673706
-0.10407933
-0.04007212
-0.05437651
-0.05317802
0.24835177
-0.27028593
0.04904556
-0.17130633
-0.09074082
-0.07120179
0.05128435
0.07430135
-0.09821942
0.35449493
0.09761851
0.20406821
0.04584524
0.13819300
-0.17886861
0.14331892
