-0.05399230
-0.07008556
-0.05253275
0.04037187
0.30979547
-0.30416763
-0.01862350
0.24718064
0.11273348
0.18996912
-0.09456318
0.11627558
0.09918273
0.00829317
-0.21489991
0.01124663
-0.32357696
-0.07582247
-0.15134501
0.01514447
0.09509736
-0.17149618
-0.05431888
0.47677127
-0.09513688
-0.23086692
-0.21608268
-0.10376180
-0.05488762
0.30627406
-0.10188942
0.17716473
-0.17191710
0.04877440
0.42752132
0.06890842
-0.29797238
0.15564986
0.02986960
-0.03462811
-0.15450072
-0.17408487
0.22935197
-0.01529456
0.09473152
0.00608200
0.00338975
0.11388145
-0.24974401
-0.26984790
-0.05260103
-0.23666607
-0.03010677
-0.00970670
-0.10829658
0.11939770
-0.16568150
0.21389084
0.09313966
0.33288059
0.09234907
-0.18075527
-0.03230017
-0.10606770
-0.00135860
0.10786384
-0.06383108
-0.20439987
0.37911072
-0.12697947
-0.05064465
-0.02689818
-0.06775230
-0.19478907
-0.20156659
0.23514439
0.05250259
0.10280472
-0.11989630
-0.17752963
-0.04476540
0.08852459
-0.14946121
0.14950579
-0.15413724
-0.13497201
0.16067997
0.17348383
0.10663770
0.04117271
0.11146340
-0.11933915
-0.20541482
0.10534237
0.09282093
0.24249300
0.31577250
-0.32099986
0.03215582
0.31173912
0.13101175
-0.11456921
-0.04122782
0.05347232
-0.00010021
0.19249125
0.07339367
0.15655325
0.29392791
-0.08317897
0.03704619
-0.06498157
0.16973343
0.19785145
-0.08339096
0.31937733
0.04785321
-0.12172603
-0.28864288
0.07699583
-0.08037280
0.11001077
0.17565650
-0.07606856
-0.29272428
0.25672844
0.13504837
0.04010395
0.04880843
0.01579286
0.21463704
-0.18117842
0.17221481
-0.05331413
0.14557798
0.02817588
0.19138254
0.00206933
0.31275791
-0.00847810
0.26874176
-0.14513795
0.04987646
0.08031064
0.01472201
0.11389247
-0.11555976
-0.07329886
-0.37212560
0.14413747
-0.07291389
0.10621954
-0.03928703
-0.29722163
0.18317793
-0.20023081
0.28545052
-0.15662515
-0.04402866
0.01572122
0.05538073
0.05637741
-0.03085992
0.03422582
0.07832891
0.10743385
-0.20443171
0.18000105
-0.13429224
-0.15509722
0.01600060
-0.38776189
-0.10627446
0.22631119
-0.08404133
0.28224933
0.13564652
0.25290009
-0.00435214
0.05204644
-0.09974314
-0.01430897
-0.11794580
0.13290781
-0.16626005
-0.16785082
0.04032196
0.01522260
-0.16648807
0.12131014
0.42647460
0.01922800
0.17657967
0.04619705
0.18932645
0.00090354
-0.04880106
0.14056590
0.10166313
0.17459010
-0.10291716
-0.09502581
-0.09066491
0.28484550
0.01877378
0.10613881
0.15594609
0.17782255
0.05954738
0.24358423
-0.17000426
0.16574360
0.09820206
0.09870900
-0.05833713
0.23071736
0.17301942
-0.00602283
-0.14224045
0.22822703
-0.18380904
0.16498311
-0.05258799
0.07798006
0.22666718
0.13943356
0.04256483
0.25292918
0.07640493
-0.00114459
0.03758015
-0.22648831
-0.30556175
0.26009455
0.14511183
-0.09423431
-0.19352300
0.23625679
0.10317715
0.05242128
-0.07648046
0.09882405
-0.16286667
-0.26885307
0.00320305
-0.23877032
-0.00074810
-0.00373552
0.10530841
-0.22233233
-0.27862805
-0.41808662
-0.08082724
0.15918683
0.13076210
0.19329599
0.00412107
0.06935980
-0.05183334
0.27427146
-0.07416570
0.08297952
0.03451387
0.11477653
0.05722259
-0.10269461
-0.00373688
-0.06799622
0.12087157
-0.15459394
-0.19384535
0.16236132
-0.05397665
0.10798607
-0.00902602
0.05724265
-0.09778459
0.00066453
-0.18754926
0.15010950
0.03669058
-0.09230584
0.10583847
-0.05393710
-0.11716996
-0.20741108
-0.18066235
0.25368693
-0.01575904
-0.14655702
-0.23125084
-0.14199065
0.09381749
-0.07951539
-0.13800608
-0.15934187
-0.12297370
-0.15796866
0.36137414
0.27618149
-0.15736514
-0.19771516
0.35930517
0.17541334
0.28780174
-0.29252222
-0.11478906
-0.06976359
-0.22531964
-0.10308520
0.10240435
0.15723437
0.06258529
0.08161017
0.07406866
0.14043869
0.13000645
-0.09535318
0.25414202
0.19217514
0.21715206
0.03192328
0.16971666
0.23275897
-0.09998099
-0.04952439
0.09246837
-0.05889487
-0.25241578
-0.09578522
-0.20064501
0.00156944
0.13868728
-0.00032905
0.03147929
0.18127094
-0.05831913
0.13852556
0.03846742
-0.16403697
0.07161004
0.22736722
0.05794650
0.06627559
-0.22576867
0.06574003
0.09817274
-0.12063747
0.13240530
-0.26250145
-0.01399083
0.06598194
-0.06265775
-0.07662597
0.07921720
0.18783906
0.24923456
0.17393379
0.13835244
0.09162482
0.04891651
-0.06618748
-0.00933875
0.08582721
-0.35151052
0.03398484
-0.05427801
-0.00963131
-0.13174164
0.00134868
0.09958812
0.15227510
0.03170667
-0.15583751
0.30368906
0.12674735
0.07528504
0.02125460
-0.07250731
0.05089816
-0.13302976
0.08643785
0.03300078
0.14491388
-0.06073181
-0.10219268
0.11986737
0.05710475
0.23020004
0.08844181
-0.02337574
-0.42071900
-0.09827553
0.11313750
-0.07972135
-0.18574253
-0.08737905
0.04832425
0.29343578
-0.01944613
-0.04792374
0.13038613
0.18646516
0.16818963
0.07508732
0.32507786
0.08644354
0.09338299
0.12296879
0.06037040
-0.18596303
0.26274082
-0.03410183
-0.20537707
-0.09189846
-0.03316082
-0.20108548
0.08239891
-0.01157697
-0.02643120
-0.26210856
0.27978140
-0.07654093
-0.07067958
-0.01854759
-0.00914516
-0.12281429
0.17160985
-0.15931290
0.36612719
-0.06123977
-0.08977344
-0.10420214
-0.08768623
-0.25141713
-0.16053306
0.01491280
0.01337694
-0.14729348
0.34294251
-0.18397203
0.05651451
0.20939708
0.10252549
-0.08660273
-0.16968112
-0.00102514
0.20515534
0.07522540
0.17381023
-0.04585259
0.09918645
-0.18019482
-0.11491709
0.10570823
-0.26223931
-0.23636664
-0.02671530
-0.04721906
-0.17729883
0.17897008
-0.07674534
0.16718195
-0.30852377
-0.04513458
0.08676124
-0.10899961
-0.12631656
0.05412127
0.23705462
0.15045995
-0.21284835
0.23287334
0.12741351
-0.02093515
-0.00295890
0.08908347
-0.02383476
0.04827757
0.10119487
0.28299603
-0.12222722
-0.24731080
0.25580812
-0.18495761
0.41052511
-0.15231997
0.13423949
0.22236910
0.17587450
-0.11413186
0.10678448
-0.05774391
0.11880375
0.17357290
0.08313714
0.00103398
-0.10433947
-0.13734959
-0.00659822
0.16607814
0.30923662
-0.28692594
0.06924469
0.00217127
-0.08675662
0.24388233
0.29284737
-0.01381602
-0.02594585
0.12488896
-0.21597593
-0.00751349
0.00429408
0.18813628
0.05312720
-0.21431649
0.05281937
-0.23336664
-0.04679896
-0.06778097
-0.05803329
0.34407878
0.13502136
0.14566426
-0.22801688
0.07506261
0.07285177
-0.20919256
0.32224494
0.04017726
-0.00382692
-0.01624590
0.03122408
0.21882848
-0.01064824
0.16298391
0.01215884
0.25019428
-0.10106120
-0.29077569
0.11322484
-0.07339624
0.21610311
0.14641500
-0.06994019
-0.01297156
-0.14048283
0.01798807
-0.17765306
0.34944922
-0.00578764
0.17461316
-0.06315263
-0.34412211
0.14331512
-0.30728328
0.22649935
0.01097740
0.17559505
0.00279253
-0.15179704
-0.04795517
-0.13147826
-0.15230286
0.18366680
-0.15921447
-0.00002101
-0.26096067
0.48805946
0.16117819
0.34585583
0.26822349
-0.12287141
0.06901689
-0.03834945
-0.05680448
-0.05159442
0.10416409
0.17674360
0.28624350
0.06110875
0.08151639
0.04246616
-0.34951577
-0.00278252
0.17282198
0.16959529
-0.21515183
-0.31066892
0.25787932
-0.12897077
0.39181918
-0.15054324
0.17756817
-0.15295820
0.08426591
-0.08839976
0.16577987
-0.11601242
-0.20574906
-0.08197033
-0.09203589
-0.06769378
-0.10953823
-0.02930392
0.46912816
0.16592462
0.29968396
-0.16462336
0.07187973
0.14028610
0.04655225
-0.00592968
0.02397469
-0.12356741
0.06070849
0.13346270
-0.11235982
-0.16442125
-0.00107708
0.07433014
-0.04031040
-0.00722596
-0.14863625
0.07580214
0.02515991
0.09342273
0.14552307
-0.00774688
0.00488110
0.29607797
0.01368868
0.23060760
0.01841260
0.00917265
0.00355828
-0.16650324
0.33007190
0.03710241
0.17243481
0.02513501
-0.34130761
0.23470052
0.26305941
0.03465376
0.17569478
-0.06773405
0.08645794
0.10667181
0.03873387
-0.08566865
0.27395222
0.24218601
-0.07967640
0.02452073
0.13712865
-0.21618481
-0.06932144
0.09866593
-0.12074942
-0.23270561
-0.32995859
-0.18700933
-0.00538858
-0.00012387
-0.33742607
-0.01029915
-0.22468218
-0.10723153
-0.23957819
0.00808899
-0.04721599
0.02132534
-0.03252298
-0.10648164
0.00997716
0.07978179
0.04080248
0.10783265
-0.28506410
0.02219852
0.09753880
0.02609200
0.22898155
0.01171377
0.18281414
0.04313381
0.02201767
-0.07667058
-0.01516017
0.17224261
-0.08564240
-0.14959584
-0.02821772
0.14375204
0.02683079
0.11497921
-0.08469076
0.10541631
-0.00363958
-0.02913515
0.07078409
0.11047058
-0.00637662
0.17332904
-0.06927273
0.23089176
0.00393136
-0.01889466
-0.01777227
0.01778262
0.21686037
0.24449158
-0.13974909
0.31409103
-0.08631039
-0.13554637
-0.02341057
-0.06382124
0.20617512
-0.15920538
0.48927081
-0.05736708
0.17242546
-0.09268313
0.00727419
-0.13689370
-0.02107212
0.24682276
-0.03420438
-0.19992355
0.05926553
-0.34318265
0.07220192
0.14155477
0.23488654
-0.22658475
-0.07952961
0.16177502
-0.25499088
-0.07891414
-0.06591208
-0.00115519
0.22670452
-0.34292522
0.10006643
0.42324820
-0.00030699
-0.22896367
0.00098133
-0.12272891
0.24148066
0.05982196
-0.08556693
-0.07556242
0.35749742
0.18336309
0.10629660
-0.31685761
-0.24705549
0.01925192
-0.00035088
0.08593905
-0.27313033
0.08648332
-0.00951899
0.03122550
0.23021236
0.11624827
0.27978301
0.16620716
0.07917939
-0.05343743
0.16373479
-0.21556410
-0.21337244
0.04756509
0.05418289
0.16267116
0.17429879
-0.16932863
0.14566478
-0.31479850
0.15430816
0.14298552
-0.05373743
0.10564923
0.10619205
0.18147403
-0.16793425
-0.02761553
-0.33742335
0.03277260
0.18186548
-0.18489659
0.10793077
-0.08400083
-0.11390176
-0.00130097
0.24636520
-0.12291811
0.33410102
-0.08301087
0.16319275
-0.06934755
-0.02595554
-0.22057723
-0.02536603
0.01035848
-0.36020464
0.11430784
-0.32655677
0.18291180
-0.15807407
-0.04811738
0.09325554
0.14690705
-0.40020356
-0.11094479
-0.22121753
-0.08535728
0.19557366
-0.23416160
-0.12034480
0.26569107
0.08474112
-0.02344107
-0.06738250
-0.07555731
-0.04406676
0.04952698
0.14104287
0.07046661
0.13462318
-0.29503170
0.18474050
0.11005016
0.11282183
-0.45478114
0.09776995
0.06738083
0.07961001
-0.03632246
0.28432450
0.05653200
0.00035316
0.01825111
-0.22231998
-0.07006043
0.33770141
-0.05850614
0.13295501
0.06440360
-0.27697504
-0.14409995
-0.07649937
0.10722600
-0.44189242
0.16233014
-0.05023005
0.10341574
0.04095581
-0.24028911
-0.11173818
0.16029611
-0.08094931
0.04312011
0.00313807
-0.09468018
-0.13486360
0.10164650
-0.04854650
-0.53871381
0.12246209
0.15988970
-0.16650626
0.14188744
-0.33529854
-0.29062870
0.18549964
0.07464634
-0.02857522
0.04570189
-0.23780690
0.07898285
-0.07834601
-0.08780553
-0.05855047
-0.26590765
-0.15036207
0.19782880
0.12488558
0.01830103
-0.12694752
0.05568020
0.03869297
-0.43873820
0.01515746
-0.09144208
0.05599160
-0.21523692
0.45226353
0.16100542
-0.06598768
0.24534371
-0.25760508
-0.26052737
0.05103019
-0.36190891
-0.14620219
0.22626205
0.13426065
0.16144781
-0.15351959
-0.27044675
0.14100055
0.16237570
-0.08364929
-0.08527828
0.13999665
-0.36117145
0.13185908
0.20230640
0.04853664
-0.05974128
0.18126601
0.22829196
0.08723590
-0.16559425
0.21687368
0.04958026
-0.07710988
-0.23264128
-0.25368413
0.01336733
0.17967434
0.02649757
-0.05504130
0.06269497
-0.08928508
0.18648788
0.07773780
-0.20551391
-0.53697509
0.01057644
-0.01821762
0.06868439
-0.13295373
0.00221429
0.28623268
0.12070218
-0.01162814
0.13868177
0.20168036
0.15994889
0.21042287
0.11013237
-0.07469047
-0.05404049
-0.03331776
0.18952304
-0.03143531
-0.37113088
0.25386143
-0.21652745
-0.12661031
0.15071298
-0.04134291
0.01721423
-0.08960607
0.13583690
-0.05875507
0.11443008
-0.02992442
0.06660273
-0.14528249
0.14099963
0.04362002
0.07313841
0.31546909
-0.39048031
0.29444021
-0.21928851
-0.22910766
0.09863019
-0.17040853
0.04296630
-0.00957287
0.07343013
-0.23206930
-0.23383194
-0.15497656
-0.05532367
0.14904559
-0.23131061
0.19472969
0.17440666
-0.05021026
-0.16022758
0.08615114
-0.08700030
0.15725188
0.01401724
-0.12219476
-0.09408178
0.27855697
-0.24739578
0.01848190
0.38354439
-0.04765918
-0.12223744
-0.01484326
-0.11720873
-0.15428214
0.14023767
-0.32758564
0.24011105
0.31966764
-0.21058409
-0.15743534
0.00038358
-0.01200561
0.06179560
-0.03094835
-0.09165648
0.24220490
-0.21784006
-0.00365369
0.33883801
-0.00244651
0.10390243
0.04200296
0.13740912
0.40816307
0.02113561
0.22235505
-0.01368076
0.15353616
0.18854022
0.12511444
-0.00048566
-0.00691855
0.04852679
0.17458662
0.06378019
0.05780119
0.03868348
-0.00093019
-0.02226394
-0.08045588
0.06088234
-0.43571872
0.00369259
0.34283081
-0.21075091
-0.03798629
-0.13402706
-0.06812440
0.17458329
0.16943672
0.01376245
0.05917047
-0.02255699
0.43581343
0.17721736
0.02836597
0.14517981
0.22991545
-0.06520802
-0.02740526
-0.16969895
-0.20334452
0.27102640
0.11202367
-0.12716857
0.01932231
0.21687075
0.17512932
-0.08507132
-0.15583909
0.13354206
-0.04223903
0.03969451
0.35312596
-0.31977507
0.67456102
0.12956989
-0.12771761
-0.35969707
0.04337348
-0.14346659
0.03766033
0.17406853
-0.13241956
0.12253548
-0.08874215
-0.13075271
0.32486650
-0.43038079
-0.04597403
-0.13427667
0.25007734
-0.01486262
-0.01979664
-0.30771613
-0.22151878
-0.10107184
0.14175624
0.16896501
-0.11324403
-0.11547040
0.07698525
-0.10793737
-0.15199174
0.05043012
0.23084676
0.19350222
0.03257078
-0.14785972
-0.51580095
0.43848473
0.01543096
0.23252679
-0.04212364
-0.02699576
0.26967505
0.05138005
0.04849285
0.25742435
-0.07924425
-0.22292486
0.01348277
0.18421555
0.19186743
-0.19704103
0.13527742
0.01231214
-0.13825387
0.01933697
-0.08487149
-0.09447128
-0.31345126
-0.10089362
0.10893165
0.01348738
0.15018399
0.16822413
0.13297045
-0.04443789
0.07395405
0.32728440
0.15253130
-0.25008601
0.14642738
0.20856383
-0.01635042
0.23003687
0.00172165
-0.14768994
-0.03200906
0.02432823
-0.25342989
-0.07637487
0.00271658
0.05397959
0.24868594
-0.12806885
0.06949378
0.12369845
-0.06336007
0.09186164
0.10500467
0.07744037
0.05938311
0.06828047
-0.11481126
0.05729714
-0.00024008
-0.02518111
0.13069256
0.03025095
-0.08394087
-0.04161420
0.02660461
0.02410439
0.20863059
0.04976402
0.29500395
0.01197022
-0.13590412
-0.15509342
-0.00881309
-0.20759331
-0.22517657
-0.29888904
0.06665222
-0.08685997
0.19198401
-0.21190886
0.11814964
0.31220636
0.22441524
-0.38288850
0.37469825
0.11633296
0.09664844
-0.08752912
0.12766196
0.02015740
0.25062570
0.26271358
0.23743089
0.05625249
-0.02331736
0.07031348
-0.23774448
0.04235800
-0.00220283
-0.10846740
0.05077557
0.16553850
0.06710805
0.16301411
0.17092282
-0.04717442
0.00912685
0.18762179
0.11801466
-0.04200210
0.06648832
-0.00203526
0.15167692
0.17573509
-0.09846756
0.21125267
0.10560017
-0.14709727
-0.06926268
0.15511730
-0.17368406
0.17394687
-0.25393832
-0.14694530
0.25797194
-0.03749260
0.06380305
0.23439413
-0.02749737
0.07438093
0.21871279
0.06658394
0.08719092
0.15321940
0.19597466
-0.11529449
-0.04511527
0.21313357
-0.05787810
0.09269617
-0.02463454
-0.02442929
0.25520575
-0.07500613
-0.22844422
0.20746061
0.04207159
0.09826943
0.08862500
0.02471780
0.10635179
-0.09627648
-0.01237480
-0.01358446
-0.18881351
0.06971507
0.02488621
0.15265150
-0.41584718
-0.31186783
0.44174823
-0.20110795
-0.08040264
0.09657026
-0.02613318
0.10616271
-0.09037037
-0.27843815
-0.08796386
-0.48915595
-0.30310538
-0.25578159
0.34304804
0.28532916
-0.10858516
-0.18053235
-0.10472947
0.21305287
0.03952410
0.17289773
-0.21658200
0.03572414
0.31034085
-0.20314632
0.02553033
0.15258895
0.05789988
0.15338796
-0.14358726
0.00460322
-0.32640669
0.06635171
0.26649758
-0.05040914
0.13821627
-0.09328975
0.17520738
-0.13576850
-0.24464780
0.23138481
-0.03639967
-0.25442052
0.16081938
-0.06492972
0.02317311
0.01690515
0.34096020
0.22393118
0.29430580
0.10327342
0.01478411
0.17060900
0.07110249
0.40736946
0.22627202
0.05527060
-0.33873826
-0.24088448
-0.03388845
0.14356853
0.10551880
-0.04046903
-0.08665232
0.04563333
0.19272500
-0.46179986
0.36617848
-0.19659209
0.10466915
0.20699695
-0.02203512
0.44524789
0.20615794
0.03050436
0.18237579
-0.29256168
0.14136063
0.12651798
0.10037766
0.13716456
0.05607826
-0.27960777
0.11759287
0.09521713
0.05809109
0.11823332
-0.20721127
-0.03216661
-0.19260319
0.14877275
-0.07400755
0.31601378
0.21072622
0.37486109
0.12786445
0.11036062
-0.35168076
0.13832958
0.16687872
0.06337513
-0.09491371
0.14582239
-0.13681774
-0.30849338
0.33779225
-0.19760641
0.04261836
0.24275357
-0.17960128
-0.10550841
0.22601844
0.09935493
-0.43476987
-0.12219327
0.19664203
-0.01534068
0.19875075
0.08065864
0.11396827
0.20067577
0.01799407
-0.00016913
0.19079177
-0.22788239
0.14254633
0.10683996
0.05590731
0.02743282
0.05756073
-0.01922871
0.02066809
-0.14320606
0.21874745
-0.09225655
-0.23788291
0.24566711
-0.05162800
0.13933741
0.13109772
0.08663072
0.09942945
-0.02279054
-0.06215066
0.08909381
0.08560959
0.13031226
0.08916332
0.18166074
0.18514504
0.02872751
0.15768854
0.03301884
0.09072893
-0.04800897
-0.05835351
-0.08672129
-0.06308315
-0.04260759
-0.11489926
0.05766936
0.10823888
0.33796412
0.30755964
0.24291968
0.22626662
0.19954446
-0.14050716
0.08711999
0.13013862
0.13489079
-0.14434984
0.01977065
-0.16058551
-0.25932282
0.22016899
0.07129687
-0.08171013
0.13172461
0.11674689
-0.23967732
0.18912491
0.00777092
0.27017954
0.07299753
-0.00374369
0.14036816
-0.06938200
-0.06244358
0.21564355
0.14193374
-0.27564502
-0.13410640
0.01321738
-0.08505402
-0.05059182
-0.16373363
0.23392338
-0.07245085
-0.03848390
-0.01989312
-0.10680234
0.08906047
0.23549810
0.04969568
-0.19625099
0.02043655
0.08831561
-0.10811093
0.40696797
0.20852259
-0.19786809
-0.22149034
-0.25600293
0.04424013
-0.37529436
0.15618859
-0.07712185
0.11318991
0.26631057
0.12152717
0.11421822
0.11168405
0.03387540
-0.04561386
-0.28582790
0.04686398
0.17561781
-0.00349369
-0.12943821
0.16562900
0.14624228
-0.19238240
0.21234696
-0.03236511
0.09108838
0.14401591
-0.14352630
0.17739560
-0.03574333
-0.03560186
0.11255413
-0.05887838
-0.29493451
0.03456857
0.32095689
0.10990532
0.07497963
0.07464271
0.21905267
-0.01710618
0.03268166
-0.06997788
0.19162765
0.28285381
0.06966938
0.15077320
-0.01963069
0.13883004
-0.18181314
0.23383382
0.24790879
0.23228653
-0.10355595
0.36796364
-0.34181768
0.12134762
0.08686881
-0.25441456
-0.15606019
0.04585245
-0.35654351
0.02298231
-0.01852000
-0.14170913
-0.03427574
-0.00284497
0.22634925
-0.14264134
0.06036980
-0.04921818
-0.25840002
0.11376789
0.04461479
0.24142782
-0.10229279
-0.27538294
0.02593392
0.02962924
0.25248775
0.02184466
-0.08339163
-0.14390682
0.00773220
-0.11821279
-0.05112163
-0.06454995
-0.08441555
0.29925668
-0.19163422
0.31695798
-0.15871838
0.17717470
-0.05848979
-0.11033934
0.20880948
0.13272734
0.28671095
-0.13742189
0.19465856
0.06340473
0.18740578
-0.07162340
-0.15562148
0.52633762
-0.06490836
0.14299619
0.22096087
0.23078169
-0.29906374
-0.09834915
-0.02564849
0.05272458
-0.10586727
-0.04734069
-0.04192625
-0.08084780
-0.00514065
0.10823925
-0.18741427
0.02064924
0.00000799
0.09198089
-0.36885282
0.01045958
-0.08716764
-0.11898780
-0.06779227
-0.15839821
-0.15540725
-0.10109586
-0.05224446
-0.07486187
-0.11248548
0.04142045
-0.17163655
0.10022755
-0.13543268
0.10160406
0.15602598
-0.00418982
-0.02580195
-0.06860833
0.03668416
0.10070009
0.02684218
0.34223375
0.21479806
0.07824878
-0.09022139
0.15091030
-0.01103373
-0.01372788
-0.39802745
-0.09767805
0.03409421
0.06833218
0.05715784
-0.02558374
0.13936031
0.04811377
0.18661679
-0.33652222
0.08443716
-0.02010347
0.17285825
-0.22790380
-0.14241883
0.20764805
-0.23345597
-0.05755429
0.02946939
-0.04550050
0.16296995
0.15383601
-0.07665820
0.28774416
0.10330372
0.17866345
-0.21288790
0.06464955
0.21456580
-0.34024307
0.26337370
-0.16585603
0.06598267
0.03463833
0.01459374
-0.18025474
0.32351929
0.13547850
0.10988773
0.35579622
0.31117272
-0.17163771
0.15840733
-0.20704958
-0.08040120
0.04486306
-0.21023618
-0.15544078
0.06259496
-0.15385021
0.15346467
-0.19292776
0.00257497
-0.02392246
0.12732324
0.24065734
-0.00522206
0.11892299
0.36124384
0.16907203
0.19124119
0.09994304
0.17368729
-0.05477050
-0.17403357
0.07300827
0.10924663
0.18173724
0.15389068
0.05862644
0.19792672
-0.11594491
-0.13208479
0.19380175
-0.26645526
0.03184255
-0.05127510
0.00903468
-0.25478289
-0.13747180
0.09431858
0.00613475
0.38863000
-0.04351201
0.02318544
-0.01556903
-0.02698388
-0.15259354
-0.07301191
-0.18000220
-0.06740961
0.10226823
-0.11705784
0.01559998
-0.03905183
-0.25864986
0.18899249
-0.08072480
-0.15440233
-0.13961625
0.00213995
0.05385345
0.18709131
0.08677237
0.11641501
0.37065756
0.24526256
-0.06136833
0.03899673
0.14430910
0.40410256
-0.11945736
-0.10221213
0.27181476
-0.00107181
-0.01291311
0.24117506
0.23550257
0.26122266
-0.05254491
0.00686277
0.06885118
0.16464710
-0.11873294
-0.21331333
-0.42527232
-0.10938039
0.20453875
0.11081257
0.07861812
0.03802212
0.02675643
-0.10289273
0.01974458
0.10869188
-0.04622354
0.08673013
-0.08867119
-0.20613433
0.56281751
0.05882032
-0.14630817
0.19464318
-0.11710043
0.01456547
-0.06549194
-0.37586209
-0.12336262
-0.09330730
0.14163435
-0.00098057
0.15816815
0.26885468
-0.01938587
-0.17016092
0.17927919
-0.18562947
0.04912424
0.02792097
0.02928148
-0.28986210
-0.12934200
0.05904300
-0.01021885
-0.28317302
0.26101759
0.07491893
0.00607850
-0.10431113
-0.18227775
0.13913570
-0.01264446
-0.05914323
-0.07140688
0.00476035
0.20664452
0.24348733
-0.26316351
-0.04502267
-0.15546419
-0.35266659
-0.06777187
0.14425583
0.04315586
-0.08626376
0.19665487
0.09053286
0.06745743
0.42963639
-0.00544434
0.37454996
-0.01415352
-0.23778698
0.35229817
-0.07531812
0.11599670
-0.13248241
0.04284098
0.04448770
0.13832569
-0.01428176
-0.12848242
-0.02455445
-0.20042132
-0.11951204
0.13247323
-0.07547831
0.02750308
-0.10041351
0.28836641
0.01596882
-0.02060732
-0.17869548
0.09010500
-0.22870941
-0.13466595
-0.23487988
0.11784902
-0.10750178
0.07461688
-0.13336518
-0.22379580
-0.06574330
0.01340185
-0.03670107
0.22247139
0.25450307
0.09893224
0.08975859
-0.07079827
-0.38791832
0.18299749
-0.01175210
-0.19568338
-0.09916570
0.05510278
-0.17374897
0.02544928
0.02715208
0.08279255
0.11879528
0.12651491
0.37870377
0.00792212
0.27681050
0.06484855
0.09936310
-0.17802125
0.10200806
-0.10167705
-0.37172058
-0.12637199
-0.10203806
0.22664720
-0.12820466
0.15236519
0.01779502
-0.21838588
0.00729187
-0.21818461
-0.03730734
0.02251285
0.17866480
-0.00311671
-0.10224660
0.04933897
-0.09414887
0.27888796
0.08577703
0.14169292
0.28597844
-0.11958544
0.15244535
0.06807940
0.25468299
0.05444400
-0.13178954
-0.03962997
0.32076693
0.07159792
0.30943620
-0.07640950
-0.09212912
0.13923167
-0.01829853
-0.04915838
-0.02597083
-0.15492541
-0.17058389
0.02376379
-0.07438556
0.05620683
-0.06418716
-0.00522593
-0.28180283
-0.00193930
0.06268883
0.09008003
0.06169461
0.26928943
0.23371020
-0.15851359
0.11851361
0.04892538
0.01242298
-0.16026799
0.20685211
0.06710454
-0.28402370
-0.05578290
-0.22880335
0.06889771
0.29725489
0.01113408
-0.05736120
-0.18841361
-0.37331817
0.22496974
0.02806361
-0.09105603
0.04032727
-0.08065084
0.41236502
0.12815666
-0.16018598
-0.03009738
0.12976290
0.12024217
-0.07470067
0.20870535
-0.07941066
-0.09040825
0.23926750
0.21181130
0.16938441
0.21298069
0.09808064
0.14349367
0.17340527
0.09451562
-0.13709436
0.15244401
-0.30156618
-0.12957647
-0.21517219
-0.20774090
-0.14096266
-0.06887626
0.11622429
0.00151258
-0.22773555
-0.02322839
0.08496279
0.03994542
-0.09937860
-0.00779948
0.15388018
0.11003873
-0.14332539
-0.33947515
-0.34839284
0.11023791
0.09851370
-0.00013285
0.05025378
0.16155837
0.15360393
-0.11967755
-0.12987600
-0.02187560
0.04062938
0.17762111
0.09036649
0.17465402
0.23638724
-0.03991562
0.07385543
-0.14008687
-0.03128430
0.02036669
-0.15557583
-0.18292537
0.05207840
0.12800252
0.12554000
-0.18549544
-0.02723830
0.04760781
-0.01394637
-0.08399174
0.22723678
-0.25294948
-0.01316917
-0.24947380
-0.10843063
-0.00681968
0.03467057
0.11732352
-0.00003123
0.24706882
0.08650381
0.19895431
0.04961205
0.12129364
-0.12589771
0.07438349
