-0.21393375
0.01322579
-0.11698987
-0.15662594
0.07454237
-0.28685790
0.13232237
0.50972140
-0.12340035
0.38351217
0.44957080
-0.06380417
0.17894340
0.19242145
-0.13013278
-0.10608569
-0.07376952
0.06592468
-0.05721302
0.06046083
0.16058411
-0.39283404
0.10267768
0.33858037
-0.01952252
-0.33591688
-0.10689487
0.20504571
0.15139008
0.19980060
-0.07376850
0.25173301
-0.15992922
0.03703447
0.16337197
-0.00201920
0.20001990
0.15524650
0.03280135
0.08048903
0.15266298
-0.04810885
-0.19716819
-0.07638790
-0.04954967
0.08808782
0.23316073
0.06702392
0.12631114
0.02748296
-0.04032442
-0.43842521
0.20866027
-0.14280218
-0.07555254
-0.14668520
-0.20687920
0.26702985
0.06839453
0.01883923
0.30967003
-0.13854679
-0.12215963
-0.06560834
-0.10884716
0.01871128
0.10070229
-0.13384844
0.13913943
-0.05819315
-0.01296526
-0.13176011
-0.09257453
-0.34181559
0.05708355
0.11290304
-0.12690102
0.15582505
0.05368564
-0.00005606
0.19128585
-0.14024888
-0.10453032
0.21022695
-0.17066267
-0.10710805
0.13667329
0.21430527
-0.27198982
-0.08802360
0.14327796
-0.09966420
-0.33787572
0.22064012
0.18270855
-0.06324442
-0.00957545
-0.14649314
-0.12212580
0.15234289
-0.15137434
-0.25582898
-0.11112797
-0.01843319
0.32735771
-0.03901785
0.05472636
-0.02775626
0.29540664
0.12021293
-0.21079911
-0.10214291
0.05290688
0.02923208
0.07554571
0.45518303
-0.25678071
0.18702936
0.11338899
0.36687478
-0.00697709
-0.16797386
-0.12899196
-0.33729735
-0.45868322
-0.05482240
0.01536612
0.07327770
0.11688176
0.00368016
0.27814555
-0.39753461
0.18816881
0.05120739
0.11431886
-0.05323688
-0.10205998
0.26978886
0.24076577
-0.05165047
0.21836928
-0.11440244
-0.14276753
-0.01974319
-0.18258341
-0.11748846
-0.26867118
0.15298253
-0.08116296
-0.14698330
-0.25636545
0.13962938
0.07918160
-0.03269417
-0.05858023
-0.06759344
0.10795861
0.04522667
0.12664989
0.27408260
-0.24919140
-0.22331934
0.02813887
0.13766700
-0.04915532
-0.12089310
-0.22708860
0.43313399
-0.04137158
0.06725475
0.24001117
0.11952861
0.20299616
-0.04931958
-0.22367790
-0.36114082
-0.35186726
0.34029424
-0.10437722
0.16488670
0.16666810
-0.18847395
0.18318941
0.11062025
0.23810770
-0.10668854
-0.10118845
-0.03833399
0.02823719
0.14658996
0.12227720
-0.14504671
-0.05429449
-0.01271896
0.29789817
0.08614902
-0.01488209
-0.25930700
0.22169934
0.33604151
-0.09509473
0.25454172
-0.31249276
0.07661826
0.08734690
-0.14105250
0.03546816
0.03510438
-0.08409447
0.13899565
-0.22600339
0.06115475
0.10662684
-0.01733164
-0.19303113
0.04038765
0.21361171
-0.19283020
0.06881535
-0.11003093
-0.17308764
-0.01603814
-0.05804205
0.04770077
-0.04671214
0.13333870
-0.11351313
0.06603855
-0.06810588
-0.15295501
-0.12078141
0.15641889
-0.19726817
0.22458065
-0.01140903
0.02732896
-0.07331145
0.20809762
-0.05284977
0.10093015
-0.11556869
0.16019370
-0.14478849
-0.37092754
0.18692400
-0.00705267
-0.07075195
0.26560196
0.02195180
-0.04491365
-0.03687267
-0.04062633
-0.02456439
0.10766177
-0.15006833
-0.11748462
-0.02477148
0.22963819
-0.40876734
0.29763234
-0.39372912
-0.02135417
0.09779600
0.39922261
-0.07976978
-0.13137032
-0.04433470
0.11207922
0.30076417
0.16116884
-0.00224933
0.04759711
0.11023153
-0.04065165
0.22510701
-0.03328577
-0.06331775
0.29596710
0.02026206
-0.11067224
0.36357096
-0.08371821
0.13588172
0.03755419
-0.10402080
-0.11763067
-0.03952906
0.32993588
0.22737853
-0.47288039
0.00965292
0.14233522
-0.07484437
-0.05000305
-0.40030867
-0.08725098
-0.26674500
-0.03512074
0.16909921
0.08837155
-0.03962572
0.11773997
0.46949387
0.26486352
0.22569972
-0.15346906
0.05652365
-0.06638282
0.04487249
-0.00307430
0.14103515
-0.11123409
-0.08455613
0.16241868
0.07875021
0.03885845
-0.02160253
0.21704897
-0.06813910
0.49892631
-0.17736827
-0.05241650
-0.03018159
-0.02533146
-0.11653452
0.03071197
-0.10077692
-0.03824911
-0.29485038
-0.05353408
-0.15533283
0.26007923
0.29557070
0.09167551
-0.28438163
-0.25670072
-0.05724346
0.31065285
0.00330223
-0.08916365
0.03943252
-0.01226283
0.13240910
0.10135490
0.09815700
0.29676366
0.18594335
-0.00438076
-0.01839755
0.05226117
0.07884266
-0.04314526
-0.02679039
-0.31674081
-0.43462124
0.12949274
0.04901341
0.37405774
-0.05996329
0.13240679
-0.16109319
-0.26883963
-0.00809438
0.00390524
0.07309147
0.18660951
-0.21583359
0.41303807
-0.13153459
0.18867508
0.13864817
-0.02980539
0.07018557
-0.07860494
-0.18909732
0.20738900
0.14289154
0.25195646
0.14494520
-0.23528348
0.41715676
-0.00770033
-0.19963878
0.09187719
-0.51275492
0.23543076
0.14401956
0.05484732
0.24433981
0.07150585
-0.08781186
-0.51855421
0.08149713
-0.29103220
-0.11405468
-0.12344664
-0.32748142
-0.07184799
0.07948365
0.13799919
-0.04252413
-0.00869835
0.01211489
0.07792680
-0.18264402
0.06131607
-0.00822178
0.18640865
-0.00543038
-0.32138747
-0.02235268
0.21563330
0.13523579
0.10363142
-0.09201521
0.09211890
-0.17419864
-0.04359651
-0.02567376
-0.03906230
0.16215435
0.13613142
0.14258572
0.34706318
-0.14141776
0.13879471
-0.04091056
0.17880125
-0.23535363
0.40604231
0.00856821
-0.05354551
0.01127935
-0.01059896
0.05331271
-0.18311773
0.08957748
-0.02341892
-0.07840270
0.05905025
-0.24946320
-0.00634653
0.18413039
-0.07805584
-0.02987004
0.00082438
-0.07578160
0.29741538
0.00650520
-0.11084601
-0.04523155
0.00376297
0.07961486
0.08522961
-0.20842737
-0.47177941
-0.16350265
-0.11128461
0.09053058
-0.09266995
0.15515645
0.00891070
-0.42657718
0.03991371
0.15337981
0.08283646
0.11340471
0.16570601
0.29187444
-0.09980025
0.00025604
-0.49722180
-0.20109180
0.14698678
-0.14783517
-0.06671204
-0.08430782
0.00320820
-0.23875284
-0.01428811
-0.04522431
0.26521733
0.03087095
0.18938372
0.16972841
0.30836418
-0.06191540
0.00230116
0.19058391
0.11054227
0.21611542
0.05375798
-0.14359313
-0.22288355
0.60387599
-0.04557324
0.16309956
0.00975587
-0.23426449
-0.12068455
-0.06527240
0.01139333
0.28514910
-0.03625355
0.05553392
-0.12709767
0.06142453
0.17900771
-0.10767784
-0.25846499
-0.06215440
0.06513340
-0.06848025
-0.41229787
-0.01850917
-0.10313495
-0.17166062
0.38861150
0.19591512
-0.13401416
0.14689544
0.26246992
0.04407040
-0.10498656
-0.19091435
-0.44963482
0.07891921
-0.07559536
-0.06805785
0.15365572
-0.15422839
-0.02257449
0.23040713
-0.11127976
0.10417322
-0.24671373
0.01591435
-0.02341622
-0.36546108
0.02697198
-0.06339495
-0.01568390
0.05402032
0.44329077
-0.30471069
-0.00783510
-0.15372248
0.33802274
0.32894671
-0.32315972
-0.16474029
-0.00654176
0.05911895
-0.23592861
-0.44448188
0.07763728
-0.11795160
0.01568811
-0.31535503
0.12891592
0.00263107
-0.25982261
0.36434984
0.07307183
-0.13692100
0.00005953
-0.06097886
-0.02124108
0.08361760
0.18487397
-0.13146512
-0.02834665
0.34277248
-0.11036535
0.11917175
0.09211659
-0.05970660
-0.20950733
-0.17950331
-0.11071106
0.45998752
0.22136481
0.30373070
-0.13542180
-0.17426944
-0.12674212
0.12835182
0.14406957
-0.31198177
-0.26995987
0.47763106
0.25715685
0.28695297
-0.32422605
-0.08849417
-0.28639087
0.21996684
0.02507723
-0.17728314
0.34241813
-0.12856574
-0.41877770
-0.07590418
-0.21228264
0.11877015
-0.34810883
0.43209630
0.00463514
0.20867226
-0.21282418
-0.25453857
-0.07647105
-0.17961203
-0.06078995
-0.26488727
0.27926719
0.09335975
-0.03318801
-0.22584629
0.07799308
0.17403613
-0.25979850
0.15461069
-0.00846413
-0.14175366
-0.25249323
0.03538999
0.09928229
0.21273611
-0.27511990
0.02261714
0.12917134
-0.27413669
-0.31694883
0.15675737
0.15761848
-0.23009090
-0.06964558
0.02468212
0.08296238
0.13369852
0.03769064
-0.45357117
0.08932952
-0.00464621
-0.03904580
-0.03294847
-0.36422592
0.05199645
-0.04714335
-0.10823369
0.10862364
0.01188625
-0.13247393
-0.20506401
-0.16783141
-0.02570710
-0.15611561
-0.27994359
-0.05501514
-0.01958583
-0.09698226
0.10806505
-0.10708380
-0.23290347
-0.14018567
-0.24229518
-0.39350808
-0.11467379
0.14870606
-0.16882862
-0.04028606
0.11353898
-0.11732873
0.17051452
-0.19761975
-0.23752114
-0.02882158
0.02023826
0.05983928
0.04826555
-0.00328675
0.17262380
0.06786367
-0.02100221
0.12204164
0.09388318
0.08153062
0.36600336
-0.42686686
-0.02526173
0.09605826
-0.24893694
0.15494074
-0.10296796
0.08061007
0.07356597
0.30482736
0.12683608
0.14647588
-0.04787944
-0.14674893
0.05964809
0.02329866
0.04173064
-0.01310552
-0.04287861
0.55059910
0.16032197
0.07326987
0.30454084
0.28619635
0.24244387
-0.02302402
-0.15364788
0.22614832
-0.19238690
-0.12556562
-0.21837637
0.14311880
-0.16435286
-0.13191906
0.19931509
0.08567107
0.09046675
-0.16160959
-0.14928295
-0.01591207
0.11926646
0.16618834
-0.27661169
-0.29537600
0.18949792
-0.23212247
-0.35192013
0.10901873
0.43623245
0.14170745
-0.11302372
-0.01716300
-0.16905160
-0.24096300
-0.14921524
0.17387649
0.20969470
-0.26846400
0.23912692
0.06888452
-0.06443897
-0.15519495
-0.03952751
-0.05932783
0.18611428
0.39184827
0.06236406
-0.26961967
-0.20440035
0.11567393
-0.09650428
0.14983131
-0.01210429
-0.04151502
0.11495399
0.07206587
-0.28685135
-0.19501850
-0.02612521
0.18719184
0.10382795
0.02296291
-0.09693388
-0.28320533
0.10682058
-0.05896595
0.18178588
0.26614711
-0.17367843
0.05138412
-0.13449745
-0.35662860
-0.00465957
-0.00814411
0.01939399
-0.19087654
0.29465866
0.21049993
0.01822502
-0.13050339
0.09168182
0.02348675
0.09968118
0.12055629
-0.31827983
-0.19597040
0.23259185
-0.14556018
0.15982437
0.06554567
-0.24017347
0.30433431
0.11991826
-0.21451984
0.23095915
0.24368913
-0.01867998
0.08234442
0.13002834
-0.41859016
-0.07146518
-0.16264062
-0.64780188
0.05844465
-0.30885485
0.19735467
0.15542673
-0.07951532
-0.08247640
0.06930790
0.03982974
-0.03894467
-0.08228385
0.12867403
0.16093805
0.06615054
-0.13318105
0.05471520
-0.19203281
0.11668052
0.18508454
0.04505748
-0.02381688
0.00580090
-0.31154758
0.04724713
0.22587039
0.18798359
0.28497937
-0.04671605
0.47853759
-0.16332677
-0.10331354
-0.06477261
-0.25512326
-0.14690004
0.14490502
-0.03610352
0.38604581
0.36943492
-0.10525566
-0.23136365
0.22612000
-0.18063499
-0.01523352
-0.05958118
-0.28037089
0.10507985
-0.18795796
0.43070731
-0.16347910
0.08465703
0.12001655
0.09033209
0.23324655
0.12627615
0.11830887
0.09014022
-0.00908075
-0.02864900
0.06735241
0.41014913
0.00598324
-0.03827465
0.24269609
-0.52332687
0.02162589
-0.11365085
-0.01714836
-0.20063370
-0.14745213
-0.07936477
0.25214294
0.27699804
0.24316554
0.20463644
-0.49990165
-0.31869200
-0.15969026
0.12917241
-0.14075176
0.00078907
-0.00457256
-0.18900764
0.14761935
0.37662739
0.04354649
-0.07192014
0.27187872
-0.16532180
-0.16828860
-0.07711369
0.11343221
-0.20651636
0.08997560
0.25562876
-0.02910078
0.08016299
-0.04108633
-0.23232239
-0.19679022
0.06787011
0.17756820
0.29086533
0.07911587
-0.29403648
-0.15479958
0.09927776
0.14484976
-0.15125343
0.16362703
0.17810141
-0.08669037
-0.01267027
0.49314222
-0.06572479
-0.19660997
0.03604244
0.15781471
-0.07053984
-0.24061370
-0.01507121
-0.07378896
-0.02746174
-0.11139334
0.09005881
0.08342243
-0.14480698
-0.28300485
0.24410945
0.04312490
-0.23238355
-0.12812069
-0.01001477
0.45161200
-0.05025612
0.14940403
0.15737720
-0.12575391
0.06226163
0.11717672
-0.18485920
-0.03983265
-0.28617334
0.00916815
0.11936315
0.28688657
0.11547738
0.27983651
-0.01183197
0.10447577
0.18112706
-0.05870546
0.15825683
-0.06889200
0.00825555
0.45580876
0.15114701
-0.26044568
-0.12680358
0.04080072
-0.24545419
0.11987828
0.03501169
-0.16773227
-0.20259209
-0.26138648
-0.16564339
-0.34784472
-0.15058340
0.10760579
-0.33615726
-0.25887549
-0.57708979
-0.00054388
-0.29288089
-0.01369404
0.02488505
-0.13927184
0.12005502
-0.08241275
-0.18261242
-0.19687250
-0.17587422
-0.25338987
-0.07930101
0.09001118
-0.01765807
0.52172643
-0.16213451
0.03499881
-0.07102740
-0.22062953
-0.14213866
-0.03038786
0.21823400
0.03870063
0.01313595
0.03703301
-0.34411323
0.05347464
-0.23335171
-0.10224714
-0.04524465
-0.08091788
-0.01206193
-0.24963646
-0.15589562
-0.24817041
-0.14488657
0.24297604
-0.14971396
-0.02187540
-0.03709427
0.39370579
-0.09614849
0.01386688
0.00473565
-0.09278984
-0.26995277
-0.17498414
0.21118519
0.00993268
-0.01147781
-0.22669469
0.02818080
0.14056949
-0.25970402
-0.04009102
-0.07714703
0.19793905
-0.07156919
-0.08171140
-0.05407516
-0.03335474
0.09824066
0.22928262
0.08099689
0.27454963
0.03882206
-0.19153357
-0.03881189
0.22011279
0.07014257
-0.54118180
-0.10558441
-0.02618464
-0.23993087
-0.20687848
0.19679661
0.15078539
-0.09998709
-0.02111411
0.12647392
-0.15150377
-0.04013466
-0.08721775
-0.17346488
0.17833203
0.12514107
-0.00901168
0.05553410
-0.19249588
-0.13141315
-0.18664922
0.33132803
-0.20541987
0.02345081
-0.00293341
0.14132383
0.01065080
0.17384912
-0.19924441
0.17924237
0.03823551
-0.22578752
-0.01502804
-0.03354993
0.08309501
0.21164039
0.09353564
-0.16493551
0.10496078
-0.11704846
0.14984481
-0.13326159
-0.02091735
-0.06468128
-0.30220795
-0.21879277
-0.06482451
-0.17030996
-0.12620065
-0.02343487
0.00539531
0.05055429
-0.15628894
0.00346335
0.20070139
-0.17464660
-0.15569404
-0.14331831
0.13891889
0.04060685
-0.18677051
0.21753356
-0.13977070
-0.05437800
0.10376815
-0.12830509
0.29070452
-0.19521368
-0.35734990
0.45736369
0.11891586
0.06244840
0.04684583
-0.42740008
-0.41290075
0.24281378
-0.22111775
-0.00561510
0.05589471
-0.36112782
0.20501913
0.09547412
0.33386326
-0.13137935
-0.31440809
0.09632722
0.29041991
-0.05267263
0.09899629
-0.05836465
-0.27366012
-0.16704826
0.08271055
0.14304435
0.17090681
0.09664860
-0.13979585
-0.01905634
0.11756701
-0.04559789
-0.10415991
-0.03755672
-0.06218900
0.04367016
-0.07797243
-0.29261765
-0.04828274
0.27746347
0.08747425
-0.15423337
0.15518141
0.00713397
0.00762483
-0.00306052
0.27265978
0.02454070
-0.08811164
-0.17278314
-0.01298353
-0.07302491
0.13059273
0.06859566
0.09768181
0.26679972
-0.28469941
0.16517626
-0.20992121
-0.10339692
0.04703816
-0.02116989
-0.13464956
0.07917745
0.09100794
0.01978732
-0.06480521
-0.09409668
0.17416029
-0.02555397
-0.44314361
-0.29550579
0.01659051
0.05031245
-0.13031372
-0.25360501
0.08888103
-0.20606504
0.28300592
-0.19964603
-0.12595202
-0.04528319
0.17651869
-0.40398011
0.35598710
-0.08263090
0.21455750
0.11801431
0.26227465
0.11612920
0.23004095
0.24476783
-0.13932942
0.11157876
0.13565506
0.20822190
-0.29521289
0.15395430
-0.08506564
0.06737927
-0.10861156
-0.03091894
-0.21429808
-0.17526783
-0.14736134
-0.24106200
0.24590576
-0.13294812
0.25111011
0.13304429
0.06635328
-0.16499743
0.08227448
-0.14870284
0.10708638
0.20935205
-0.13740514
0.14951690
-0.25314823
0.11361918
0.11489291
-0.07337081
-0.04599594
0.15961026
-0.13010715
-0.11337170
0.04238361
0.27653497
-0.15493976
0.00097055
-0.00568490
-0.02697954
0.17344396
0.15255627
0.14461605
-0.00692325
0.15208435
0.28781512
0.08491233
0.14875276
0.12408779
0.04255113
0.05683265
0.12949638
-0.13940139
0.27172500
0.23266453
-0.02967416
0.26678544
0.21135329
-0.04251206
0.12005755
-0.20829356
-0.07417376
-0.24829204
0.06303794
0.02794585
-0.01787503
-0.24532503
0.02229599
-0.11103060
0.15258375
-0.02009725
0.26473719
-0.07321993
-0.06246803
-0.13848794
-0.22446451
-0.07317857
-0.27613643
-0.23957978
-0.13735516
-0.22914517
-0.12483776
0.21639293
-0.00900707
0.02804135
0.11009998
-0.31627217
-0.13882841
0.04942201
0.01273344
-0.21448135
0.11782121
0.09907897
0.30100316
0.04878493
-0.01346879
-0.03911914
-0.27326453
-0.22725084
-0.17480130
0.04464710
-0.12538981
0.03732333
-0.07748615
0.01273908
-0.19567698
0.32158339
-0.13056578
-0.02594401
-0.28582337
0.06636620
-0.20844419
0.20286770
0.14665137
0.05663853
-0.16537474
0.19416334
0.09881582
0.10513874
-0.12521632
0.10927600
0.07648481
-0.08489209
0.01459516
-0.34805211
-0.00745425
-0.08839656
-0.36964798
0.22761671
-0.07726775
0.07205579
-0.26377001
0.13483556
-0.32774633
-0.11203523
0.09040340
0.15472339
0.20318204
0.13562256
0.20771211
-0.07252063
0.10957184
-0.08409347
-0.08102259
0.09771689
-0.05704833
0.17957294
0.11802313
0.18562900
0.03152194
-0.30408347
-0.18765430
0.21235150
-0.02572466
0.15148786
0.01344569
-0.31531894
0.29613629
-0.30399942
-0.13129587
-0.15059857
0.10973325
0.01633411
-0.14014189
-0.29306862
-0.24576049
0.11204088
-0.17346990
0.11140052
-0.04867914
-0.10966248
-0.28506961
0.12940679
0.07822811
0.40126848
0.31713659
0.04709390
0.10423913
-0.03719599
0.05561921
-0.20946521
0.23619908
-0.02189148
0.30755156
0.08044364
0.00906976
-0.13869466
-0.11156316
-0.20269266
-0.02866070
0.13689429
0.05421402
0.05557715
0.07925943
-0.20059679
-0.04412717
-0.32532838
-0.06606462
-0.28388861
-0.07978278
0.22790837
-0.08543336
-0.11698037
-0.04505477
-0.09601973
0.28199506
-0.00941271
-0.02660104
-0.20154011
-0.27985954
0.15060402
0.08398015
-0.29565626
-0.32875773
0.15718277
0.14237110
-0.05265087
-0.01419570
0.10643055
0.12715371
-0.14150260
0.10198315
0.17890452
-0.04664025
-0.18993795
0.00409994
0.00556526
-0.23848972
0.25614151
0.19443138
-0.01815675
-0.13872130
0.02440253
0.04995428
0.18082279
-0.17850229
-0.01208691
0.22992015
-0.01566584
0.02772330
0.08863627
0.02497628
0.06318151
0.04649655
0.29566824
0.16488814
-0.22382702
-0.21811257
-0.16980943
-0.09840591
-0.23826613
0.08038232
0.05757416
-0.13992667
-0.15789734
-0.06387993
0.03583274
-0.06620423
-0.39105365
0.23017067
-0.26065969
-0.00320832
0.05937833
0.07907453
-0.25198841
-0.10802524
0.23382980
0.01185641
0.22754687
-0.00211621
0.08561481
-0.26926523
0.27429643
-0.00154943
0.32921615
-0.11297019
-0.07076145
0.13591366
-0.37083802
-0.04654411
-0.20045739
0.03975024
-0.03279250
0.15131414
-0.11909600
0.04284710
0.20059028
-0.09785379
-0.16903065
-0.07392816
-0.23269489
0.28094158
0.20885755
-0.09051228
0.15315762
0.23689795
-0.23737004
0.03582203
0.35213536
-0.33197448
-0.01149651
-0.30492339
0.19961385
-0.14847009
-0.12248071
0.05328990
-0.04424030
-0.06414015
0.00832169
-0.06437437
-0.40033695
-0.20799200
0.16593181
-0.08172018
-0.01925458
0.38740495
0.04804284
-0.28043401
0.08567171
-0.05519139
0.14752419
-0.17358312
0.11510442
-0.19341598
-0.01542219
-0.08399666
0.22261043
-0.03884068
0.07988013
-0.12810220
-0.12850204
0.00575971
-0.38747618
0.13669734
0.15531668
0.03563359
-0.30878398
0.02208354
-0.15999992
-0.19280790
-0.33772573
0.14863478
-0.07397085
-0.04192763
0.32655066
-0.29456875
0.09784693
0.19618227
-0.16546683
0.00961335
-0.05906779
0.27419072
-0.06026265
-0.18344067
0.15635541
-0.17752388
0.02951520
0.24993934
-0.04949864
0.11121345
-0.15970759
-0.01398257
0.15708624
0.19479851
-0.34960884
-0.14142290
-0.07601783
0.16747493
0.18344179
0.18987930
0.06340333
-0.09799135
-0.12917140
-0.17834689
-0.22784705
-0.06051066
-0.08561081
-0.03252347
0.01970946
0.24063025
0.00317190
0.10840014
-0.05039905
0.19814344
0.07370086
-0.21320289
0.06965096
0.18988232
0.08150148
-0.20464063
0.03686587
0.19699427
0.16251828
-0.17877795
-0.37778413
0.10732155
0.01237126
-0.18018359
0.06536388
-0.18291697
0.16148636
0.19061193
-0.00149340
-0.14238816
-0.13780521
-0.28542081
-0.28648990
-0.20361532
-0.04952196
0.03539639
-0.16319872
0.09297910
0.07309656
-0.13043059
-0.13289762
-0.05656205
0.17236395
0.03721640
-0.01579936
-0.04588671
0.06098711
0.08500095
-0.13704309
-0.14634643
0.09580901
0.19331357
0.05591433
-0.16345520
0.17601998
0.14541943
-0.08958143
-0.20738414
-0.00931649
-0.02681898
0.03660747
-0.07209540
-0.28799558
-0.32923597
0.06432442
-0.50338364
0.36698180
-0.34241927
0.02871972
-0.05291380
0.02210320
0.12375769
-0.06254622
0.23829174
0.17305250
0.02784907
0.19558626
-0.14956453
-0.02908486
0.48850843
0.38244864
0.35825381
-0.52777755
0.22700165
-0.30934969
0.11728860
0.07347624
-0.00926814
-0.26359180
0.13763508
-0.08952758
0.04318964
-0.12003848
0.36313492
0.11890966
-0.13052489
0.48065984
-0.36180964
0.29497179
0.19798215
0.50786984
0.00016689
-0.32553223
-0.46727929
-0.07004534
-0.03692945
0.26966962
-0.15262179
0.34154773
-0.03588003
0.17896961
-0.35265997
-0.05047511
0.01483716
0.14273472
0.10646772
0.05197150
0.19891955
-0.22605725
-0.04174577
0.28387800
0.50073606
-0.02991583
0.04152535
-0.04647328
0.20731667
-0.08621011
0.07512058
-0.13786131
-0.04454827
-0.16800401
-0.07605198
-0.02165960
-0.12284988
-0.22707361
0.34213698
-0.12693524
0.14600195
0.35622746
-0.00212303
0.14387029
0.33607677
0.17094870
0.14758658
-0.20419383
0.20267443
0.14307147
0.11211393
-0.27435657
0.12858771
0.15730532
-0.05463062
0.06158499
0.02497605
-0.20131518
0.33108321
0.14011766
-0.06527692
0.12502658
0.21179029
-0.04567270
0.17351587
0.16137555
-0.07078862
0.05315704
-0.28867993
-0.16457261
-0.10434405
-0.13249716
-0.13323909
-0.12106736
0.02642466
0.07798090
0.09577066
0.33636171
-0.08024196
0.32906067
0.16564795
0.07774011
-0.14597362
0.00538440
-0.17003860
-0.14712530
-0.29406106
-0.00289396
0.20996603
0.23592570
0.07191796
-0.16031916
-0.23794022
0.11227246
0.05399111
-0.22616737
0.22479497
-0.03455782
-0.16239494
-0.16507804
0.26392531
0.12664437
0.10598060
-0.08380241
-0.00684681
-0.12513171
-0.45095885
0.06732326
-0.13765664
0.16683829
0.08723314
0.34435838
-0.01757790
-0.17904292
0.05880446
0.17054291
0.05873386
0.03676317
-0.22354855
-0.05743435
-0.05798044
-0.05843700
0.28164637
-0.04018908
-0.27920175
-0.01766036
0.16912989
-0.07971792
-0.12346151
0.15495904
0.04744525
-0.04664901
0.09611391
-0.25664762
-0.15108329
-0.06862716
0.19227467
-0.20715514
0.09726973
-0.39224455
0.12359133
0.07155821
0.00987069
0.11949959
-0.11785042
-0.07142404
0.18071984
0.02450038
0.11128088
0.20538504
-0.03821739
-0.01747569
0.15810424
-0.07659773
0.20885599
-0.13688116
-0.09807586
0.05335918
0.18357728
0.19669686
-0.04607790
-0.11169484
-0.11926510
-0.28458765
0.19506386
0.11731441
-0.08567142
-0.11542218
0.01723128
0.09714729
0.01793512
-0.14560601
0.10340840
0.01884510
-0.39293817
-0.08361198
0.29891816
-0.11691848
0.05759005
-0.10818425
-0.11913087
-0.15430959
-0.07328503
-0.03934158
-0.11388326
0.17545933
0.06622640
0.23795442
0.02027621
-0.43361166
0.18591402
-0.04625136
-0.13153403
-0.18735349
0.10005780
-0.16251308
0.21516435
0.19433002
-0.42944166
0.14753762
0.31489241
-0.04825601
-0.24328749
0.15808193
0.02713698
0.03025898
-0.00656819
0.09709191
0.18657106
-0.01978538
0.08650418
0.06120766
-0.16372733
-0.05814574
-0.09198958
-0.24844468
-0.12063980
0.02243317
0.01560580
-0.16142021
0.02336535
-0.11915843
0.06562460
0.07904466
-0.06664991
0.02809220
0.17854726
-0.16414379
0.07197669
-0.02985454
0.15243766
0.26962113
-0.06479361
0.08755952
0.10869683
-0.05053457
-0.13863029
-0.25800261
-0.27650335
0.25378183
-0.03645036
-0.08522521
-0.02300609
0.13558176
-0.17459743
-0.33061990
0.04072782
-0.22918743
-0.05656235
-0.10323387
-0.08283127
-0.33327520
-0.11673255
-0.18485785
-0.07801909
0.05193086
0.13164160
-0.02198732
0.21758606
0.24809322
-0.05224852
-0.14933762
0.12112056
-0.02698035
-0.22895113
0.03007360
0.24417789
-0.10818131
-0.06977376
-0.08691698
-0.10992937
0.17102186
-0.15513894
-0.04163942
-0.05963556
-0.19363968
0.20446728
0.26397821
-0.21079916
-0.22040756
0.13664520
-0.06584626
0.33532768
-0.18944846
-0.31402406
-0.12493366
-0.06890032
-0.10791151
0.09429143
-0.36202309
0.34383619
-0.08638307
0.14938772
0.07008668
-0.04520513
0.13815229
0.09532971
-0.16545703
-0.05384639
0.07229751
0.03641425
-0.07758884
0.02678593
-0.19509344
-0.01743147
-0.20344779
-0.02029374
-0.02842860
0.38026425
-0.13668607
0.15523551
0.26163593
-0.13945411
-0.24390158
0.06734607
0.15304486
-0.03544107
-0.12112648
-0.11725433
-0.65340418
-0.23090474
-0.28573346
-0.05605112
-0.07881437
0.02160626
0.06168722
-0.18475938
0.25511402
-0.14200965
0.16825865
-0.30396792
0.18728395
0.25192332
0.12008600
-0.07768351
-0.00667892
-0.13494435
-0.00071242
-0.30182552
-0.10799010
-0.17227961
-0.12354733
-0.29553592
0.06486931
0.18777528
0.23892900
0.01105886
0.31621501
0.10169181
0.14215867
0.03557388
-0.30018187
-0.18004313
0.08404468
0.02850895
0.08993406
-0.27169704
0.09055594
-0.12791851
0.05330995
0.25722560
-0.10934713
-0.54969567
-0.00192961
0.21797822
