-0.25575051
0.02681217
-0.29353365
-0.08709032
0.07267725
-0.14203571
0.16813385
0.32778674
-0.04234545
0.25487512
0.45693156
-0.02079964
0.17297463
0.14208749
-0.11750189
-0.10126632
-0.09055822
0.06755470
-0.08381978
0.02381918
0.14589241
-0.17851833
0.20184946
0.20815872
0.05015002
-0.38174367
-0.07372856
0.14565748
0.14271857
0.37096694
-0.04072733
0.31570134
-0.16853034
0.01160426
0.19191971
-0.03323345
0.20227987
0.13918428
0.03305186
-0.01972726
0.09322020
-0.03303922
-0.22297089
-0.07999536
-0.06673615
0.11962679
0.24424680
0.09213618
0.02552750
0.02813858
-0.05771314
-0.14585663
0.12697484
-0.17639674
-0.11469498
-0.23463583
-0.16555002
0.25534084
0.00448942
0.11299375
0.27654359
-0.07578836
-0.26962715
0.00190875
-0.09518714
0.04095734
0.15736385
-0.04933999
0.09630805
0.01321102
-0.01249419
-0.24034138
-0.02786880
-0.38731462
-0.05786424
0.01085036
-0.09483168
0.05014563
0.06340116
-0.03454211
0.14989476
-0.09081933
-0.04439658
0.18054140
-0.08452076
-0.04402758
0.19356219
0.18910380
-0.08929259
-0.15408175
0.10253680
-0.08953533
-0.22894174
0.22326368
0.07735321
-0.13939235
-0.08222485
-0.11285964
-0.16007708
0.11215175
-0.03307287
-0.06756362
-0.01310721
0.00075414
0.33477464
-0.05108175
0.05075765
0.03176112
0.21602820
0.15314978
-0.11975795
-0.02836601
0.04141964
0.09301321
0.08946197
0.49170399
-0.05416542
0.09835257
0.05302434
0.45459190
0.01854512
-0.11354087
-0.07549190
-0.44170311
-0.68192369
0.02564094
-0.00162455
0.08708266
0.19244406
0.06832273
0.18770015
-0.32090238
0.29040822
0.05644681
0.10330603
0.06140684
-0.05160721
0.38694382
0.28804842
0.00189693
0.25762025
-0.04843096
-0.03842229
-0.00981238
-0.10309214
-0.05384861
-0.20312490
0.19911991
-0.04395052
-0.20302697
-0.26733661
0.09449583
0.05970908
-0.08229651
-0.10601299
-0.01711927
0.14080401
0.02435084
0.08587453
0.17396377
-0.11280280
-0.14231193
-0.00062074
0.13253608
-0.04740501
-0.14630222
-0.21272433
0.65398681
-0.02995551
0.05292008
0.23773177
0.18573922
0.15462074
0.00003956
-0.25007093
-0.34331954
-0.48778790
0.36350039
-0.05816286
0.20181191
0.15675804
-0.16900654
0.13544427
0.14255626
0.04394347
0.01819352
-0.08236454
0.00828010
-0.01899173
0.21050638
0.07061017
-0.11748551
-0.03042619
0.00743297
0.25983340
0.06398468
0.13979867
-0.28174290
0.13246427
0.26390684
-0.07638136
0.39985821
-0.30730858
0.03290201
0.09136677
-0.08969571
0.03339537
0.12171414
-0.04881198
0.14038335
-0.21335909
0.00405899
0.07537549
-0.03560256
-0.11349218
0.11446224
0.34272552
-0.10751779
0.09213960
-0.21473904
-0.42088473
0.01114116
-0.12110021
-0.10220478
-0.14246374
-0.02031783
-0.07914393
0.14729984
-0.07552382
-0.10476549
-0.18706396
0.25411293
-0.12320836
0.24725176
0.01739045
0.05836818
-0.08238984
0.20439328
-0.05420867
0.06202450
-0.05191352
0.21951224
-0.03082369
-0.32647538
0.14724809
-0.01130317
0.01402923
0.29331976
-0.02202098
-0.02225431
-0.02677784
0.01822202
0.01235228
0.03472268
-0.13566010
-0.13383466
-0.04145466
0.16974062
-0.42154679
0.18871245
-0.21452977
0.07038342
0.10120720
0.45752063
-0.02628095
-0.03894721
-0.03033833
0.10993296
0.36659592
0.04645949
-0.01830365
0.05291354
0.18521781
-0.16135456
0.27062070
-0.05068203
-0.05934249
0.31810975
-0.01745267
-0.01773450
0.30333182
-0.05772061
0.10535335
0.08678173
-0.12774064
-0.11470417
-0.03748031
0.42650101
0.22013876
-0.43126461
-0.01249899
0.13397911
0.00748984
-0.09071701
-0.70302975
-0.16728078
-0.18945567
-0.13120082
0.22789857
0.11163300
-0.08552283
0.02724995
0.56655610
0.22007479
0.23191963
-0.09602575
0.01619569
-0.08686541
-0.00581940
0.02566976
0.02880975
-0.11847489
-0.09933105
0.21684624
-0.02277540
0.01569199
0.04368787
0.19463055
-0.01709073
0.57999307
-0.07230526
-0.04216246
-0.08439589
-0.01769578
-0.09832675
0.00913139
-0.08612190
-0.12065846
-0.34700659
0.00197856
-0.09829503
0.24181597
0.32429463
0.12747975
-0.12801917
-0.09922959
0.02830581
0.29140213
0.06923603
-0.03694535
0.07159855
0.00348326
0.08130613
0.06574051
0.04449025
0.30726749
0.20473270
-0.00596510
0.00148356
0.07554805
0.08421361
0.00885785
0.00571956
-0.23191848
-0.17921472
0.06291120
-0.01298887
0.38273486
-0.08110366
0.05561406
-0.17602970
-0.24137169
-0.00761375
-0.13551210
0.03130592
0.11801494
-0.20923695
0.59449947
-0.12814237
0.23648559
0.12708341
-0.01636311
0.01766694
-0.10420142
-0.12910664
0.15270501
0.10546833
0.34709603
0.13648248
-0.14254613
0.35014254
0.04422897
-0.09774631
0.10138233
-0.53748226
0.14613494
0.24254625
0.01856882
0.36504480
0.11397064
-0.28596258
-0.52824068
0.08903818
-0.16211925
-0.07307031
-0.20109601
-0.15470809
-0.02655102
0.12996958
0.15490852
-0.00361401
0.02869257
0.10265918
0.05442822
-0.01674132
0.01758105
0.01705192
0.18864782
0.08246808
-0.29146680
-0.07611725
0.23212124
0.19422123
0.08429420
-0.06385390
0.13306057
-0.08513501
-0.06512309
-0.01416978
0.01784948
0.08212908
0.15866777
0.18647867
0.33218655
-0.01699195
0.18088497
-0.06146265
0.18634431
-0.21042207
0.36019906
-0.05362899
-0.05480978
-0.02334176
-0.05069727
-0.00676801
-0.16249980
0.08702682
-0.05829211
-0.16437791
0.06482200
-0.24886720
-0.02383801
0.30208349
-0.07191867
-0.02605416
0.07539801
-0.05593572
0.34911260
0.06570885
-0.07223829
-0.05629849
0.00493168
-0.01518490
0.04902942
-0.13527361
-0.21040604
-0.13560809
-0.05700945
0.06305374
-0.04883949
0.16492885
0.02513244
-0.34561545
0.05836343
0.08541844
0.05664643
0.10729142
0.17776576
0.35103142
-0.05196837
0.08362887
-0.26539797
-0.21652925
0.31153634
-0.20303684
-0.07450417
-0.11855750
-0.02651898
-0.12296775
0.02443818
-0.03263188
0.34483683
0.02977080
0.03596476
0.11968119
0.49533632
-0.15317214
-0.00282748
0.20729807
0.09363178
0.24883795
0.06397200
-0.22068526
-0.13383132
0.73957086
0.02668922
0.15066531
-0.02361704
-0.14082626
-0.09433434
-0.10018819
-0.03974048
0.22912107
-0.04907406
-0.02397547
-0.07993913
0.10785545
0.15951352
-0.10315794
-0.40112153
-0.09085362
0.08394053
-0.00202801
-0.30442375
-0.01952173
-0.09519673
-0.17689599
0.36692792
0.15441549
-0.13404368
0.13895430
0.44513181
0.04763354
-0.09430951
-0.16087985
-0.22132874
0.04019177
-0.01276812
-0.05898655
0.10679832
-0.03261023
0.00000627
0.13761833
-0.08523723
0.11587170
-0.15870938
0.03263281
-0.02198713
-0.23880684
0.01317571
-0.04860700
-0.06437160
0.15794979
0.38264158
-0.10645697
0.06435528
-0.08962790
0.32532147
0.46935868
-0.24436751
-0.07091858
-0.00033000
0.08130371
-0.18471813
-0.31979796
0.07778886
-0.11416402
-0.01542168
-0.30802020
0.09135488
0.02674900
-0.08984423
0.26805240
0.05465680
-0.17139584
0.10472638
0.03356554
-0.08751281
0.06753401
0.14178018
-0.12383233
0.00622081
0.32657161
-0.06054666
0.07912707
0.03843509
-0.04731166
-0.10424204
-0.12293960
-0.13473153
0.51532245
0.14292170
0.29810524
-0.12457129
-0.07681337
-0.04778750
0.11081734
0.21305697
-0.10698572
-0.15953150
0.56367916
0.25213099
0.25842211
-0.17762151
0.00318936
-0.24281415
0.22372392
0.00767925
-0.14838435
0.53239781
-0.23393333
-0.27524093
-0.03646091
-0.19640344
0.02089498
-0.33655024
0.50197929
0.01972837
0.16865963
-0.21808641
-0.20108737
-0.09557152
-0.16939443
-0.07744618
-0.22150815
0.27453300
0.08536804
-0.02587592
-0.11691006
0.03906419
0.17146814
-0.16226050
0.22018464
-0.02902116
-0.12492578
-0.15160181
0.06190569
0.05688707
0.12742436
-0.25560889
0.17239477
0.09251185
-0.19344793
-0.33103326
0.14095686
0.14038937
-0.05260799
0.02868296
0.02911079
0.00998345
0.14945540
0.02419170
-0.43720648
-0.00994390
-0.00958005
-0.08270679
-0.09848081
-0.29475784
0.06641445
-0.08969835
-0.06834464
0.12030114
0.00044374
-0.17325868
-0.28876925
-0.09502620
0.02923064
-0.07671376
-0.14873622
-0.06427374
-0.05069666
-0.06461204
0.05345936
-0.12775676
-0.09026160
-0.14078522
-0.15885539
-0.55298197
-0.00391411
0.14180373
-0.12591395
-0.06374031
0.11715732
-0.11593996
0.10702627
-0.19372216
-0.08017490
-0.06246718
0.06532726
0.12177692
0.00535486
-0.00081498
0.26544812
0.09971764
0.07109603
0.24237476
0.04856229
0.08936464
0.34812638
-0.43068105
-0.00036717
0.09853947
-0.14321630
0.05778950
-0.10435776
0.03189455
0.05348822
0.24866794
0.13740590
0.14398117
0.00608603
-0.12616614
0.04725971
0.04655429
0.02963571
-0.00978942
-0.06209668
0.81569934
0.20820738
-0.00162597
0.37364376
0.33540738
0.28851193
0.01805863
-0.15567766
0.31892660
-0.21012567
-0.04729605
-0.30384979
0.06873465
-0.25491846
-0.17156503
0.13860680
0.09458730
-0.04617736
-0.16883175
-0.17280309
-0.03682972
0.06903157
0.26187208
-0.22310193
-0.08172864
0.12471807
-0.17504488
-0.20244886
0.04704123
0.51011133
0.17150466
-0.06021339
-0.04758753
-0.17271277
-0.21157973
-0.00841392
0.11160046
0.21123733
-0.26993912
0.33100304
0.06194577
-0.02839343
-0.24367605
-0.00453705
0.01047202
0.08834665
0.48027456
0.07975890
-0.20106931
-0.21105349
0.15504882
-0.08526847
0.02657894
-0.04181235
-0.01568258
0.09958227
0.05053395
-0.05452699
-0.14605054
-0.00556753
0.16714059
0.13190871
0.04123634
-0.03061719
-0.10197305
0.08608851
-0.04605411
0.09127147
0.21085694
-0.08096438
0.06047701
-0.06352361
-0.23895864
-0.05393370
-0.02420420
-0.02591583
-0.14324987
0.26581237
0.12550706
0.02538107
-0.13658093
0.04455179
0.03919624
0.05305634
0.11719804
-0.17774522
-0.05294213
0.19363350
-0.02624311
0.10540467
0.18005633
-0.21614210
0.41583511
0.06961595
-0.30826083
0.25738734
0.19718660
0.06003640
0.01729891
0.11877136
-0.54817861
-0.04343590
-0.08623342
-0.59880543
0.07667304
-0.34451610
0.21477799
0.11532307
-0.12453814
0.01020546
0.14029559
0.02507953
-0.00947927
-0.13065718
0.07625970
0.09453419
0.00978050
-0.19789724
0.01102889
-0.10696063
0.13154338
0.08948804
0.05145607
0.00494499
0.09334358
-0.27821445
-0.03646545
0.20235614
0.12278230
0.39202771
-0.10665771
0.69979095
-0.08160893
-0.03293132
-0.02742680
-0.36170647
-0.08821003
0.13984442
-0.07290297
0.28712976
0.40586922
-0.08207320
-0.04103595
0.35277227
-0.08065690
0.00015813
-0.07658236
-0.09382042
0.03000843
-0.10546602
0.37657174
-0.08613289
0.09182380
0.10884830
0.14388917
0.22360122
0.09090245
0.01524525
0.19143921
-0.11181278
0.05438991
0.08617352
0.53475624
0.14005461
-0.03805275
0.18940376
-0.16408190
0.03017738
-0.06683397
-0.05097929
-0.16495742
-0.06590047
-0.05330596
0.22182225
0.32741153
0.23271753
0.14848271
-0.38735911
-0.15028931
-0.12365814
0.22233829
-0.03900632
-0.00372242
-0.05328378
-0.36159325
0.13037981
0.30230066
0.04946231
-0.09650289
0.09968398
-0.16267793
-0.13422744
-0.17286174
0.03351506
-0.24311778
0.14168403
0.14210165
-0.05021115
0.14136638
-0.03526736
-0.15501732
-0.18888743
0.03636542
0.09765046
0.43556926
0.06303872
-0.21577305
-0.11704122
0.05412579
0.11699934
-0.08487050
0.29507375
0.20591380
0.02255347
-0.02088915
0.48143512
-0.09189769
-0.13639419
0.07429512
0.09908067
-0.10955157
-0.40575397
-0.05205766
0.01062107
-0.07194326
-0.04073648
0.15234582
0.05355421
-0.11074629
-0.15615696
0.19310112
-0.06352805
-0.23604146
-0.01299875
-0.06348637
0.65895504
-0.05740270
0.07787740
0.12620455
-0.07829629
0.04310844
0.09992623
-0.09745708
0.03063574
-0.08986658
0.03264456
0.06594011
0.18314718
0.07488848
0.27913707
-0.02193747
0.09337786
0.07518689
-0.13226333
0.04252089
-0.04172673
0.00092483
0.51873982
0.06309594
-0.19872820
-0.12208134
-0.04874075
-0.17976889
0.07215875
0.05740922
-0.20074278
-0.03387921
-0.13327360
-0.05957615
-0.24975830
-0.11545425
0.03727845
-0.09274776
-0.34116131
-0.43274567
0.02351711
-0.23063488
0.03939798
-0.04708772
-0.10773285
0.10231289
-0.10627215
-0.16748713
-0.13639383
-0.05374772
-0.04771163
-0.03314791
0.01058027
-0.03549265
0.48834690
-0.18912542
0.09693115
-0.02153401
-0.20800892
-0.07244273
-0.13890505
0.22628535
0.04632819
0.06621944
0.01356381
-0.11190486
0.05644986
-0.19172829
-0.05319402
-0.01719570
-0.09842617
0.05373694
-0.16929153
-0.18070205
-0.37584522
-0.05672203
0.18003677
-0.05863641
-0.04151325
-0.06299137
0.41824490
-0.16819094
-0.00560297
0.00522953
-0.00463952
-0.12782136
-0.19484070
0.22633523
-0.06482927
0.04597960
0.00553687
0.00595248
0.10757136
-0.24024197
-0.00331812
-0.07025390
0.15184826
-0.04565229
-0.08058729
-0.08009479
0.01137146
0.05653470
0.17635599
0.00389436
0.24163853
0.03581016
-0.18015273
0.00050261
0.13138716
0.02394976
-0.56274515
-0.07107259
-0.10328671
-0.12334115
-0.07679720
0.22535037
0.10928313
-0.03796594
0.02353073
-0.00963573
-0.10754558
-0.00571974
-0.04566718
-0.27483770
0.17590822
0.22302516
0.01592347
0.01413276
-0.12236360
-0.01396347
-0.09949666
0.43223545
-0.15764831
0.07647469
0.03202530
0.31672066
0.05812478
0.11432710
-0.19592571
0.15021740
-0.05259025
-0.16571763
-0.02630622
-0.03981301
0.09109254
0.22698124
0.11571146
-0.16595007
-0.00955777
-0.21709506
0.23831728
-0.07643957
0.04435446
-0.00065973
-0.20070067
-0.12726605
-0.08405977
-0.04791701
-0.09575235
-0.01399996
0.01982449
0.03692266
-0.10697600
0.00649641
0.03422553
-0.16542663
-0.10795394
-0.24488856
0.03456618
0.10586474
-0.23874035
0.21465679
-0.18536931
0.00195060
0.09855528
-0.09789697
0.19460653
-0.25807881
-0.29991925
0.55808228
0.11222129
0.00670912
0.10857832
-0.23685467
-0.22093117
0.24001658
-0.19767222
0.01267316
-0.06000779
-0.29962409
0.17833731
0.20586626
0.38948929
-0.04175041
-0.15357077
0.07909261
0.31249690
-0.08563114
0.08220364
0.01993008
-0.16198744
-0.10798837
0.07436921
0.19055121
0.11681525
0.09214858
-0.13620864
-0.06653638
0.06188526
-0.04035652
-0.08345094
-0.05069776
-0.12868512
0.00054182
-0.15904549
-0.23100261
-0.06746636
0.27734402
0.04872204
-0.17980804
0.14164566
-0.01150170
-0.04977114
0.04551274
0.22240230
0.01404645
-0.00192452
-0.05063888
0.00624246
-0.02089813
0.07209285
0.06160241
0.07151497
0.13421114
-0.27528250
0.06521393
-0.11732097
-0.09859587
0.11332824
-0.00577750
-0.12915553
0.05839384
0.01805134
-0.07227822
-0.06417202
-0.06287967
0.22101356
-0.00658278
-0.21278422
-0.26720273
0.00322594
0.10004066
0.03448822
-0.47734606
0.14951555
-0.07104517
0.19477977
-0.10540741
-0.05240466
-0.05827300
0.14493845
-0.43126929
0.20470648
-0.11362949
0.21541719
0.01799561
0.29725817
0.09702510
0.31936559
0.28857261
-0.27732286
0.13406667
0.06920900
0.37377715
-0.27600533
0.16559103
-0.06121857
-0.01159193
-0.02751302
-0.00535296
-0.12894049
-0.08583483
-0.08742828
-0.12111986
0.34123576
-0.15918392
0.28869528
0.14446184
0.06647208
-0.13450061
0.03440075
-0.13572545
0.09558393
0.22633976
-0.05732914
0.23351441
-0.19390042
0.16566093
0.17985781
-0.09672640
-0.02108819
0.21866140
-0.08633924
-0.04808668
0.01277205
0.48070276
-0.09518150
-0.07666472
0.09397013
0.01119893
0.12780379
0.08628235
0.09051660
-0.01602734
0.15355149
0.34519741
0.03467507
0.10868544
0.07728954
-0.02574323
0.06138581
0.08123653
-0.25494120
0.19994389
0.14931343
-0.05032946
0.49831831
0.20698260
0.01787367
0.05872208
-0.19852984
-0.05972214
-0.19296294
-0.01744510
0.01700095
0.03436848
-0.14992282
0.06270549
-0.11843932
0.10368919
0.01324166
0.18586415
-0.00306853
-0.12187620
-0.11880701
-0.04085607
-0.06854152
-0.16298057
-0.21351938
-0.04016420
-0.14918813
-0.11891721
0.17536899
0.03240046
-0.01818618
0.15828246
-0.19417712
-0.03850266
0.01333094
-0.07145546
-0.17019179
0.15703045
0.08914237
0.18429527
0.01916694
0.02752601
-0.01248270
-0.18903765
-0.12358012
-0.14849631
-0.00110521
-0.14030454
0.09711099
-0.02598779
0.00276086
-0.09601758
0.27445239
-0.07777034
-0.09208438
-0.20951660
-0.00082145
-0.07813039
0.16726778
0.04512106
-0.01109244
-0.15495698
0.32929769
0.02176765
0.08184270
-0.16709690
0.06821202
0.09104803
-0.09690292
0.00920996
-0.37752458
-0.04398592
-0.03974126
-0.14473347
0.31530741
-0.07851290
0.01537149
-0.22436886
0.14714301
-0.29557234
-0.11897615
0.03331309
0.17630842
0.26197562
0.12432986
0.22006828
-0.07456077
0.08944360
0.01474868
-0.09854637
0.05318117
-0.07474420
0.10506386
0.10166304
0.15139541
0.03266403
-0.23972897
-0.15503600
0.20853804
-0.01059276
0.14703897
-0.01545984
-0.21243486
0.15699226
-0.15386304
-0.14683536
-0.01619507
0.10541849
0.09431624
-0.14254497
-0.16629314
-0.26898205
0.07922704
-0.05636701
0.07499442
-0.10239103
-0.01162690
-0.17684476
0.07687140
-0.02142061
0.51190621
0.28446171
0.05203161
0.00378101
-0.02515273
0.01231522
-0.18274568
0.19979565
-0.04593072
0.42422614
0.02260752
0.03920251
-0.05724303
-0.14935823
-0.07331534
-0.02056013
0.14279407
0.06602182
0.09212231
0.10446534
-0.08055151
-0.00373073
-0.19879070
-0.02849246
-0.32882559
-0.06047834
0.14772305
-0.07162809
-0.02507767
-0.02329825
-0.16137867
0.29499009
0.05895434
0.00645644
-0.10891140
-0.16362271
0.19017132
0.01197649
-0.40486616
-0.24485698
0.11997936
0.18421917
-0.02452984
-0.02025481
0.12282653
0.09953782
-0.15776435
0.12088892
0.11489677
-0.00541070
-0.09610915
0.00998271
0.06398287
-0.17528261
0.22988544
0.10843286
0.04259294
-0.08141934
-0.00159995
0.07330258
0.16792330
-0.22897834
-0.06422330
0.15564585
-0.08936720
0.03821867
0.21051298
-0.00536361
0.13581648
0.10591032
0.12567355
0.23288789
-0.23073637
-0.23431666
-0.05599951
-0.07812428
-0.18416408
0.07327437
0.12022705
-0.28802001
-0.10498734
-0.02099309
0.07695653
-0.03566474
-0.36996242
0.09008344
-0.32047814
0.03959367
-0.01617988
0.05216491
-0.24924548
-0.12162610
0.31604129
0.02975197
0.21876834
0.04024953
0.01828148
-0.35814121
0.31750163
-0.08773392
0.29420283
-0.06368710
-0.03824448
0.09237448
-0.16935974
0.00581542
-0.05841827
0.02523670
0.08071917
0.17848884
-0.12390811
-0.01009357
0.16896375
-0.14315087
-0.07270393
-0.00565106
-0.12645234
0.15677708
0.26350990
-0.02599581
0.24839015
0.00129402
-0.26657575
0.01092788
0.35378772
-0.34108472
0.02011225
-0.22244671
0.07049438
-0.04616583
-0.05208980
0.04657841
-0.01220343
0.03451608
0.03515377
-0.07784021
-0.24715821
-0.10594508
0.22485821
-0.04795013
-0.06263240
0.29154027
0.10188005
-0.15721759
0.09991286
-0.04814804
0.08972020
-0.06011300
0.22515191
-0.13842650
-0.01758598
-0.00887041
0.28362238
0.02906886
0.13701326
-0.08988649
-0.04910897
-0.01250012
-0.23705935
0.07087921
0.02652868
0.03346919
-0.27700520
0.01985568
-0.04453520
-0.12148864
-0.23773518
0.12692523
-0.10831165
0.00565826
0.45206201
-0.17897032
0.08683189
0.05330543
-0.13828936
0.03980848
-0.08589415
0.29740590
-0.07770727
-0.15932055
0.20622279
-0.07226205
-0.00680573
0.20287578
-0.08178926
0.01760032
-0.01620604
-0.03243697
0.03418265
0.19129981
-0.19802861
-0.20452921
-0.11505770
0.09963166
0.05632072
0.16279356
0.07705040
-0.00861449
-0.05621128
-0.07379337
-0.15202878
-0.05178605
-0.02488394
0.04255564
0.03343185
0.15750112
0.03214195
0.00776757
-0.03842295
0.26952976
0.16124515
-0.18711376
0.07787371
0.18146516
0.10770100
-0.13411450
0.04353647
0.19986455
0.16987921
-0.16927849
-0.33170301
0.05910172
0.07539981
-0.16199026
0.03199889
-0.16441503
0.13787632
0.20458801
-0.03209277
-0.19903062
-0.18996914
-0.23939671
-0.24677917
-0.11785234
-0.01628455
-0.03834539
-0.18125156
0.05286831
0.11360402
-0.23977099
-0.23161022
-0.12680334
0.11804058
-0.01122071
0.03850378
-0.02023435
0.02556237
-0.05406467
-0.15084378
-0.13100158
0.10848749
0.04820534
0.03031980
-0.14504956
0.28695753
0.03192143
-0.03540689
-0.12956429
-0.12071686
-0.08827607
0.04258800
-0.08509814
-0.36684150
-0.27562082
0.11849319
-0.52129489
0.55144489
-0.27810436
0.01069814
0.01894839
0.02094204
0.12086899
-0.10035318
0.15914774
0.10801902
-0.00274782
0.20890637
-0.17679937
-0.00552463
0.51798826
0.23636630
0.19694835
-0.57490051
0.24660265
-0.25763750
0.08597264
0.15245493
-0.03071309
-0.13374446
0.14880601
-0.14719869
0.03362894
-0.05251483
0.40840036
0.12323268
-0.10025801
0.27652150
-0.36504683
0.12050205
0.19538786
0.39542329
-0.01553759
-0.11315098
-0.19400063
-0.01509555
-0.13011189
0.28933921
-0.07077374
0.14487660
-0.06973112
0.21174064
-0.40779448
-0.04304120
0.03417166
0.20346062
0.09125625
0.01847509
0.25910220
-0.15316774
-0.05180025
0.46667132
0.52044475
0.02220256
0.15259629
-0.04045186
0.16053103
0.00082906
0.00368609
-0.07084961
-0.01351657
-0.03655523
-0.11326294
-0.01994090
-0.19169113
-0.13758214
0.25065473
-0.04036689
0.20872240
0.41683477
0.03437997
0.13161685
0.23640531
0.22788028
0.26631594
-0.10760974
0.09146761
0.22750147
0.02344478
-0.18258527
0.10924844
0.11225781
-0.01069566
0.07784663
0.01658257
-0.11997239
0.45701700
0.04307643
-0.11961459
0.10481927
0.21122979
-0.03509672
0.16649430
0.09036265
-0.13113162
0.03458581
-0.31262574
-0.08129150
-0.02931942
-0.15951656
-0.04400856
-0.02251736
0.04064689
0.06324478
0.08420019
0.42734733
-0.06175717
0.26551390
0.16286877
0.06938249
-0.11737246
0.02025132
-0.20204315
-0.30033204
-0.16109109
-0.10622804
0.30949470
0.21044685
0.00265102
-0.07233444
-0.23353198
0.11965992
0.00720277
-0.16278878
0.07673170
0.04444024
-0.09423453
-0.09552742
0.30589443
0.17734000
0.12682602
-0.12127972
-0.01413277
-0.13157620
-0.28710610
0.06742831
-0.18291886
0.12009597
0.01532025
0.39474374
-0.02242667
-0.15421106
0.08298049
0.10828140
-0.01653512
0.00225870
-0.08625237
-0.01657213
-0.11984438
-0.06035989
0.31734157
-0.03675498
-0.16097723
-0.05981038
0.18885162
-0.02845697
-0.14313900
0.20147125
-0.02905363
-0.05674095
0.03578734
-0.09350765
-0.09230231
-0.09116956
0.23336163
-0.21829319
0.10773228
-0.32146698
0.07130797
0.09532627
0.01616879
0.10010868
-0.18191667
-0.02171974
0.28882119
0.01593003
0.10667935
0.19251302
-0.08112443
-0.05293890
0.08964479
-0.03995812
0.20779240
-0.06573589
-0.25920928
0.00708097
0.15768418
0.14252385
0.02976925
-0.07680218
-0.06126621
-0.18571036
0.24057417
0.08387416
-0.01423277
-0.10586267
0.02918782
0.11919277
-0.01964394
-0.16438100
0.03069639
0.03120506
-0.27671060
-0.03990066
0.21004280
-0.15346469
0.11783793
-0.08913043
-0.09903225
-0.04157547
-0.04670687
-0.07662065
-0.27339813
0.21834414
0.05089522
0.16227761
-0.03344202
-0.51001483
0.09706561
-0.05935163
-0.24631415
-0.18073107
0.02325512
-0.07434741
0.25508487
0.16570510
-0.16750817
0.12806761
0.25601864
-0.08572853
-0.21005711
0.08600823
0.05896783
0.03443811
-0.00799854
0.11011728
0.07699630
0.01417741
0.03771789
0.09098528
-0.13806802
-0.03774802
-0.13051967
-0.20336601
-0.26101118
-0.04695500
-0.04034301
-0.12274460
-0.00487294
-0.07118675
-0.09779888
0.11608262
-0.05278294
-0.03219268
0.14312756
-0.21412688
0.06419753
-0.09990627
0.08508454
0.27818578
-0.06986493
0.07264164
0.06008278
-0.07956171
-0.13087840
-0.16434942
-0.29452628
0.31837153
-0.04451695
-0.00364044
-0.00565394
0.23779225
-0.20752873
-0.22358204
0.13965076
-0.25179929
-0.07150416
-0.12950425
-0.30363628
-0.20535380
-0.16298005
-0.17455217
-0.06583763
0.11641634
0.19179499
-0.04329236
0.24675553
0.17157461
-0.04450506
-0.05725428
0.10115634
-0.04111373
-0.16735357
0.02431728
0.17138955
-0.07378684
0.04983193
-0.12248849
-0.01843249
0.15490639
-0.12985517
0.02649393
0.01717306
-0.20343821
0.15701434
0.33614206
-0.21177772
-0.16652469
0.21550086
-0.06519262
0.22392775
-0.09169836
-0.38172838
-0.11793713
-0.02295871
-0.03400717
0.12580469
-0.16481921
0.33426750
-0.09134804
0.17737371
0.03728912
-0.00656713
0.14157584
0.04613231
-0.15044484
-0.05480105
0.07131840
0.05180828
-0.07163216
0.02255123
-0.07633462
-0.03391631
-0.26459855
0.02038600
-0.02193273
0.56374127
-0.12676735
0.05217332
0.32531661
-0.23410153
-0.08372664
0.09497809
0.15742037
-0.01699164
-0.12121721
-0.02564925
-0.79773444
-0.09068178
-0.36019865
-0.02856437
-0.10815126
0.03372433
0.11304972
-0.27284339
0.22099563
-0.13396657
0.12602696
-0.18736260
0.08089258
0.17716597
0.08161261
-0.01249791
-0.04383580
-0.14668180
-0.07727007
-0.39176792
-0.08666465
-0.11670503
0.01519789
-0.23163974
0.02758061
0.11205237
0.21620572
-0.04983149
0.17272525
0.02393990
0.26565960
0.07386168
-0.24292935
-0.10177887
0.00736622
0.02733477
0.29458651
-0.16969468
0.05388474
-0.00067526
-0.03414044
0.35990462
-0.02460176
-0.39585799
-0.00906714
0.30691889
