0.10136893
0.02574044
0.11111640
0.02824638
-0.00039447
-0.18765390
-0.04857961
-0.00922458
0.13011809
0.07592858
0.15090112
-0.20910056
0.23380306
0.14655103
-0.36832702
-0.18052302
-0.04620313
-0.00768544
-0.00566358
-0.18407530
0.33008888
0.22725321
0.18638361
0.38671511
0.11983966
-0.13326158
-0.15255313
-0.09315646
-0.14371003
0.06027710
-0.12612796
0.18907055
0.16455095
0.20265728
-0.00983647
0.04024914
-0.06351300
-0.00431100
-0.32032967
-0.11031364
0.00836303
-0.00419525
0.03739625
0.22887984
0.18126413
-0.05080229
0.15685339
0.14450967
-0.03159123
-0.04026743
-0.29255524
0.01517880
0.06751004
0.00772164
-0.02034390
0.04984340
-0.04763696
0.40782046
-0.10110034
0.21830676
0.21499239
-0.10055931
-0.11905184
0.04692775
0.14340538
0.07067417
-0.01594891
-0.04164026
-0.05086959
0.07174232
0.11054016
-0.06499919
0.15501603
0.02402538
0.17063765
-0.07769485
-0.09353297
-0.08740667
0.09441046
-0.06075267
0.04815535
0.16099866
-0.08950122
-0.04767461
-0.07222632
-0.03200169
-0.08575653
0.25484809
0.11535370
-0.03602246
0.12786222
0.01198807
-0.04932963
0.24175359
-0.13462994
0.01775398
0.06268083
0.04071878
-0.13449675
-0.13346036
0.12148839
0.26822984
-0.06164258
0.21734710
0.02216169
-0.13683024
0.16016288
-0.19590700
0.11127263
-0.14325346
-0.15525542
0.00968083
-0.13395104
0.12009017
0.04640109
0.21598475
0.08435302
-0.01968467
-0.09138525
-0.09627340
0.10770179
-0.07179077
-0.12184378
0.05980004
-0.11623728
0.18946314
-0.06390036
-0.02176585
0.01537011
-0.13838761
-0.17281239
0.17625700
0.21353289
-0.12361280
0.33366236
0.14793481
-0.16908957
-0.14939299
0.23664255
0.15960456
0.23119047
0.24495618
0.07011824
0.10455907
-0.05463998
0.18809356
0.29926413
0.02294090
-0.30035007
0.00312400
-0.05047625
-0.03039245
0.07844217
0.08301736
-0.07115588
0.09287373
0.00234997
-0.23920821
-0.26421598
0.16212295
0.06088769
-0.10818865
0.27852684
0.15876845
0.00354539
-0.13587652
0.07908157
0.01792732
0.31650442
0.05362142
0.07943384
0.44727451
0.20366615
-0.07701066
-0.15166897
0.21254243
-0.20319022
0.03395835
0.00025035
0.08888941
-0.11506381
0.13131490
0.19692460
0.00896679
0.09824582
0.06243480
-0.04288334
-0.02049295
-0.08259045
0.21461064
0.08931719
-0.01008920
-0.15561056
0.01816547
0.09368683
-0.02306092
0.11696606
-0.02272179
0.06261116
0.39621156
-0.20315559
-0.03208354
0.00633817
-0.15948641
0.10118415
0.12989531
0.11753620
0.05010008
-0.00728256
0.06303756
-0.06986219
0.53296310
0.05793922
-0.03107798
0.02167777
0.32827130
0.29329756
0.04601484
-0.03196917
-0.10834414
-0.18073106
0.06656319
0.08163752
-0.07624638
0.07985046
0.04368330
0.04568858
-0.03127056
0.01378434
0.17262997
0.18894792
-0.26830149
0.07478700
0.02275395
0.11394989
0.10813624
0.12529740
0.09193955
-0.22349210
0.04860590
0.13732213
0.02956959
0.17760569
0.07076795
-0.11653404
0.18070009
0.03455576
0.12166787
-0.01234505
0.12331773
-0.20077853
0.05087699
-0.15320565
-0.31407791
-0.02175958
0.02143631
-0.20552905
0.06637116
-0.22212222
0.08728147
-0.01998157
-0.02447824
-0.09320771
-0.12815762
0.12542482
0.11272664
0.00370582
-0.12525567
0.09164009
0.02898754
-0.07480133
0.05743827
-0.00277623
-0.04584065
0.08521148
-0.17713884
0.09910924
0.11657126
-0.10740218
0.01167471
-0.13291393
0.10064781
-0.14320603
0.03263154
0.04431990
-0.36439556
-0.06584299
0.13381565
0.16945973
-0.11730785
-0.13521768
0.22543362
0.12657176
-0.33562547
-0.19734421
-0.10603693
0.00534313
-0.08629026
-0.05991941
0.02011008
-0.08068043
-0.13188042
0.26618224
0.03947966
0.21057093
-0.28622860
-0.19639148
-0.09381318
-0.29993573
-0.07473120
-0.03741112
0.19780472
0.02300501
-0.24094491
-0.10268382
-0.00814320
-0.15612160
0.13263971
-0.06424251
-0.05791187
0.11777686
0.21362664
-0.13325484
0.06538901
-0.04048600
-0.06160944
0.01730745
-0.20431715
-0.22893238
0.19588193
-0.21421453
0.10492755
0.24198233
0.33534503
0.03058075
0.13484924
0.09744184
-0.01164891
0.21255267
0.25225741
0.24273886
-0.09420077
-0.18093693
-0.31351882
-0.28387257
-0.06147995
0.07586849
0.11504057
0.11005548
-0.11684667
0.20980042
-0.02702120
-0.01162757
-0.19318041
-0.23687282
-0.04855073
0.05155801
0.14907359
0.01867286
0.20562054
-0.15539151
-0.07601358
-0.05816423
0.17029309
-0.20160601
0.13650146
0.12673979
0.29264271
0.02600064
-0.08858672
0.06270906
-0.03764505
-0.00030310
-0.08238097
0.16415554
-0.02592966
0.13654439
0.07397912
-0.00204850
0.15432228
-0.17575000
-0.02420490
0.08357120
-0.10821505
0.01206747
-0.02019186
0.13228434
-0.00042826
0.22502445
0.00876011
-0.39429393
-0.37091485
0.01912493
-0.17688455
0.43490437
-0.00417092
-0.20228779
-0.00606242
0.19018739
-0.01750193
0.23481996
0.22995141
0.24092728
0.01967622
0.12828788
-0.10339893
-0.34531912
0.14795691
0.02173343
-0.14358149
-0.02071801
0.14753778
0.11432292
-0.12379825
0.09985922
-0.10127742
0.02208966
0.14293024
-0.10332310
0.08975650
0.08018801
0.12644221
-0.08450733
-0.02025211
0.17195812
0.02614819
-0.22478019
-0.12296142
-0.44753194
0.10222971
-0.17372534
-0.07271668
-0.04233938
0.02961033
-0.27874780
-0.25399962
0.12341139
-0.00476880
0.08883413
-0.06351581
-0.10524774
-0.03713003
0.17145042
0.12502581
0.18127388
-0.13041230
-0.05377398
0.11463273
-0.03118126
0.13533786
0.04692089
0.00365702
0.00324998
-0.02790492
-0.08311755
-0.20638771
-0.10251286
0.23866905
0.21725354
-0.04711205
0.19192348
0.18789732
-0.31092963
-0.20139620
-0.02415465
0.15810177
0.17425355
-0.13757338
-0.00153924
-0.09900603
-0.00566828
0.11394052
0.05703455
0.04796835
-0.31661853
-0.05261470
-0.26448941
-0.09924522
0.06261615
-0.00750420
-0.00149526
0.21866733
0.26874107
0.14100944
0.27735204
0.15396535
-0.08401258
0.08537722
0.26933581
0.08928117
0.17065011
0.28782174
-0.15175362
0.07114717
0.27585205
-0.01650952
0.08608066
-0.07907361
0.08588340
-0.05796284
-0.10465001
-0.20006812
0.24369101
0.04215239
-0.14856222
0.04532290
0.06662203
-0.06451676
0.16188900
-0.00597418
0.06280004
-0.00898541
-0.01691119
-0.18423872
0.31456804
-0.25631481
-0.08455522
-0.08638480
-0.18442068
-0.20833126
0.15074487
-0.04769873
0.04635607
-0.06981791
-0.39382815
0.01820479
0.24766757
0.04160633
0.02515931
0.13152185
0.01495806
-0.13538834
0.06168706
-0.01907584
0.13123798
0.12256394
-0.00040251
-0.19111237
0.03493937
0.09201424
0.18102230
0.03044891
-0.01899965
0.18312258
0.32395914
0.07791399
-0.08641557
-0.04209427
-0.02890445
0.08544564
0.15233524
-0.24673636
0.21398272
-0.14113711
-0.23963575
0.03530433
-0.09555383
0.08072137
-0.05801312
-0.03161726
0.21018936
-0.15283664
0.31089485
-0.05312559
-0.14598863
-0.12724733
-0.16999185
-0.11618873
-0.08170450
0.06954007
-0.03974101
0.08531506
-0.02309214
-0.01806901
-0.03387597
-0.03419600
-0.09976691
-0.05092966
0.09435540
-0.13114955
0.06198135
0.05127819
0.11809324
0.01886522
-0.11819014
0.02542446
0.04910981
0.02685452
-0.00159437
-0.43719220
-0.19041932
0.23305522
0.11289503
0.15888573
-0.27760914
-0.07986112
-0.07302189
0.04475479
0.28644907
-0.11916827
-0.02196147
-0.30568957
-0.16445290
-0.04658454
-0.01765720
-0.04488339
0.18248761
0.02545932
0.13062109
-0.13246532
-0.21268241
-0.24575584
-0.23776694
-0.09049321
0.16633205
0.03945626
0.01354763
0.01249381
0.04260848
-0.11449829
0.04942802
0.00163382
0.09381825
0.35928082
-0.07172915
-0.06172155
0.03816216
-0.00300818
-0.13605040
-0.02306376
0.00619029
0.20391618
-0.18642595
-0.23880194
-0.03386170
-0.28473502
-0.13651706
-0.07207045
-0.08862267
-0.13443457
-0.14309104
0.03102443
-0.11164477
0.00068654
-0.05011818
0.14681470
0.10727515
-0.26903197
-0.04537359
-0.11806035
-0.10200964
-0.13014077
0.04241390
-0.06243493
-0.08897933
0.27073577
0.02397979
-0.24852841
0.11188037
0.17251231
-0.11511311
0.07294544
-0.09000292
-0.07634646
-0.49774319
-0.18352616
0.04342140
-0.05765330
0.10213145
0.13179632
-0.02740492
0.05945826
0.14961179
0.10143562
0.17772989
-0.00996390
0.20457247
0.07373674
0.07985018
-0.10919153
-0.04341543
0.10363445
-0.09600586
0.05092403
0.12689169
-0.08908566
-0.06160570
-0.01465654
0.13186657
-0.46569213
0.10766989
0.02057845
-0.21867615
-0.16097003
-0.00758357
0.20593113
-0.08469293
0.03144226
0.37026852
0.01460325
0.32154921
-0.27973011
0.03219875
0.02991564
0.18667808
-0.10766363
0.09534117
0.34443191
-0.18531612
0.06767667
-0.08406448
0.22782695
-0.02540029
-0.08684086
0.01512584
-0.06206872
-0.08595586
-0.16360092
-0.03638125
-0.06235837
-0.14553398
-0.28491497
-0.24628623
0.07304136
0.00473809
-0.12288409
-0.05615326
0.27990410
-0.10819579
0.08722910
-0.26906279
-0.33795610
0.11771293
-0.27888671
0.04604923
0.05299549
0.21963385
0.02593112
-0.10060036
-0.07214755
-0.07954237
0.27911848
0.28902471
-0.00661644
0.08195480
-0.15681481
-0.12410753
-0.04196458
0.06502847
-0.04705890
0.37712479
0.06957398
0.14032832
0.06331641
0.16505633
-0.04119628
-0.00085609
-0.11844628
0.00586807
0.06011917
-0.16128349
0.03562015
-0.14051278
-0.35390252
0.07173981
0.02028634
-0.10550580
0.03963282
-0.19532974
0.07113078
0.31230122
0.11793827
0.03213445
-0.07808471
0.24410881
-0.08740907
0.11228860
0.28557700
0.05482522
0.10522560
0.08645221
-0.15016285
-0.10450984
-0.19075127
-0.17744905
-0.10446450
-0.18467551
0.16392459
0.22338885
0.10728665
-0.03058300
-0.22353315
-0.25895175
0.13256200
-0.34537885
0.17346151
0.14695220
0.09275246
-0.17311066
0.05020406
0.02084220
0.21882717
-0.00432856
0.18566257
0.18011947
-0.09581245
0.10895299
-0.12486298
-0.04458138
0.04790446
-0.49935067
0.04496272
-0.11459587
-0.24610037
-0.34021354
-0.01293923
-0.01621972
0.08072672
-0.04196163
0.24185848
-0.16060592
0.08964477
0.14741863
0.02924077
-0.03355029
0.05780384
0.14705335
0.00423011
0.11344962
0.00699413
0.19108699
0.39806348
0.34081966
0.01479096
-0.08938103
-0.09121758
0.11302777
-0.18921372
-0.18271461
-0.01407043
0.17029223
0.07431445
-0.16802676
-0.04596995
0.21817377
-0.02743306
0.16861825
0.13938352
-0.14351453
0.12078693
0.29556927
-0.00145602
-0.02532318
0.07366651
0.04739203
0.05558855
-0.31193194
0.32102236
0.09976456
0.16097155
0.07288042
0.14207296
0.28110653
-0.01335571
-0.12191044
0.19826679
-0.16148411
-0.08948212
-0.04493946
0.07717321
0.12683406
0.16150957
0.03702657
-0.35669398
-0.20320340
0.06943981
-0.05460282
0.14360625
-0.18133798
-0.16681811
0.06717537
-0.16599105
0.05562269
-0.11541958
0.04390898
-0.00126942
0.10117207
-0.32986805
-0.08492661
0.02965201
0.22306934
-0.21650843
0.11428133
-0.06232939
0.02184568
-0.15720785
-0.07307127
0.13862677
0.28196102
0.03972332
0.01268117
0.14480631
0.25577733
-0.23025005
0.08377858
0.03939993
-0.02088581
0.03625695
-0.22024868
-0.22180541
-0.18967837
0.07457633
0.11319775
-0.01902626
-0.13082843
-0.01265061
0.15969370
-0.20790347
0.06945167
-0.14755440
0.01171010
-0.00402782
0.16427688
0.16683067
0.01117693
-0.10508119
0.02618519
-0.08663527
-0.01588721
-0.23080310
-0.24914472
-0.05317990
0.32961157
0.07747653
0.12145651
0.03046539
0.11503706
0.07982858
0.10125142
-0.21794157
0.08838888
0.00437553
0.04229252
0.17982171
-0.04557251
0.10720815
-0.06825731
-0.08425691
-0.01920103
0.05941721
-0.07275946
-0.15404378
-0.17172448
0.24867611
0.02101024
0.05524542
0.47088972
0.10541050
0.24305734
-0.04547366
-0.05627402
-0.20774783
0.11295343
-0.09284729
0.05690625
-0.09859891
-0.02157933
0.00333447
0.03004169
-0.05135177
0.19289766
0.07816309
-0.25432020
-0.01543642
-0.23419209
-0.17724743
0.02309847
-0.37530002
-0.18527837
-0.15493692
0.03985560
-0.22078246
0.01506284
0.06233941
-0.01366586
-0.02684836
0.11309532
0.18652010
0.21821272
-0.10988849
0.14027768
-0.15603660
0.33398804
-0.11816964
-0.07762235
0.01436072
0.17963228
0.12226675
0.23537765
0.15898763
0.09946225
-0.23407345
0.27586111
0.18720657
0.07298736
-0.04131636
0.01636209
-0.02062815
-0.00140696
0.12758338
0.03890739
0.07769398
0.19013120
-0.02150793
0.08234751
0.09482004
-0.24591187
-0.06960150
0.06195153
-0.07444999
-0.10546622
-0.06338713
0.03604202
-0.12474797
-0.32012415
-0.04548911
0.08354665
-0.13124764
-0.05564141
0.14537470
-0.22498114
0.37066969
0.21227185
-0.03351551
0.11292727
-0.11697215
0.10618410
-0.34847805
0.05717196
0.27817222
-0.23195475
-0.09377529
-0.04311357
0.14813112
-0.06860920
0.17018345
0.16430539
0.26801538
0.05296075
0.02037961
0.08796069
0.03837371
-0.40472260
-0.17613886
0.01411879
0.06575048
-0.01148010
0.11694735
0.01886053
-0.01033289
-0.08639134
-0.02139035
-0.13173021
0.03839436
0.31001708
-0.16006109
0.18970905
-0.04779445
0.09919120
-0.16582629
0.04519653
-0.10441231
-0.13380703
0.14538862
0.18143073
0.20940959
0.01049190
0.07959689
0.00970873
0.12349802
0.07342384
0.01594995
0.14150319
0.00836689
0.09604673
0.09977238
0.28382707
-0.02837987
-0.19083442
-0.14760295
0.33486140
-0.30978101
0.22855735
0.00493446
0.18008244
0.02735383
-0.02577375
0.04568242
0.07563130
-0.00240969
-0.09803014
-0.43331715
0.22823098
0.09010502
-0.14228292
-0.04039102
0.05515677
-0.00938858
-0.00344296
-0.10544012
-0.00334719
0.11909581
0.13312514
0.01506505
-0.16802330
0.07194451
0.21252708
-0.27455661
0.21196960
-0.34729210
-0.44724619
0.02049679
0.27729005
0.06370733
-0.01080512
-0.07683150
0.05918999
0.01108131
-0.17074555
-0.05579768
0.00112171
0.16112427
0.12891136
0.18396609
-0.09116407
-0.22914222
0.15617606
0.08410649
-0.09053972
-0.04974776
0.04805627
0.17616725
0.19831990
0.12552837
-0.13774803
-0.02623839
-0.02329337
-0.04476254
-0.00750634
-0.00005171
-0.11435325
0.27087706
0.33174619
0.04972240
-0.17704169
0.06733855
-0.07600722
0.04921352
-0.15175477
0.12247498
-0.05196481
-0.06817330
0.18913306
-0.15363653
-0.15919016
-0.18158898
-0.24170281
-0.05996681
0.13849203
0.11594792
0.15654780
0.21438347
0.09484030
0.12473849
-0.12015285
0.20057425
0.10329547
-0.02148623
-0.10377661
0.00531062
0.22187445
-0.06309482
0.04341408
0.09483586
-0.00087105
0.07706705
-0.10418088
0.03981190
0.05854624
0.01508276
-0.32080948
-0.23421781
0.13963838
0.03037651
0.14141643
-0.25084227
0.20937078
-0.13459915
0.12442584
-0.04441417
-0.05282865
0.13023938
0.07665259
-0.06407809
-0.04066298
-0.06046565
-0.01707978
-0.01260423
0.09881014
0.10550002
0.05459416
0.22671086
0.07103398
-0.20134342
-0.07886750
0.03630248
-0.12291700
0.07256062
0.01317665
-0.02019431
-0.14686285
0.07924088
-0.16299348
0.28664804
-0.10895731
0.29823250
0.15846138
0.00237983
0.03003884
0.06224742
0.09753578
-0.03290352
0.16403624
0.05666227
0.13729528
0.08316807
0.03055629
0.12527314
-0.17048387
0.18056601
-0.18559352
-0.11869445
-0.10502332
0.04866824
0.06410754
0.08166470
-0.11137539
-0.00285909
-0.23465203
-0.12101366
0.25277379
-0.13846479
-0.05299159
0.04583468
0.12364298
-0.10060016
-0.05346312
0.14321214
0.03571454
0.16635427
0.09382833
-0.05780301
0.19870514
0.13822645
-0.14025608
0.14126460
-0.15459928
0.02692150
-0.09923837
-0.08979321
-0.12260830
0.19907658
0.00966515
-0.07102768
0.04864423
0.12015985
-0.12257110
-0.26687017
-0.18319809
0.16673350
-0.19263308
0.09774798
-0.00716576
0.10579401
-0.14699647
-0.17479107
0.11230569
0.31519279
-0.26299047
-0.12398288
-0.04102297
-0.10071139
-0.09752114
0.28757459
-0.08894472
-0.07951036
-0.02825557
0.10435012
0.00900609
-0.02384030
-0.08916713
0.21936457
0.02823335
-0.17019762
-0.01065702
0.14955316
0.08841386
0.02131770
-0.02786050
-0.06438869
0.17997020
-0.06437829
-0.03499933
-0.19549985
0.01255707
-0.14296474
-0.23294400
0.07534139
0.17723897
-0.00454551
-0.22147888
0.14949317
-0.07507037
0.16460228
0.03070041
0.18596649
0.21900843
-0.19162275
0.39329568
-0.19313239
0.20914055
-0.09386880
0.07215393
0.00496157
0.20406169
-0.01810968
0.12160908
-0.00058474
0.08962214
-0.10933717
0.04154389
-0.29393151
-0.29560420
0.08985098
0.07230213
0.20314483
0.05083684
0.05305347
-0.06653239
0.13435173
0.13029338
0.06520475
0.25511843
0.01990424
0.28789738
0.07107088
0.06820659
0.00645669
0.16121733
0.05955140
0.26974154
-0.01787703
-0.23097576
0.19963422
0.11651571
0.15899104
-0.15559225
-0.07712472
-0.34833899
0.21636193
-0.10676177
-0.17338932
-0.00115552
0.00326112
0.03275026
-0.15379560
-0.31458354
0.08005267
0.20609663
-0.29600519
-0.15248111
-0.02471924
-0.26424360
-0.00791493
-0.00906993
-0.08732291
-0.09034354
0.00083655
0.10605151
0.22292471
0.06392842
-0.07623053
0.07296614
0.09926774
0.16619124
0.18237105
-0.10259597
0.18655053
0.15512680
0.06546647
-0.02261394
-0.29448262
0.11057426
-0.08914927
0.03378699
0.25096345
0.12525438
0.14236556
-0.13771030
-0.13696644
-0.02532018
-0.11811963
0.09535237
-0.15393719
-0.09209041
0.27332154
-0.23098806
0.40869653
-0.11669892
0.16550125
0.05578054
-0.20807384
-0.14470874
-0.14445712
0.13124898
0.08596078
0.07977886
-0.07100144
0.31935048
0.20078525
0.01219271
0.08683530
-0.12583873
0.14851940
-0.03284532
0.10747029
0.21616603
-0.06659912
-0.04156923
-0.04199055
0.05979157
0.07422572
0.02456795
0.21177316
0.17181689
0.01929046
-0.00235252
-0.15356441
0.00770429
0.15494572
-0.11113501
0.27310839
0.06544951
0.31816167
-0.03618281
-0.32619691
-0.07116441
0.26724809
0.31933558
-0.05731877
0.32759494
-0.20943281
-0.13315004
0.10990602
-0.12752683
0.18393540
-0.04720212
-0.03811910
0.15294594
0.11989239
-0.24952175
0.11905388
-0.00430619
0.01893437
-0.16607070
0.04313992
0.34921002
-0.21168175
0.08392942
0.21595579
0.08737816
0.01523096
0.03944543
-0.13025559
-0.00461102
0.03746531
-0.08762927
-0.01121611
0.07613678
0.09884971
0.02126311
-0.06545436
0.04002916
0.06562854
-0.02719286
0.11679021
-0.12379182
-0.13289867
-0.01398141
-0.00637834
-0.06308388
0.06631934
0.23599282
0.26759499
0.14071929
-0.04974083
0.01573237
0.18223669
0.02162563
-0.03535899
0.09795716
0.21374814
0.15354462
0.05954851
0.16326116
-0.03167289
0.15580343
-0.01735413
0.12972441
0.14985947
-0.01088769
0.11652672
0.05739782
-0.07307625
-0.01876600
0.18065664
0.25408253
-0.00183917
-0.03302671
-0.17282945
-0.08688097
-0.17112719
0.19467303
-0.09544221
-0.09806740
0.18407549
0.05941839
-0.18299447
0.01958198
0.01854149
-0.41291288
-0.16984636
-0.01682998
-0.08200810
-0.00062620
-0.07289249
0.15976772
-0.00550611
-0.16854113
0.04156435
-0.21189786
-0.01794918
0.02977154
-0.00816128
-0.12902062
0.11377101
-0.03493495
0.09050337
0.06423678
0.00867239
0.00396360
-0.28641346
-0.00364317
0.29140607
0.00934175
-0.12313287
0.05152120
0.04431130
-0.02830009
0.04232641
-0.26091164
-0.06085234
-0.07816259
-0.03363428
0.21310484
-0.00920072
-0.20367803
-0.13753600
-0.12361732
0.05357321
0.06962841
-0.05090363
0.07854572
0.07618064
-0.00691347
-0.10196259
-0.16294605
-0.18410580
-0.00323004
0.09658615
-0.04621062
0.19991846
0.11926797
-0.35885477
-0.02832813
-0.16490017
0.08658131
-0.01387018
-0.32086802
0.01887210
-0.16166739
-0.12338928
0.06240728
-0.33842647
0.18555121
0.05474979
-0.12465622
0.18200471
0.04031450
-0.17607330
0.02702607
0.14367990
-0.08984514
-0.02910786
-0.16554739
0.01430242
0.08265562
-0.02165796
-0.27782470
0.10157474
0.02782744
-0.11960325
-0.10871542
0.15423559
-0.07360341
-0.12239480
-0.21944138
-0.24058913
0.16312772
0.03462281
0.15126614
-0.00241927
-0.00987107
-0.10022079
0.07517988
0.23435487
-0.08469373
-0.07730450
0.06048675
0.00322717
-0.00664141
0.04616068
-0.14014389
0.08981154
-0.07158066
-0.06249316
0.02825417
0.04784356
-0.07324183
0.01451625
0.25008467
-0.43440387
0.01962143
-0.03825288
-0.02596685
0.24078180
0.02444489
-0.09610631
0.04444053
0.12010856
-0.31552926
0.06197854
0.01643003
-0.02457971
-0.31533995
0.39067137
0.00988360
0.17673916
-0.32781032
-0.13660632
-0.08577928
-0.15548949
0.09476825
-0.20506068
-0.23880889
-0.10355767
0.00532499
0.03551406
0.18117051
0.13512367
0.11506172
0.05053607
0.21244128
-0.06012767
0.22428496
-0.07574095
-0.11818095
-0.01644143
-0.08996820
0.08618638
0.01616336
0.09495619
0.10672347
-0.00117664
-0.15248142
0.04657400
0.33746853
-0.13782308
-0.34050754
0.04881098
0.36405545
0.06713263
-0.02880518
0.10266101
0.06868449
0.15414383
0.14337106
0.21709672
0.20215252
0.17954096
-0.12562376
0.11900106
0.25453046
-0.12799485
0.10161062
-0.15835468
-0.09657112
0.06884889
0.02505460
-0.10762614
0.09801882
0.16425899
-0.07611144
0.38455033
0.00387355
0.09533895
0.15950845
0.09257895
0.03827619
-0.17608729
0.04351166
-0.02607508
0.13779958
-0.01735932
0.16530590
0.17827158
0.00949385
0.13242726
0.37953094
0.06550948
-0.04909014
-0.18731514
-0.07932449
0.06619472
0.14061300
0.04361264
0.03139691
0.19196437
0.15039261
-0.10593669
-0.03965826
-0.07341715
0.11706540
0.03825894
0.19775012
0.02351279
0.30816272
-0.04876793
0.01536909
-0.04631497
0.13099742
-0.18944879
0.01760311
-0.07700408
0.02515929
0.11280630
-0.09594750
-0.22362201
0.01608895
-0.03695419
0.14196469
0.28982073
0.05607681
0.09304433
0.22544976
0.00924997
0.11852093
-0.04591342
-0.04465592
-0.09160359
-0.04756242
0.19683117
-0.16838938
0.07766210
-0.04176059
0.17410928
0.11208022
0.20935591
-0.18775783
-0.19513583
-0.02832308
0.05003063
0.09007355
-0.28166550
0.05196027
0.12452378
0.07071898
0.30345038
-0.01293817
0.09131304
-0.06078230
0.02408087
-0.05383983
-0.24766688
-0.04245383
0.12698662
0.07499767
-0.02814068
0.10015400
-0.01245786
0.19482780
0.11751982
-0.16247296
-0.02683556
-0.22168934
0.06008887
0.16697690
0.18560755
-0.06308573
-0.22977127
-0.04115767
0.18627040
0.00554991
0.06676955
0.21765265
0.20890404
0.25944898
0.06895727
0.15157780
0.18920274
-0.04591443
-0.12491211
0.14751931
-0.32628161
-0.20720002
-0.30233940
-0.15841195
0.03983441
0.02747037
-0.36408484
0.07694815
-0.12072355
-0.10537181
0.20076473
-0.00632806
0.09286728
-0.01655664
0.21939412
0.11072756
-0.10937674
-0.20772275
-0.21694008
-0.11871108
-0.22241712
0.07727013
-0.10716951
-0.14187284
0.08425362
0.10960552
0.13500871
0.08467758
0.03848831
0.05715497
-0.07666060
-0.09853243
0.19197649
-0.10730020
0.04477968
0.09364584
0.15221396
0.09631588
0.28311530
-0.32341820
0.15642364
-0.35028431
-0.17725737
0.01974307
-0.15888576
-0.07663652
0.10348983
-0.00657482
0.15229303
0.24828841
-0.06951880
0.14074558
-0.01747841
0.10811596
0.03739007
0.04470828
-0.11895394
0.17482321
-0.14705859
-0.28597072
0.09931291
0.03191290
-0.20171143
0.18093292
-0.22361274
-0.05850015
-0.13872886
0.18894103
0.06158899
0.28347835
0.04690199
-0.06713621
0.11545645
0.05430347
-0.01144292
-0.05323799
0.06445899
-0.00010766
-0.04604275
0.32595125
0.10942215
-0.01403745
0.25331831
-0.08193012
-0.12578385
-0.14999866
0.05121341
0.06130603
-0.21774924
0.42830801
0.04323865
0.02986652
-0.01169153
0.05559995
-0.33524472
-0.04411530
0.04623852
-0.18151733
-0.01627900
-0.00926935
0.05681932
-0.30511674
-0.20672631
-0.02894307
0.13308221
-0.02150919
-0.18983856
-0.27870336
0.01820403
0.09578458
-0.18289657
-0.14062953
-0.18626444
-0.16697550
0.01887724
0.17225271
-0.04265865
-0.02787096
-0.17857590
0.02736254
-0.18029228
0.01148974
-0.15248409
0.18317975
-0.09940750
-0.06425899
0.00447198
0.00988971
-0.22876507
0.36657870
0.06272503
-0.07358915
0.03551259
-0.05788298
-0.10371122
0.05984294
-0.06805368
0.37567070
0.28039461
-0.10032247
0.29364669
-0.08424133
0.14249091
0.04293065
0.28914133
0.09999963
0.25512677
-0.22732626
0.00116098
0.06443349
0.05557457
-0.21872704
0.11761369
0.20015894
-0.00764398
-0.28909492
0.01566863
0.02847232
0.04087400
-0.01264877
-0.04190336
0.16150767
0.01154526
-0.04530229
0.40178308
0.06577333
-0.02751939
-0.24091630
-0.07701483
-0.32993749
-0.02897827
-0.10797083
-0.05038844
-0.13361031
0.00992350
-0.04248083
-0.13756517
-0.03313107
-0.08342135
0.00114364
-0.00442836
-0.11580052
-0.00020230
0.24809681
0.03822003
-0.21490785
0.29720455
0.13812321
-0.02621671
-0.17037915
-0.16893342
0.00954055
0.09583149
0.03888502
-0.05337804
0.16684332
-0.15551774
0.07724886
-0.02319065
0.00988957
-0.06184124
0.05054630
-0.32416421
0.36802107
-0.08572325
0.05904774
0.04499505
-0.01137855
-0.11221109
0.04377614
0.26355135
-0.17683142
-0.21423832
-0.14009269
-0.09462602
