0.09222377
0.01987956
0.06520906
0.06963465
-0.02112191
-0.12466391
-0.19664466
0.06673619
0.15917018
0.04329364
0.19521944
-0.18539444
0.23210952
0.12276679
-0.41176251
-0.11140029
-0.00741197
-0.03920906
0.05586844
-0.25660291
0.40946347
0.27508578
0.20797490
0.19484602
0.09426236
-0.07190439
-0.20085223
-0.20587692
-0.05971684
0.01617348
-0.13156635
0.15489487
0.10727523
0.16480882
0.00128907
0.04654499
0.01362916
0.01220546
-0.59218067
-0.08011309
0.00359655
-0.02981821
-0.01964589
0.19314614
0.15903203
-0.00512541
0.23048320
0.11202013
0.01588395
0.00228248
-0.30316946
0.06875458
0.03620683
0.02737505
0.03853916
0.09740817
-0.03706903
0.53284472
-0.14870575
0.15970868
0.23234449
-0.00049010
-0.11752240
0.02433171
0.10826910
0.07497999
0.04362378
0.02445523
-0.08145993
0.04285692
0.09425145
-0.05111616
0.16760835
0.11348787
0.26982757
-0.18141153
-0.24609333
-0.09909710
0.05768533
-0.05767346
-0.05380421
0.20586967
-0.06493056
0.05214521
-0.06009541
0.02545256
-0.02109634
0.30373460
0.11179083
0.02653094
0.05963104
0.07900234
-0.06598724
0.22656208
-0.13669226
0.08470168
0.01934990
-0.03144696
-0.09845083
-0.20342036
0.17149730
0.40222943
-0.06103490
0.27804393
0.05937935
-0.05748836
0.16045144
-0.20352820
0.16995454
-0.28831530
-0.25029632
0.06986320
-0.28782287
0.12291184
0.06817401
0.26973572
0.01744385
0.09868513
-0.06503028
-0.02250379
0.05188900
-0.00846065
-0.27369991
0.09818526
-0.27281278
0.29437992
-0.03017761
-0.04606665
0.03992358
-0.32506683
-0.20015980
0.10875054
0.21258788
-0.21426214
0.20711403
0.08723110
-0.27911198
-0.13682719
0.16210848
0.12111095
0.40875193
0.32071581
0.03415793
0.08761083
-0.00923081
0.11571525
0.37996143
0.04270774
-0.29922476
-0.04402580
0.01317190
-0.03598222
0.09129703
0.21957089
-0.10701124
0.07898649
-0.02751729
-0.10761993
-0.37295511
0.08352818
0.01674204
-0.06473640
0.14547792
0.20589636
-0.10268137
-0.23559465
0.04943894
0.04714497
0.33609375
0.29175112
0.11144257
0.49032235
0.16939820
-0.05348019
-0.09338023
0.27639750
-0.39245725
0.02891718
0.04612027
0.08631846
-0.12454071
0.23830795
0.11459757
0.01300188
-0.01977850
-0.02171013
-0.01836365
-0.01014399
-0.10978597
0.33714622
0.12152328
0.01088953
-0.08291193
-0.01487996
-0.01951541
0.06905627
0.11679880
-0.07473993
0.08447715
0.44735092
-0.23757771
-0.07247420
-0.04113969
-0.22980560
0.00896758
0.07412539
0.13044339
0.13460656
-0.10787530
0.03738632
-0.06000864
0.74540561
0.24634050
0.02607095
-0.09418855
0.30262223
0.29656744
0.04744524
-0.03131245
-0.18317404
-0.29255769
0.04039426
0.02270614
-0.25684497
0.08760632
0.09042214
0.05669816
0.08456642
0.04201101
0.12263843
0.23705874
-0.43780637
0.11856713
-0.00724311
0.09741800
0.17517224
0.06933616
0.05568352
-0.23369032
0.04110304
0.12664951
0.07234104
0.29314357
-0.00214938
-0.09939428
0.14216417
0.14775197
0.13320906
-0.06964383
0.29616070
-0.15492588
-0.01352846
-0.08331957
-0.37281752
0.05278245
-0.04371090
-0.22026452
0.08763426
-0.12898737
0.09668715
-0.09495720
-0.04938586
-0.16961114
-0.01798924
0.11177417
0.03028293
-0.04799736
-0.06396843
0.03889956
0.11726217
0.03537035
0.05640846
-0.02031874
-0.05561911
0.13322526
-0.22104672
0.19735263
0.11469701
-0.05088273
-0.06841308
-0.24598972
0.21246918
-0.22736067
0.04913905
0.12254052
-0.51161999
-0.10937981
0.07919708
0.09982337
-0.25817850
-0.15087144
0.17532432
0.10207007
-0.43460289
-0.37862843
0.04655084
0.07375749
-0.11628280
-0.12142879
0.10777102
0.06126650
-0.00257427
0.30876088
0.12392134
0.20186923
-0.24623848
-0.23254365
-0.11137117
-0.17022572
-0.04301617
-0.11917353
0.21814577
0.00787282
-0.44696236
-0.11968516
0.00971126
-0.19884674
0.06769236
-0.00216804
-0.00054338
0.15465279
0.26173541
-0.13753924
0.09548099
-0.04587309
-0.07346399
0.10120478
-0.04077630
-0.12438098
0.23519255
-0.48307437
0.12353639
0.25690797
0.50355124
0.00005218
0.02612409
0.13955145
0.05064481
0.27036291
0.19409646
0.25217277
-0.11775927
-0.19153844
-0.19353902
-0.25261056
-0.09802551
0.09839231
0.04611928
0.07509596
-0.07467235
0.25373188
-0.08332110
-0.01530250
-0.22794215
-0.28087389
0.04369619
-0.04587661
0.27496156
0.04678141
0.19759884
-0.06967053
-0.06485262
-0.02849394
0.21923523
-0.32127333
0.09999906
0.21268001
0.13460381
0.07099460
-0.08594950
0.09092572
-0.08583472
-0.03397435
-0.11890908
0.09249620
0.06686451
0.11277181
-0.04280738
0.10477150
0.12865242
-0.09980573
0.06836730
0.06082813
-0.04672064
0.08972118
-0.05315939
0.12050518
-0.08008192
0.25357643
0.08930800
-0.29221115
-0.27903694
-0.00240276
-0.29952824
0.50897717
0.12403787
-0.26529321
-0.00464854
0.16789445
0.01979558
0.23731054
0.19350623
0.32177550
0.08721016
0.23349258
-0.12823337
-0.40023237
0.07958984
0.03299014
-0.05855649
-0.00339771
0.21309231
0.09514967
-0.13089776
0.11851142
-0.08375357
0.08447981
0.23193409
-0.09623788
0.08356505
0.15090206
0.10364010
-0.09097458
-0.03762310
0.15582852
0.10536285
-0.17921792
-0.09290197
-0.67039597
0.12802744
-0.28157064
-0.22433823
-0.01961432
0.05528313
-0.37710539
-0.21316695
0.07417976
0.10121065
0.05609775
-0.04192357
-0.21257667
0.02829319
0.18459456
0.04890650
0.14692001
-0.08552282
-0.02336660
0.20346732
-0.10997991
0.13473353
0.06378249
0.05541741
-0.02032114
-0.04798684
0.00559015
-0.12890226
-0.07408539
0.27910262
0.21544479
-0.26069736
0.24621996
0.33660614
-0.44695175
-0.18156663
0.00461131
0.15021412
0.09398271
-0.06943440
0.05878180
-0.08462776
0.01093992
0.11754061
-0.07541938
0.07390416
-0.41264513
-0.09735515
-0.38782740
-0.22230579
0.11287184
-0.04742805
-0.00113758
0.25616497
0.32839614
-0.00216671
0.45982790
0.17021132
-0.04184282
0.17499933
0.38425395
0.07983448
0.14021215
0.37427115
-0.17807463
0.15418440
0.35441059
-0.07542080
0.01160268
-0.02270792
0.07241893
0.00797545
-0.09637351
-0.06373549
0.31834611
0.03969909
-0.17353462
0.11624177
0.07875028
-0.26332843
0.21917075
0.07487533
0.10873232
-0.02530860
-0.01191115
-0.23354897
0.37411705
-0.08750682
-0.16295542
-0.04083817
-0.14077356
-0.31311113
0.14618006
-0.01248530
0.10510818
-0.03217509
-0.27280971
0.00123583
0.31740016
0.00646631
0.03697472
0.07638554
0.01990131
-0.18648732
0.02739981
-0.00261561
0.13407113
0.05109535
-0.01680197
-0.11587472
-0.06004398
0.12652931
0.25144166
0.08595036
-0.02108060
0.11385931
0.46069568
0.04496153
-0.08787825
-0.05877692
0.05463536
-0.01731356
0.20500079
-0.14433154
0.17035273
-0.37015879
-0.09487349
0.01582683
-0.13464184
0.02775044
0.06525286
-0.06028984
0.26360562
-0.13926424
0.28215182
-0.01470838
-0.09658877
-0.05040007
-0.16862519
-0.11339375
-0.08456921
0.13198194
-0.01247404
0.12992933
0.08903731
-0.00929151
-0.09568141
-0.01109760
-0.12627779
-0.03214626
0.10674413
-0.06481718
0.03899954
0.11067946
0.16388552
-0.00674193
-0.12464549
0.08182824
0.08504903
0.02070072
-0.08419275
-0.29634377
-0.07440731
0.22853805
0.07460023
0.15716419
-0.13009982
-0.04651643
-0.07894950
0.03075756
0.29938218
-0.12901582
0.03689935
-0.21678863
-0.05553022
-0.01810966
0.01394951
-0.08039714
0.11757149
0.07496095
0.12524562
-0.26676393
-0.30819985
-0.16256566
-0.17175475
-0.18500906
0.14432551
0.04499351
-0.00713585
0.00723217
0.09577026
-0.05247845
0.08273672
-0.00394502
0.16619255
0.25835726
-0.15485020
-0.10849818
0.10675424
-0.00372390
-0.01872987
0.07078278
0.09280466
0.21619807
-0.17511371
-0.13347551
0.05485617
-0.23861785
-0.02743055
0.01414609
-0.03330475
-0.10656191
-0.08028295
0.01279715
-0.24519797
-0.01100454
-0.11602446
0.12680466
0.03752135
-0.09931827
0.01332786
-0.11768404
-0.12241650
-0.04439597
0.02009628
-0.21966687
-0.00494907
0.18026817
0.05146169
-0.34843978
0.15166122
0.10011498
-0.17445171
0.09653468
-0.02170955
-0.09577674
-0.36210784
-0.25451201
0.18677102
-0.09189863
0.18106660
0.06607746
0.09556251
0.12069868
0.25093994
-0.04885273
0.12330335
0.08222567
0.15794696
0.06115157
0.14357874
-0.19570084
0.04091255
0.12990613
-0.13969909
0.08328769
0.10337122
-0.05263916
0.04202302
-0.01233363
0.10126832
-0.36360380
0.02408973
-0.01159528
-0.16090322
-0.15646514
-0.14294021
0.15632384
-0.11853775
0.02647138
0.41800421
0.02869445
0.17738704
-0.15645570
0.01594807
0.00807427
0.31926411
-0.19190075
0.12185371
0.21204953
-0.23318075
0.10452081
-0.01859415
0.42104959
-0.00776973
-0.02318386
0.04447633
-0.23936662
-0.10016404
-0.20641857
-0.03145042
-0.05691761
-0.09972229
-0.37020686
-0.24604192
0.01252966
-0.01160148
-0.00198241
-0.06063196
0.45182171
-0.09411113
0.14288785
-0.22346045
-0.31693593
0.23657915
-0.19995871
0.17685582
0.01266742
0.25271735
-0.05349140
-0.03852358
-0.12196072
-0.08818813
0.25623995
0.38379729
-0.01570395
0.09284601
-0.15484731
-0.04031718
-0.21624207
0.02234710
-0.01350630
0.53505868
0.16476469
0.09830790
0.08525768
0.18551137
-0.08073336
-0.05638013
-0.11167064
-0.03074196
0.03453019
-0.25025073
0.06024760
-0.05098743
-0.72881961
0.05314262
0.11877857
-0.03090619
0.00740098
-0.27057970
0.13473888
0.21438928
0.08404185
0.08093764
-0.07712496
0.16066912
-0.06444017
0.00975205
0.14301518
0.08311626
0.15111610
0.09241901
-0.18053725
-0.06971196
-0.39483282
-0.13315539
-0.06672983
-0.21878278
0.11663501
0.12617190
0.20486663
-0.07915615
-0.15403433
-0.16113245
0.12800536
-0.37281898
0.13855283
0.13026500
-0.02314411
-0.14112903
0.09445982
0.02603478
0.19505477
0.01328067
0.16417237
0.23757158
-0.13569893
0.15702443
-0.12250662
-0.17593685
0.00235273
-0.65509057
0.11002187
-0.07749803
-0.28368813
-0.41282287
-0.10819066
-0.00791899
0.07041162
-0.09253137
0.27438414
-0.15780170
0.03908386
0.03923059
0.00511396
-0.11610400
0.09377728
0.17531069
-0.06872013
0.06624406
0.02413800
0.31291273
0.30279738
0.39271522
0.09998821
-0.09009967
-0.05578965
0.07397052
-0.02311759
-0.17923012
0.05156819
0.32818207
0.07874238
-0.13473408
-0.07863931
0.34319657
0.01670694
0.30200717
0.17389488
-0.05225963
0.12534325
0.43685997
-0.00844808
-0.02161031
0.03883249
0.04935522
0.02584805
-0.33488899
0.23285568
0.09387569
0.16143535
0.02760310
0.17872155
0.21535911
-0.16916248
-0.07286424
0.29115197
-0.17818628
-0.15728317
-0.03725739
0.21686967
0.15610796
0.19684021
-0.00092455
-0.30430064
-0.16065924
0.12407624
-0.07522602
0.06550615
-0.29706722
-0.25045076
0.23341680
-0.27493060
0.04003180
-0.02383282
0.08310897
0.07253039
0.19839357
-0.26947275
-0.14050041
0.04702708
0.25588214
-0.42135820
0.15223452
-0.00251701
0.00231229
-0.16105913
-0.29764694
0.25394937
0.20378666
0.08230267
0.00064217
0.20162168
0.14223947
-0.44543785
0.08890756
0.10861645
-0.00647261
-0.04659542
-0.22343424
-0.11555660
-0.35602665
0.10651023
0.16828658
-0.06540105
-0.09656078
0.02422468
0.14099576
-0.14919561
0.15689303
-0.39246261
-0.06037914
0.02145675
0.20523973
0.10296506
0.06470889
-0.17187595
0.05826708
-0.13912125
0.03010700
-0.08041902
-0.21557948
-0.02533904
0.22049305
0.09289408
0.18728325
0.03222201
0.14006682
0.16231225
0.11531322
-0.15650085
0.03874567
0.10522475
0.04693396
0.22541788
-0.07314213
0.08149669
-0.03341441
-0.02191971
0.03484404
-0.07819071
-0.10010866
-0.15471645
-0.14764562
0.27436027
-0.01265105
0.13276757
0.55940050
0.15073068
0.29492119
-0.07109811
-0.13010852
-0.14913030
0.19718418
-0.04498348
0.01605399
-0.01170297
-0.00157207
-0.00291100
0.16248628
0.03150467
0.08897246
0.09586529
-0.28845483
0.00704145
-0.36239830
-0.09488664
-0.01187535
-0.19467643
-0.18817067
-0.17900759
0.08787767
-0.21452780
0.01316927
-0.00958466
-0.02875109
-0.14036456
0.08256416
0.10946880
0.25260091
-0.00810337
0.19375730
-0.11364231
0.38232747
-0.06799346
-0.04647547
0.06761343
0.15492208
0.14588334
0.22717178
0.21967612
0.07052967
-0.45029163
0.30340523
0.12364829
-0.00574342
0.01388798
0.06441036
-0.00074391
-0.05229481
0.10170162
-0.01589883
0.03451231
0.17852826
0.06189802
0.10870480
0.06300180
-0.35720417
-0.07629795
0.04887807
-0.11092471
-0.03101739
-0.01565016
0.04134565
0.00462057
-0.11363592
-0.04659506
-0.02163111
-0.19686171
-0.06036481
0.11440631
-0.26804614
0.49001056
0.13265856
-0.00539371
0.10336420
-0.02019808
0.14575697
-0.39899296
0.01189243
0.28688076
-0.31220910
-0.05671215
0.02268870
0.11103248
-0.12737134
0.13118882
0.14399913
0.29288387
0.07499532
-0.05697058
0.13617130
-0.03081458
-0.51709288
-0.15585433
0.00428274
0.02423417
0.05377977
0.16647089
-0.03273376
-0.00364530
-0.06890117
-0.13347447
-0.22872144
0.06907055
0.24403620
-0.54071009
0.13736700
-0.10132114
0.05416022
-0.23991749
0.02604667
-0.14195347
-0.16564609
0.23480859
0.21188536
0.30210301
0.05440323
0.15907310
0.08621740
0.10938214
0.12221546
-0.09682740
0.18199159
0.02608488
0.08543745
0.09991652
0.29631439
0.01956660
-0.08636757
-0.21669653
0.41731745
-0.38340852
0.15122366
-0.00356986
0.12830922
-0.01361314
-0.03313894
0.01720898
0.05195643
-0.00135966
-0.08145414
-0.47025931
0.13319182
0.09751122
-0.06682899
-0.09006345
0.06145458
-0.05154149
0.00228642
-0.15310620
0.03050364
0.14013396
0.18126765
-0.05321687
-0.18604290
0.14542031
0.19511063
-0.19935191
0.26527533
-0.50249881
-0.61057687
-0.01445962
0.24000823
0.11347197
0.08636017
-0.05999919
0.08468916
-0.02907835
-0.01515430
-0.16438833
0.00936621
0.19011497
0.14389864
0.16338712
-0.01344613
-0.46969616
0.19847170
-0.06609546
-0.08233373
-0.01497231
-0.03220490
0.18334870
0.24400939
0.14027336
-0.17036189
-0.00272861
0.00196465
0.00049103
0.03817111
-0.05724204
-0.14774078
0.39216095
0.17010845
0.06648536
-0.08937483
0.11650334
-0.16468345
0.11199630
-0.16510540
0.17507719
-0.06717060
0.02705104
0.07586574
-0.12160938
-0.25154302
-0.08717958
-0.14071842
-0.06406756
0.17092240
0.09132509
0.12716714
0.25436437
0.07113148
0.09119745
-0.06696778
0.16820846
0.09390055
-0.11507575
-0.01155480
0.09544141
0.26669827
-0.02472882
-0.03318241
0.09151713
-0.02230090
0.02283873
-0.07953197
0.09036731
0.02079052
-0.08293306
-0.50992113
-0.17234313
0.11657201
0.05410194
0.11341344
-0.32657999
0.16474131
-0.29128212
0.06744324
-0.04157564
-0.01072666
0.12765563
0.12582418
-0.01362620
0.04218030
-0.03762083
0.02947826
0.07497737
0.24535973
0.13385651
0.10569097
0.29214010
-0.00593417
-0.19854541
-0.00245912
0.03999440
-0.05377123
0.02368567
-0.03153574
0.04548964
-0.13576679
0.07177795
-0.10051895
0.26671651
-0.09323036
0.27712122
0.19958174
0.04970492
0.19739901
0.14207937
0.17674531
-0.15308939
0.18438159
0.09772644
0.14183564
0.20107752
0.04882410
0.04600531
-0.34934503
0.25748494
-0.21193828
-0.09043158
-0.02920461
0.07832466
0.01313453
0.08171641
-0.12684746
0.07322603
-0.38127023
-0.07452083
0.21865980
-0.33225393
-0.05086637
0.19399650
0.14620599
-0.13617432
0.00949901
0.07792696
0.03947531
0.16373049
0.18402408
-0.19237310
0.16391183
0.07771715
-0.12100855
0.09798539
-0.08540346
-0.03982472
-0.10816321
-0.04909339
-0.13745819
0.14929561
0.09793744
-0.01754400
0.08815683
0.12927994
-0.09488825
-0.16204968
-0.16301197
0.23326886
-0.29377776
0.14148043
0.06292907
0.13290568
-0.22550033
-0.30467167
0.06019454
0.26682058
-0.22011971
-0.08543795
-0.01172298
-0.13965538
-0.02675465
0.26945910
-0.07837199
-0.10192979
0.03824449
0.10933959
-0.03802507
-0.04271257
-0.14380851
0.20067607
0.00403527
-0.29877269
-0.05860705
0.14288728
-0.02454083
-0.00799952
0.08023245
-0.04400259
0.15690808
-0.07623687
-0.18955867
-0.19633578
0.07814559
-0.08316517
-0.24670799
0.01923728
0.12201231
0.02897138
-0.21659677
0.07345124
-0.04661267
0.20130795
0.05042988
0.11969381
0.26280731
-0.10647345
0.51836616
-0.11519299
0.17942508
-0.06838964
0.11926495
0.08264948
0.24877651
-0.01192401
0.07586389
0.02467268
0.04278122
-0.10673228
0.05884510
-0.51121891
-0.33379042
0.13866858
0.04531362
0.15901697
0.07080918
-0.06204183
-0.00562423
0.19685443
0.19923675
0.00058432
0.26193559
0.03920513
0.35842699
0.12774721
0.06117106
0.09237096
0.15621643
0.03469383
0.19035168
0.00535395
-0.23834255
0.21680804
0.17758353
0.26401109
-0.28483081
-0.03604354
-0.36858714
0.26712891
-0.04321060
-0.27054530
-0.03277189
0.01467555
-0.00956602
-0.12177559
-0.26082262
0.16871379
0.22209065
-0.24597767
-0.08861818
0.02347023
-0.30492580
0.06540035
-0.02648954
-0.10750271
-0.07036267
-0.08339415
0.08677169
0.27158508
0.10675386
-0.06349495
0.16289467
0.02857119
0.12668501
0.23068532
-0.37797874
0.22928001
0.18340777
0.02843916
-0.07922687
-0.24965033
0.05967721
-0.09563953
0.03042709
0.24566123
0.17404313
0.11964200
-0.39103276
-0.11152608
-0.04682762
-0.07574469
0.08134750
-0.11149084
-0.09982945
0.18633765
-0.15990520
0.48755425
-0.12750998
0.05454177
0.02492183
-0.13693607
-0.41933852
-0.19751745
0.19335170
0.01798474
-0.05010439
-0.12898773
0.51577699
0.09996852
0.13781673
0.07843041
-0.15475109
0.07976063
-0.03579319
0.04837040
0.23549816
-0.13665831
0.06719109
-0.00429565
0.09297112
0.05089828
0.04989569
0.36719421
0.22001719
0.03057585
-0.02419643
-0.15023871
-0.00295131
0.14927766
-0.15006708
0.19142134
0.00284740
0.31217232
-0.07805042
-0.31509250
-0.06889094
0.33853951
0.41170540
-0.00413947
0.40085348
-0.28476948
-0.20376167
0.14771460
-0.05661185
0.14015417
-0.06583051
-0.05743205
0.13200407
0.26568606
-0.11217861
0.06588477
-0.02513752
-0.07358314
-0.21502793
0.11133311
0.48330986
-0.25718021
0.14428319
0.31582385
0.08750455
0.08618072
0.03155936
-0.04280288
0.11428833
0.02463957
-0.04710417
-0.00820037
0.05564591
0.00346505
0.01188678
0.02116458
0.00270042
0.08541366
-0.00169826
0.18693373
-0.21122994
-0.08467006
-0.13050389
-0.04007310
-0.09995828
0.05029496
0.29211503
0.24122418
0.14269513
-0.11947317
0.06425412
0.10409613
0.03802649
-0.05968876
0.03938631
0.31175083
0.12857954
0.12867120
0.06064367
-0.14579028
0.13622162
-0.18399115
0.25470284
0.11675893
0.03329131
0.09777543
0.03371974
-0.07885325
0.03416355
0.08991121
0.17708497
0.03399112
-0.02745108
-0.25837973
-0.03390082
-0.11624965
0.23709783
-0.13805375
-0.16539745
0.28753993
0.04032563
-0.21579178
0.12713777
-0.06626337
-0.78147000
-0.19219030
-0.06076980
-0.01178980
-0.06698319
-0.03503814
0.10802967
-0.03074426
-0.13253331
0.07569318
-0.26682064
0.00462379
0.07161968
0.13837576
-0.16116147
0.00331284
-0.04187809
0.09467631
0.02727603
0.05548004
-0.01541444
-0.24926864
-0.12454931
0.36835158
0.01784188
-0.13639413
0.11814144
0.00755885
0.01532318
-0.01883733
-0.26643351
0.03424435
-0.06497424
0.01894611
0.35605058
0.00620023
-0.16105090
-0.04187503
-0.12045678
0.20713662
0.01836798
-0.07897691
0.06922548
0.10668445
-0.02243316
-0.06668597
-0.06386648
-0.34826586
-0.09599675
0.07491757
-0.10132783
0.21020693
0.07186731
-0.35835063
-0.04054996
-0.05601994
0.17913738
0.03115327
-0.39318177
0.13139965
-0.29889727
-0.00553368
-0.05994986
-0.34840092
0.28204015
0.11650633
-0.17520544
0.13613610
-0.00906345
-0.24411330
0.01706651
0.23113666
-0.13706219
0.05086722
-0.33629134
-0.00002979
0.11659950
-0.05041724
-0.26081553
0.07848715
-0.00935470
-0.08753770
-0.08698186
0.14411902
-0.01516216
0.00053043
-0.29188991
-0.25408477
0.11749990
0.10184974
0.26052192
0.00685621
0.01967271
-0.26738214
0.10964089
0.25034609
-0.15262905
-0.02740491
0.05675310
0.07573487
0.00889912
0.07062630
-0.05999758
0.06606063
0.03836646
-0.19737266
0.01579886
0.02346511
-0.03804433
0.10982077
0.29886118
-0.52848577
-0.04069497
-0.00616443
-0.02382757
0.22169772
0.03524800
-0.11227687
0.02850324
0.07923643
-0.25979722
0.13394696
-0.11007489
-0.06074168
-0.72855920
0.54881459
0.04935201
0.12776141
-0.21339881
-0.08769593
-0.08397133
-0.13465719
0.07608447
-0.18272816
-0.44679269
-0.09131425
-0.03220684
0.09743450
0.09906934
0.19962108
0.18493977
0.12630086
0.17149849
-0.01835138
0.13143851
0.01558921
-0.10561396
-0.00736012
-0.17099993
0.04999210
0.07038154
0.11337276
0.06875114
0.05840657
-0.17592567
0.10177887
0.39625147
-0.22826476
-0.37530193
0.10312693
0.45595422
0.09728076
-0.03338778
0.06325889
0.22092131
0.05030631
0.17884021
0.23954284
0.24062817
0.25748557
-0.15304627
0.09834987
0.17794323
-0.09824874
0.17044258
-0.07001758
-0.11860733
0.11446977
0.10054949
-0.06591160
0.15221228
0.16330373
-0.06569244
0.30284542
0.02521661
0.13430138
0.16423503
0.06752045
0.09937088
-0.28287715
-0.06216867
-0.01373931
0.25427857
-0.02007273
0.23209603
0.19617952
0.01826617
0.19690628
0.33142951
0.15798031
0.00022385
-0.30603850
-0.00449037
0.04951528
0.10061792
-0.02049520
0.02156504
0.37141496
0.15267730
-0.07692491
-0.07363801
-0.20189315
0.04565187
0.02022598
0.21519552
-0.02270776
0.31166363
-0.01706237
0.04990241
-0.02519271
0.10298757
-0.33545887
-0.01730647
-0.13764028
0.15270281
0.14315757
-0.14836094
-0.24353549
0.03610911
-0.02160526
0.11229824
0.37178877
-0.04980119
0.12301695
0.32084554
-0.02466813
0.04506835
-0.02831615
-0.08900303
-0.08342674
-0.09881582
0.15801731
-0.09990329
0.04420632
-0.11056550
0.37626314
0.06556359
0.15796170
-0.15303627
-0.14294256
0.02175006
0.04499165
0.05820480
-0.48515606
0.18374377
0.09192567
0.08043224
0.26041406
-0.03985517
0.07110158
0.02079739
0.05726423
-0.04272602
-0.27051938
-0.05983429
0.27235791
0.10501319
0.04177071
0.10335981
0.05461291
0.16120037
0.12007155
-0.16987738
0.02568792
-0.27419138
0.11938751
0.11394275
0.13098064
-0.24005723
-0.27121019
-0.04607336
0.26871291
0.08348023
0.04637503
0.05551997
0.20907377
0.40004891
0.04484418
0.14083783
0.21659672
0.06322499
-0.17952223
0.19047797
-0.32730141
-0.16524674
-0.31590870
-0.02655537
0.14886910
0.13553362
-0.30621853
0.02747027
-0.00686729
-0.08817045
0.19600478
0.07346334
0.07455631
0.00299901
0.40135336
0.08297024
-0.17089194
-0.11994142
-0.23710696
-0.09725986
-0.48961055
-0.05533000
-0.12439089
-0.11507132
0.08933900
0.08572283
0.22456919
0.10365789
0.05852949
0.03460064
0.03754678
-0.08886161
0.05984909
-0.06337834
0.11840358
0.00973248
0.23665972
0.11020002
0.29561788
-0.27287871
0.06263509
-0.41722280
-0.02817801
0.03967655
-0.21177295
-0.14881769
0.18220823
0.01374044
0.10679288
0.24426678
-0.02254597
0.14880581
-0.02397222
0.14059316
0.06966505
-0.04125076
-0.04911920
0.15049849
-0.07804359
-0.38819686
0.11891302
0.00442171
-0.38924590
0.19381806
-0.17002220
-0.06097965
-0.02865220
0.23360382
0.02166334
0.31670567
0.08617828
-0.04586220
0.07993323
0.07291718
-0.15505619
0.05148371
0.08482031
0.02124848
-0.06522457
0.42186543
0.33794740
0.01720966
0.21571511
-0.02707434
-0.12197053
-0.11123340
0.00415491
0.05002581
-0.14877658
0.47601041
0.07990938
-0.01072371
0.01978051
0.13095084
-0.38367540
-0.01218859
-0.03587759
-0.20173883
-0.05235415
-0.01469508
0.02139770
-0.33557671
-0.25959459
0.02963530
0.15135624
-0.09654851
-0.10385093
-0.21448858
0.05867166
0.20674762
-0.04344578
-0.16749765
-0.20680802
-0.27092448
0.10643024
0.15919286
0.05866610
0.00796346
-0.34998506
0.01272809
-0.05702717
-0.03635998
-0.05524258
0.14549664
-0.10902707
-0.04987030
-0.02667687
0.00789638
-0.23028199
0.47373858
0.03433969
-0.13577330
0.03598429
-0.02916436
0.05396320
0.05141825
-0.05672367
0.25586894
0.23210932
-0.14625318
0.48498476
-0.06851137
0.14012535
0.07530399
0.28245401
0.20059510
0.15639623
-0.11439969
0.03277453
0.11616716
0.04569995
-0.17407943
0.15850043
0.29256338
0.01678070
-0.24735366
0.06556671
-0.02854011
0.04765327
-0.01356136
-0.17101161
0.21401875
0.00320379
-0.06180229
0.25860912
0.16551390
-0.02734978
-0.21052858
-0.13759871
-0.51798981
-0.06089412
-0.05866828
0.03590884
-0.29238144
0.06225356
-0.01367383
-0.16377267
-0.06539470
-0.05621447
-0.10669803
0.02344130
-0.09997431
0.02089332
0.12816180
-0.05589439
-0.29055196
0.22199591
0.12955172
0.13444810
-0.14649566
-0.21417254
-0.00653712
0.00200454
0.03591986
0.00249035
0.18762890
-0.05239632
0.04668878
-0.00007865
-0.00843513
-0.00043316
0.04287223
-0.16494006
0.28333357
-0.16776110
0.04336663
0.00821403
-0.02222123
-0.22558273
-0.04702657
0.14986324
-0.26259658
-0.24914110
-0.14743619
-0.00007246
