-0.02021393
0.11706401
-0.06149998
0.36532429
-0.02649138
-0.00936240
-0.01881453
0.20777249
-0.06722835
0.17956720
0.13393609
-0.14454120
0.18892153
0.02742887
-0.06287380
0.00929506
0.01952552
0.02738960
-0.05271063
-0.01632978
0.36176223
0.16920935
0.00675484
0.08702108
-0.18805368
-0.00493398
0.07904781
0.01991262
0.00514488
0.02406998
0.13134791
0.12939233
0.07112810
0.24208432
0.18960764
0.05648245
-0.06699759
0.12336271
0.06333923
-0.05132338
0.06153351
0.06742714
0.01370911
0.11522977
0.07707017
-0.01631428
0.16491401
0.03823069
0.09197364
-0.13300803
-0.14700209
0.01026306
-0.13783056
-0.04181612
0.19003204
-0.13198188
-0.04033706
0.11663590
-0.00783808
0.20467509
0.30784512
0.15497360
0.15185264
0.15253034
-0.15855175
0.15222056
0.02133495
0.17327812
-0.10188163
-0.04793020
0.25345460
0.05783305
0.05849423
0.15808433
-0.00496134
0.27692595
0.05422463
0.02063435
-0.06976053
-0.03832032
0.18646741
0.09251755
0.01070771
0.03381475
-0.06603280
-0.11187861
0.02540270
0.28466824
-0.08360974
0.06006142
0.19520561
0.04432371
0.03917556
-0.05901307
-0.10593569
-0.05009056
-0.02177950
-0.09788796
-0.01542668
0.05272850
0.01653436
-0.04251298
0.13930613
-0.05891931
-0.02958529
-0.01818515
-0.01225003
0.10807949
0.35252523
0.45105204
0.04252592
0.00541076
0.04427826
0.23812985
-0.27398810
0.25388440
-0.01444902
-0.04599540
-0.06977890
0.02999230
-0.03518383
0.02483234
0.04586517
-0.00882678
-0.65950239
0.04954654
0.00291280
0.19297898
0.13159241
0.21334507
0.19756749
0.10195412
0.27237615
0.12748474
0.19933157
-0.05513642
0.12414460
-0.07676250
0.46322447
0.02667983
0.46607497
-0.00710673
0.02617656
0.00566190
0.05530468
0.01982428
-0.00418425
0.16727683
-0.09435157
0.01746703
0.07417601
0.14697254
0.08725058
-0.12882005
0.05961477
0.17478186
-0.00480657
0.00123366
0.04395200
-0.05080646
0.09547457
0.02445532
0.12010661
0.20968823
0.11281227
0.01215123
0.15721959
0.23808986
-0.12608530
0.11075839
-0.06457474
-0.07281488
-0.00998889
0.09751240
-0.09341009
0.12222198
0.15350603
0.12516965
0.00041764
0.05762914
-0.02696091
0.15922751
-0.02648370
-0.03285325
-0.02842324
0.15307987
0.08442048
0.06448662
-0.03523018
0.08590019
0.22027814
-0.01049964
-0.03553924
0.12350690
0.14583212
0.09230739
-0.13601910
0.01995182
-0.07051679
0.17118555
0.09956652
-0.07609394
-0.13469052
-0.02663654
0.02614454
-0.03500612
-0.00170171
0.19046508
0.05981772
0.03572658
-0.09748559
0.14451441
0.15813741
0.06100907
-0.05437425
-0.03990656
0.09850670
0.14423425
-0.08836467
-0.25603274
0.03905015
0.05059079
-0.11729099
-0.02188266
-0.12154936
0.06797002
-0.09082942
0.08566092
0.01303064
-0.02981221
-0.08282641
0.21574594
-0.28131479
0.05322848
0.16789903
0.05256294
-0.00610867
0.16852042
-0.07125442
0.02312628
0.07987645
0.02615965
0.02643305
-0.01594582
-0.07732774
0.04912988
0.10242125
-0.01398024
0.05490037
-0.48412561
-0.08361870
0.13234496
0.19460891
0.14731117
0.07818682
0.04598980
0.00747430
0.12081762
-0.03120083
-0.09597939
-0.05483112
0.07603194
0.07640017
0.04372239
-0.20546618
0.10603742
0.01219777
0.15916905
0.11896316
0.09090386
0.07038614
0.11086713
0.06216391
-0.07997462
-0.04269766
-0.16279717
0.04487671
0.06676222
-0.01097462
0.40460858
0.01789269
0.15454623
0.12387124
-0.01481177
0.04527149
-0.17653759
0.04412813
0.04206904
-0.01896662
-0.26666525
-0.11416983
-0.09492447
0.15315764
0.05611260
-0.09219159
0.03487074
0.02562127
0.00969395
0.02831507
0.10727102
-0.07775161
-0.03749041
0.14133129
0.14411756
-0.03623484
0.05203282
-0.22361737
-0.09331197
-0.18168046
-0.02897285
-0.01877847
0.25768647
-0.08740758
0.48257580
0.08081896
-0.11684729
0.01119748
0.26714858
0.00249843
0.20383313
0.13686846
-0.00600655
-0.06506503
0.09152408
0.04668287
0.00453496
-0.09137145
-0.08872636
-0.04440442
-0.12926343
0.02402719
0.39664266
0.22936434
-0.05347043
-0.26084593
0.02436320
-0.05808769
0.04757845
0.07887042
0.11696006
0.10179722
-0.03155253
0.15781952
0.00664662
0.00432798
0.13986048
0.08415620
-0.05086897
-0.04156024
0.05012995
0.10422328
-0.00007629
-0.08503148
-0.19746286
0.14854105
0.13050112
0.09872843
0.19510213
-0.10311512
-0.30324408
0.05385093
-0.08155902
-0.05522916
0.01044966
0.00027531
-0.01596437
-0.13659437
0.03421395
-0.05112395
0.08174533
0.10961355
0.12732296
-0.13677123
-0.01530640
-0.10944086
0.05034503
-0.05629284
0.03493446
0.04610055
-0.04982374
-0.14167529
0.14386390
-0.06534031
0.04644450
-0.15562885
-0.03539062
-0.05571300
0.00955276
0.26974320
-0.01613916
-0.02027797
-0.25155112
-0.06779905
-0.11549638
0.05371487
-0.14972430
0.00800615
-0.18344215
0.04205849
-0.09136098
-0.00312029
-0.19700900
0.31230170
0.00287773
0.08159763
0.09881701
0.13567472
-0.11734157
0.12611271
0.08505677
-0.13398474
0.10370044
0.02854630
0.00688467
0.08132785
0.20085271
-0.07207218
0.10200333
0.02802690
0.04465667
-0.03067558
0.22350173
0.01775902
0.24314554
-0.20903654
0.04790420
-0.09531759
0.05675209
0.11648986
0.10136503
0.07224081
0.14758056
-0.59178579
0.00929003
-0.02266651
0.00245667
-0.02515730
0.17054568
0.00478912
0.25941610
0.06880303
-0.05858799
0.04363780
-0.16333599
-0.10004421
0.21130623
0.00003988
0.29966402
0.13721043
-0.01623455
-0.11838422
0.02593745
0.04317135
-0.05598298
0.19969976
-0.06701531
-0.06938069
-0.26916188
-0.03910396
-0.24584031
0.13635510
-0.09529610
0.28385675
-0.01751884
0.05977099
0.05340642
0.10461248
0.11729386
0.11074770
-0.01391837
0.00028751
0.14865839
0.12619308
0.10632727
-0.11259110
0.10943812
0.14447047
0.03374385
-0.01989107
-0.07619584
0.01115072
0.27695343
0.10653201
0.00946876
0.10486086
0.02488342
-0.18238154
0.03522928
0.28413534
0.16082074
0.09949715
0.10650015
0.00890687
0.25465283
0.18936871
0.16934280
0.04688939
-0.05705731
0.16870385
-0.06029739
0.02405270
0.06918250
-0.01499876
0.04122111
0.11019009
0.05358784
0.13770989
0.57519305
0.19294953
-0.22476257
0.22783352
-0.19003084
-0.14928924
-0.18764015
0.09230314
0.10427428
-0.18639666
0.09474211
-0.18558842
-0.15445349
0.02781608
-0.24433993
-0.05472252
-0.10104685
0.10625467
0.04429872
0.04322796
0.16294852
-0.03038372
-0.02705892
0.14643636
0.09432016
-0.00817990
0.01404490
0.21681955
0.16801335
0.04427098
0.18798660
0.13504757
0.12356696
-0.03520655
-0.08943968
-0.02818686
0.15827766
-0.00582259
0.02452762
0.18190962
0.07888734
-0.04438853
0.02550131
0.17949310
-0.02597379
0.24983448
-0.07532476
-0.27573451
-0.03328702
-0.07781926
-0.00745250
-0.14823426
0.09272473
0.02337626
-0.19844930
-0.07815634
0.10599263
0.01147719
-0.06491030
-0.04949024
0.05411305
0.01113941
-0.01122112
-0.05993611
0.16663557
0.13467418
-0.05642271
0.13069816
0.09854592
0.05271706
-0.14810830
-0.00800634
0.27926078
0.17925176
0.11820898
0.28657091
-0.07185920
-0.03751879
-0.03700101
0.08757404
0.15888713
-0.03650089
-0.14605866
0.07032903
-0.12498019
-0.07115104
0.01134171
0.04564892
-0.13138972
0.06349334
-0.00381101
-0.18131649
0.08889635
-0.15482177
0.02143304
-0.01839846
-0.18435358
0.01787759
0.00667991
0.00018789
-0.00731070
0.19456108
-0.27676091
0.17738825
0.06442423
0.01179398
0.01605118
0.05302718
0.00263900
0.03944687
-0.19997329
-0.01998468
-0.17638083
-0.09190187
0.01596649
0.50501657
0.03741125
-0.06436318
0.11263526
0.13354035
0.02339954
-0.02234224
-0.00235853
0.02957189
0.05129179
0.19606979
-0.04133229
0.12710588
0.16948873
-0.12136419
0.07025631
0.18631643
-0.02626137
0.19901569
-0.05440898
-0.18625896
0.08457960
0.12163959
-0.07687992
0.00322282
0.07446963
-0.11624787
-0.01341486
0.01154290
0.07186756
-0.07619692
0.14705630
0.01117975
-0.02117263
-0.07243281
-0.17108421
0.22835141
-0.03116775
0.02776139
-0.07110847
-0.00686586
-0.09279592
0.06005953
-0.00968708
-0.01679324
-0.06604403
0.01364230
0.13692543
0.11119383
0.01562934
0.03089756
-0.17098612
0.25963429
-0.00823043
-0.09542961
0.19437839
0.00655083
0.18054046
-0.13091816
-0.08389779
0.07944049
0.17075503
-0.03820850
-0.06413744
0.04640035
0.08327271
-0.13449916
-0.17778249
0.07576913
0.08135533
-0.08761638
-0.00512903
-0.06545185
0.09891282
-0.03450065
0.09120151
-0.04561152
0.19457597
0.14456761
-0.03212918
0.04604162
0.14771041
0.03032570
-0.02034361
0.07596064
0.20268354
0.10305395
0.09788866
0.04185425
0.13651620
0.01349326
0.05545139
-0.01157070
-0.37937903
-0.01541521
0.04327986
-0.04905779
-0.00239410
0.09048436
-0.10991290
0.12448318
-0.04786946
0.11813303
0.05523444
-0.08919239
0.03857496
0.02126211
0.20031053
-0.21984275
-0.04266135
0.20541015
-0.27620664
0.20770769
0.16226529
0.24581864
-0.12354250
0.16280982
0.03488331
-0.36739376
0.09135900
0.24021058
-0.29627553
0.22119829
-0.00748874
0.10277988
0.17199025
0.03760469
0.21720275
0.21103691
-0.09350149
-0.06457803
-0.01422748
-0.02430465
-0.00948583
0.11772284
0.10117079
0.03724336
-0.10019636
0.07493236
0.13472348
0.10892355
0.34242910
0.14404556
-0.03059722
-0.06482171
-0.06581379
0.06234338
0.13531262
0.16465674
-0.04372011
0.00059216
0.11569346
0.11028985
-0.01180377
-0.09107145
0.01068249
0.23930870
0.12242068
0.09065411
-0.17463803
0.07701807
-0.17428041
0.18847020
0.03226781
-0.03986182
0.07460217
0.10178705
-0.13620447
-0.07194149
0.03414118
-0.32430649
-0.05793698
-0.10612269
-0.05232304
-0.01457322
-0.09916278
-0.05473192
0.02651278
0.15296046
-0.14112309
0.31998086
-0.01798829
0.08853052
-0.15866011
0.01760421
-0.30083939
-0.05655321
0.05613920
-0.30028313
0.09230351
-0.16765551
-0.00942472
0.10308179
0.14135219
0.12814593
0.03497706
0.08046413
0.01212518
-0.17466240
0.01980527
0.11947478
-0.01306453
0.21729942
0.06961221
0.08366276
0.04158095
-0.02168941
0.18281147
-0.15309612
-0.00099516
0.03159472
-0.03357198
0.09779054
0.07335015
-0.03526098
-0.00642745
0.02664573
-0.11964194
0.01708108
0.09359865
-0.01424775
0.09311360
0.39166933
0.27495268
0.04441450
0.17037216
-0.15497488
0.08813054
0.14481521
-0.14145426
0.09643869
0.02471757
-0.13203461
0.10047226
-0.24812138
0.07824341
-0.07320426
0.12414129
-0.01528332
0.11612199
-0.21550620
-0.31910679
0.16979280
0.13469999
-0.06662399
0.09204003
0.08104529
0.16069040
0.20898882
0.14148787
-0.11635692
-0.19076367
0.03864655
0.00061019
-0.03034572
-0.03119388
-0.07310545
-0.12601931
0.13042939
0.07677180
0.07059137
0.01522550
-0.07532826
0.09516671
0.12147915
-0.04125670
-0.00873044
-0.05242957
-0.05738458
0.25689897
0.18953042
0.25138900
0.08180058
0.10566185
0.03315569
-0.36984813
-0.14421308
-0.06319181
-0.02153665
0.02530334
0.08699656
-0.00518999
0.06524255
0.40636274
-0.28901207
0.05197642
0.28516573
-0.09481586
0.04067704
0.25571236
0.12146635
0.23264678
0.06434445
-0.13860588
-0.00839990
-0.07698892
-0.00213094
-0.02034508
0.03235453
-0.15693602
0.23479219
0.05440987
-0.03777160
-0.06241467
0.06008565
0.09878239
-0.12520491
-0.06417394
-0.09953851
-0.04022813
-0.08228230
-0.13116249
0.03474915
0.10464556
-0.03037792
0.00861099
-0.13715464
0.02465814
0.08757863
0.27379224
-0.18889619
0.00441626
-0.18722929
0.06111508
0.00860856
0.08727002
0.02011809
0.28669679
0.26933381
-0.16692106
-0.23359540
0.10300814
0.04686975
0.18224081
-0.12763505
0.01770138
-0.04798311
-0.08077090
0.03991159
0.16748844
0.00021639
-0.24715637
0.16751702
0.05578169
-0.08509575
0.07824669
-0.06040610
0.07086013
0.06358722
0.04342769
-0.23559459
0.06404616
-0.08266874
-0.02826873
0.13370374
-0.13423772
0.08476063
-0.04051229
0.01967977
0.06571343
0.10730435
-0.07410375
-0.00727991
-0.07334842
-0.04512644
0.14856550
-0.00865865
0.07361317
-0.21427478
0.02877632
0.09984953
0.08514019
0.00403452
-0.10729188
0.22949916
-0.19084536
-0.10288110
-0.04037980
0.09183142
-0.00831528
-0.06188852
-0.01535054
-0.08186280
-0.11568023
-0.10672922
-0.05670602
0.08653533
-0.11312513
-0.02410520
0.14083712
0.06863473
0.08841311
0.30568594
0.04285710
-0.22851954
0.07130185
0.12305772
0.15480062
-0.00874715
-0.06855073
-0.01614334
-0.28332427
-0.02517877
-0.04533517
0.00492991
-0.15304154
0.13709009
-0.02031782
-0.02489177
0.24718165
-0.04790484
0.10558443
0.15199675
-0.07508796
-0.03709903
-0.12998168
0.03612224
0.00993450
-0.04312894
-0.03678359
-0.05649982
0.12340779
-0.11001405
0.00576859
0.01951750
0.02003062
-0.06891579
-0.06941099
0.10298235
0.04579472
-0.38461787
-0.09702364
0.00600222
-0.05313157
0.05935948
0.07105377
0.04894308
0.04021972
0.06752700
0.15634649
-0.08548591
0.08398911
0.10825897
0.37644273
0.09015206
0.13643897
0.04691826
-0.12627952
0.03159369
0.03539194
-0.14261058
0.18682212
0.06379193
0.09525872
0.05493905
0.04672519
0.10058286
-0.12768321
-0.14474860
0.17618011
0.09352587
-0.11010241
0.04712118
0.07596755
0.05468863
0.06662507
-0.03411427
-0.14189105
0.07003418
-0.01653966
-0.13753687
-0.16090052
0.11902106
0.01077291
-0.02422585
-0.07221907
0.01487109
-0.13826784
-0.16710010
-0.09306472
0.02404056
-0.00219295
-0.13802637
-0.08783989
-0.11642861
-0.21092619
0.03663602
0.09291212
0.07831085
0.13262138
0.02290806
0.09813738
-0.14854293
0.05839982
0.18820442
0.14483337
0.12745403
-0.15687151
-0.21544248
0.12344603
0.15911146
-0.02073763
-0.10353707
0.10469715
0.11636702
-0.00728046
0.02094303
-0.10788221
0.01225988
0.09768508
0.06058136
0.13363546
0.24235280
0.01606285
-0.13051517
0.07880705
0.11230843
-0.09122854
-0.14019795
-0.10055068
0.08731346
-0.09474421
0.37632620
0.10436347
0.05315972
-0.00728554
-0.12120070
-0.22119766
0.17351401
0.22098462
0.02282343
-0.11414854
0.08129803
0.01388178
0.00052310
0.06375708
0.07413474
-0.05436372
0.01574488
-0.10615199
0.08341996
-0.02184889
0.02782582
0.02479896
-0.01088114
-0.24047320
-0.07389924
0.18298680
0.04794654
0.07165808
0.14421874
0.00514587
0.12273688
-0.10429215
-0.05323174
-0.09863357
-0.04418735
0.00640305
0.03056444
0.01238763
0.19638680
0.08171698
0.10342871
0.09576304
-0.00709038
0.01114983
0.04859948
0.05315114
0.31647748
0.02388393
0.18877585
-0.04468962
0.08426646
-0.12987825
0.03234927
-0.02533864
0.00769913
-0.06068939
0.03870460
-0.00591499
0.13983248
-0.11418569
-0.04245724
0.04818365
0.09870660
0.07233977
0.14220576
0.29047158
0.01609174
0.16805993
-0.04829534
0.16309482
0.04145953
0.01402759
-0.03770877
0.14864969
-0.21652590
-0.02706455
-0.01768595
0.09867402
0.18576588
0.13357924
0.00610567
-0.06835873
-0.00898266
0.11759829
0.04778520
-0.31942531
0.06808154
-0.07324215
0.28581840
0.07501374
0.08410697
0.21466213
0.15365033
-0.07721754
-0.04330184
0.09057882
-0.03945770
0.07498155
-0.12490498
-0.03233071
-0.03860891
-0.08123987
0.03150417
0.13754050
-0.28501552
-0.00944807
0.01877424
0.11566918
0.13393019
0.19593939
0.25809753
0.38183740
0.05624668
0.13517326
-0.02713990
0.12635361
-0.11867372
-0.07288067
0.04447363
-0.04626939
-0.24551803
0.10755493
-0.01414488
0.03100289
0.01253933
-0.01264683
-0.20160900
0.11549708
0.02073662
-0.00072931
-0.24433319
0.28418931
0.02513854
0.02171822
-0.11830472
0.04124027
0.08528782
0.07941403
-0.13095531
0.12855862
-0.17656088
-0.05829904
0.03132737
-0.09523272
-0.13194168
0.06259090
-0.13553746
-0.02756441
0.09904391
0.03080500
-0.11569200
-0.09310588
0.15380593
0.21954729
0.26042190
0.09074201
-0.04969447
-0.10497936
0.14642671
0.05367710
0.06870105
0.00397078
-0.01069221
0.08121276
0.17366932
0.01760923
0.09152143
0.00375564
-0.01912704
-0.04443767
0.05491397
-0.07574360
-0.20469375
-0.04530851
0.07588471
0.22905776
0.07864155
-0.02592155
-0.07343813
0.11949471
0.16470221
0.02959979
0.02526234
-0.05963023
0.28654921
-0.02757656
0.08634225
0.03631633
0.11012506
0.10600755
-0.03236219
-0.16799168
-0.12474054
-0.07982400
-0.02133368
-0.11675452
0.05262499
-0.23367523
-0.07483342
0.10550537
-0.00208651
-0.29783583
-0.03073225
-0.08338106
0.21685809
0.13765658
-0.14178196
0.10181620
0.13004613
-0.32087275
0.12877679
0.03531380
-0.07574277
-0.21290225
-0.13271554
0.20033850
0.02310280
0.01480468
-0.06911340
0.06096072
0.07208758
0.13747784
-0.26997656
-0.01049352
-0.39396638
0.10351326
0.13384408
0.19150925
0.09599266
0.05335417
-0.01978867
0.10424306
-0.42336076
-0.00953045
-0.17759928
-0.10647265
-0.10280006
0.12389608
-0.05454116
-0.08656193
-0.00202411
-0.07492983
-0.02601937
0.13938165
0.17685074
-0.06632640
0.07336310
0.02160000
-0.02413208
0.15022501
0.14500529
0.15922144
0.08640617
0.08493247
0.05710462
-0.10924160
0.10786551
-0.13267861
0.03405343
-0.24739155
0.10435776
0.21806550
-0.05796822
0.02521529
-0.10569931
-0.04748979
-0.08405136
-0.01761677
0.24753682
0.05816185
0.02834422
0.08534667
-0.05053058
0.21105871
0.05178101
0.03814166
-0.01387709
0.04065103
-0.12383568
0.13930145
0.33359876
-0.04872298
-0.01449844
-0.03667979
-0.11591200
-0.00810746
0.08768771
0.06880260
0.31690949
0.07731718
0.17938027
0.14745504
0.31677979
0.21006742
0.11836415
-0.20379934
0.11913066
0.03088772
0.21202829
0.06222387
0.27689099
0.07004282
-0.01500907
0.01021737
0.37840259
0.16663280
0.06176092
0.01485163
-0.12510633
-0.05441437
0.19420750
0.05289991
0.01581401
0.22585618
0.11475820
-0.11562227
-0.03067450
-0.05374730
-0.18371812
0.24253044
-0.08785020
-0.10041382
-0.16576031
-0.10984058
0.14037777
0.16272520
0.07463624
-0.05108373
0.25632614
-0.15222570
-0.07490850
-0.02534444
-0.06962276
-0.02611906
-0.03387283
-0.00589573
-0.06500179
-0.03693895
0.10200111
-0.17017506
-0.05504932
0.08364020
-0.07857649
0.19801864
-0.08353408
0.29807761
0.06763589
0.17202714
-0.07257713
0.16886541
0.02333572
-0.05322579
0.00164099
0.12135039
0.24278465
0.12255464
-0.14250018
-0.00384399
-0.16059893
0.09619043
0.05431755
0.06156745
-0.02610208
-0.21714976
-0.06406946
0.06778818
0.07287665
-0.13540933
-0.01244784
0.01779656
0.13243352
0.29485899
-0.01861999
0.10572942
0.00811497
0.11569022
0.08790345
0.07437502
-0.00352487
-0.05423085
0.04646439
0.05696095
-0.07549290
0.09499474
-0.04234970
0.04451819
0.18918878
0.07945181
0.29571870
0.27232343
0.01761798
-0.09639085
0.03475603
-0.00947615
0.17084485
-0.03319841
-0.00955276
0.23736103
0.07783899
0.13556895
-0.15154304
-0.03029575
0.12939268
0.12026492
-0.07829592
0.10444116
0.12063450
0.05609625
0.09637629
0.26026130
-0.03667305
0.00686269
0.02953213
0.17085479
0.07953245
-0.01272382
0.01787930
0.02920721
-0.01673580
0.04504764
0.17836076
-0.03505218
-0.04292841
-0.28044817
0.08825800
0.25402826
-0.14419711
-0.01789807
-0.09474874
0.01495901
-0.03381053
0.01882863
-0.12823814
0.08332073
-0.05999265
0.13748883
-0.07265364
0.32725602
0.16136095
-0.01456283
0.01050286
-0.06099565
0.00783514
-0.01261871
-0.00667299
0.16317362
0.18080352
0.22745746
-0.05742011
-0.11289612
-0.07139055
0.11264215
0.13226883
0.14404823
0.12624708
0.03174501
-0.08208476
0.00305786
0.01926634
0.03104445
0.13922204
-0.04429321
0.21452692
0.11650182
0.01318284
-0.23356497
-0.04199654
0.22762871
0.02561156
0.06857830
-0.05433489
0.05225722
0.25961280
-0.09337552
-0.00351048
0.12855597
0.02448618
-0.04473701
-0.08923496
0.18826854
0.06741653
0.10388833
-0.00969629
-0.01011231
0.10196375
0.24750471
-0.12477303
0.03011564
0.24034016
0.04372635
-0.13808402
0.07355049
0.25120384
-0.00793447
-0.00452278
-0.02254392
0.14839377
0.13859698
-0.02929633
-0.06712669
0.01462227
-0.11067729
-0.05999465
0.09786621
-0.14302675
-0.17585136
0.13624267
-0.16058883
0.12598781
-0.07567810
0.15363362
-0.08212555
-0.12501225
0.05167699
0.17134878
0.04361998
0.05056076
0.04044390
0.11493690
0.15610912
0.32067180
0.19082534
0.03275130
0.04288832
-0.05371048
-0.28267720
0.20720899
0.03127412
-0.05410950
-0.07518928
-0.25364959
-0.05398577
0.12273650
0.11872640
0.03182353
0.15953611
0.00525493
0.11655387
0.06565171
0.06830720
0.03282450
-0.01638758
-0.08417957
-0.05572152
-0.10347918
0.19628285
0.11314712
0.08750863
-0.08018222
-0.07691281
-0.09949668
0.00317822
0.17789367
0.05423056
-0.09891773
-0.01124665
0.28141913
0.03360093
0.08253170
0.04524312
0.23623236
0.06250240
-0.32826832
0.17068242
0.19945621
0.12925585
0.02664816
-0.04367122
0.08288379
-0.00585821
0.11650181
-0.04611288
-0.09984090
0.24729265
0.12235678
0.07920726
-0.27168047
0.10669822
0.14397965
0.06162356
0.44956952
-0.07134398
0.00047657
0.14453629
0.35646832
-0.20047420
-0.01800757
-0.03581898
-0.05593262
0.08513473
0.06606628
0.15999933
0.13273720
-0.13531546
-0.02386296
0.01395616
0.02859276
0.05091898
0.01731687
-0.22392923
0.06374832
0.16859090
-0.08966868
0.17889920
0.05333075
-0.09827247
0.21441731
-0.05840649
-0.10101543
-0.11246619
0.11245175
0.12752117
-0.05586452
0.08835262
0.15201448
0.14937939
0.06127670
-0.20705894
-0.17930430
0.09959619
0.06317127
-0.04265356
-0.11609825
-0.14405499
0.08184294
0.10924482
-0.12404499
-0.11079853
0.13036384
0.02116451
-0.20606083
0.11065409
0.01851186
0.19345373
0.00710798
0.08298387
-0.05489797
0.02068192
0.10697365
0.01426641
0.04874123
0.38170362
-0.05371292
0.14494187
-0.04797111
-0.14843388
-0.00773784
0.11517969
0.13851453
0.02686669
0.10566638
0.09428889
-0.08357791
0.16446860
-0.02254864
0.23545894
-0.14017779
0.04794098
-0.09211601
-0.15841529
0.09351853
0.16855977
-0.06664775
0.07016185
0.19383399
0.11857948
0.07217553
-0.23001267
-0.07001168
0.06247187
-0.04323649
-0.05684033
-0.28307089
0.13825242
0.14487520
0.01856028
-0.06573799
0.10216337
-0.19233944
-0.06609656
0.22253034
0.05893746
0.09029558
0.25315127
0.25485283
0.21499781
0.02984102
-0.11037245
0.25094211
-0.23629963
0.07874390
0.11242350
-0.09385008
0.06050660
0.12970267
-0.13196643
0.02897527
0.02070603
0.18685137
0.19506133
-0.02024505
-0.29865536
-0.21656755
0.22663754
0.08964656
0.08786315
-0.11082408
0.16095157
-0.12965778
0.20046553
-0.47044620
-0.01872800
-0.13397142
0.05611400
0.06487595
0.13062146
-0.16042714
0.21740527
0.03598502
-0.20426616
0.01617602
0.03713739
-0.05391109
0.06154394
0.21937396
0.03311073
0.00109850
-0.01553143
-0.04051434
0.03761877
-0.19112346
-0.04568614
-0.04225651
-0.06194834
-0.09033404
0.06127747
-0.17026666
0.00397069
0.18306009
0.15953980
-0.02411579
0.02486250
0.11648920
-0.03955580
0.11788929
0.00394438
0.16939339
0.09004125
-0.11304686
0.10971062
0.29215232
0.04571729
0.06478105
-0.16353031
0.02559303
0.03020677
0.04902129
-0.12591954
0.03984854
-0.02961093
0.07129673
0.21237399
-0.09955669
-0.05121589
-0.04678831
0.05254726
-0.13398756
-0.21108024
0.28058085
0.11558218
0.14546783
-0.11451613
0.15954097
0.08544353
-0.02830395
-0.09092309
0.10379396
-0.06434328
0.59042561
-0.00975466
0.20184384
0.07794297
0.03180437
-0.04368150
-0.17368217
0.08822937
0.07624792
-0.16722946
0.10494564
-0.04192296
-0.02392310
0.08320701
0.02060843
0.01972969
0.10336158
0.05722361
-0.04398139
0.07365980
0.26241130
-0.02793506
-0.05105162
-0.24752063
-0.04888045
0.03609911
-0.05403773
0.08871230
0.19613275
-0.08299731
-0.08540219
0.04206691
0.07370036
0.03522631
-0.04582798
-0.05628203
-0.11548317
-0.00099086
0.00286310
0.05555601
0.06610014
-0.16984800
0.23760349
-0.02726540
0.19728689
-0.02090607
-0.21107173
0.05889941
0.02896877
0.34414724
0.06098535
0.04589373
-0.00312229
0.13306706
0.14968231
0.19865146
0.26387933
0.18443353
-0.02287728
0.00047043
0.06596172
-0.13033417
-0.14907122
0.15277739
-0.24030963
0.01877565
0.09330207
0.06057679
0.05193694
0.02589715
-0.24066329
-0.43044198
0.16071449
0.02516146
0.16529895
0.10577454
0.17749521
-0.03774606
-0.27030587
-0.06508475
-0.28600702
-0.06861652
0.02325254
0.06963345
-0.14015739
0.04428991
-0.03548999
0.10600912
0.02650575
0.19736712
0.07082080
-0.00272706
-0.02017509
0.03378855
0.06970403
0.04428828
0.25274158
0.12722401
-0.06453568
-0.04121997
-0.05791188
-0.15570866
-0.06606720
0.02642300
-0.01325266
-0.09313732
-0.14537357
0.01970157
0.00046648
0.02317409
0.05578039
0.10249595
-0.07396659
-0.00777245
0.06475881
0.06812127
0.07988343
-0.00917801
0.09515075
0.14505215
0.14660865
0.07492410
0.04976647
-0.10543448
-0.00601547
0.26730821
