0.02100155
0.13568935
-0.04568083
0.26809716
-0.07075691
-0.04012820
-0.03060759
0.16061580
-0.00707939
0.11272754
0.16808687
-0.18548103
0.30231589
-0.03438203
-0.16878122
0.02008521
-0.00833526
-0.05973354
-0.05540899
-0.12378278
0.39709428
0.11461818
-0.03072970
0.27338582
-0.28508851
0.02429356
0.04902054
0.03867011
0.01766964
0.07247075
0.17567316
0.12465373
0.10767489
0.17210717
0.30411774
0.07863809
-0.11935558
0.00529641
0.09441081
-0.11210458
0.15928195
0.10422990
0.00569660
0.22479337
0.14282356
-0.00635508
0.19763534
0.00792644
0.08732691
-0.09600215
-0.21729530
-0.03361764
-0.18402721
-0.08721772
0.17495506
-0.17103285
-0.08799921
0.10886514
0.00969903
0.25485879
0.30138615
0.24973847
0.16161957
0.12284733
-0.14993219
0.16650759
0.07717138
0.19872823
-0.10831672
-0.10062289
0.23818927
-0.02458181
0.00542622
0.08006161
0.02450533
0.30976251
0.06379355
0.07645379
-0.03530390
-0.03932416
0.25165167
0.10992473
0.04052852
0.09129333
-0.09174202
-0.14038922
0.02058646
0.30238762
-0.08117971
0.08453289
0.22792071
0.09040127
0.07052026
-0.07858030
-0.07917915
-0.13596009
-0.00001106
-0.12726943
-0.02112953
0.02406917
0.07051419
-0.08732934
0.19322494
-0.06555355
0.00261206
0.01038046
0.07310868
0.09094712
0.33369216
0.35737649
0.08171038
-0.08222070
0.02814749
0.17736647
-0.25592390
0.29477969
-0.10993052
-0.18900378
-0.09827758
0.06743786
-0.00601834
0.03616671
0.02962066
-0.07739279
-0.49514171
0.06499124
-0.04618945
0.17357072
0.12149260
0.13518368
0.22355784
0.09677132
0.23233309
0.10189862
0.20399782
-0.08535645
0.10404053
-0.10422843
0.32999706
-0.05593704
0.32283857
-0.00096619
-0.03719451
0.07057827
0.04436684
0.03901916
-0.02414375
0.20432754
-0.16212586
-0.00568929
0.07158338
0.25256687
0.08698778
-0.06676199
0.05745286
0.23265670
-0.03332664
-0.06189565
0.02167488
-0.04780598
0.12226178
0.04823428
0.21237098
0.25407016
0.06028013
-0.01645932
0.10750110
0.27085853
-0.09998467
0.05033487
-0.11931476
-0.01375862
0.01925492
0.09060126
-0.08392926
0.07143240
0.07007564
0.10741279
-0.01003890
0.05787759
-0.08666534
0.10113902
-0.04914713
0.01096642
-0.08113211
0.21255337
0.17809798
0.08935434
-0.08982261
0.08739126
0.24713610
0.00544017
-0.02338197
0.06690624
0.27057955
0.05063687
-0.13308240
-0.03553547
-0.11462135
0.30474564
0.07107089
-0.09334377
-0.21028601
0.02850653
-0.00499217
-0.08733197
0.01469691
0.17498523
0.01198862
0.08224463
-0.05641883
0.14221863
0.15214024
0.11704809
-0.08461808
-0.05401705
0.06448494
0.13736714
-0.09860995
-0.19619171
-0.01784526
0.02355832
-0.17022578
-0.01094237
-0.12253975
0.09429227
-0.09727588
0.05997191
-0.04762890
-0.09645519
-0.12568745
0.35460255
-0.22431017
0.01615467
0.22667103
0.05359828
0.06500509
0.21499220
-0.06392661
0.06689094
0.16252673
0.02380065
0.05432782
0.04066771
-0.09709937
0.09136342
0.14144036
-0.01675079
-0.05800517
-0.28689185
-0.14055184
0.26388013
0.24194740
0.09482970
0.05180658
0.10392858
-0.00276795
0.12471275
0.01377612
-0.08139221
-0.14314571
0.06544721
0.09093629
0.07312032
-0.22714369
0.24632041
-0.01144629
0.24298047
0.09757841
0.05084950
0.10203470
0.08431052
-0.02406189
-0.02109872
-0.01953568
-0.10230855
0.03409269
0.08922414
-0.06528495
0.28089613
0.01362188
0.20238027
0.16323031
-0.01140131
0.02182393
-0.19262695
0.01798814
0.11374568
-0.05625109
-0.35653263
-0.14723845
-0.15141207
0.17877777
0.02463916
-0.09906902
0.04216393
0.02069646
0.00753981
0.15120940
0.11996881
-0.07480159
-0.00532942
0.21329032
0.14435895
0.00050765
0.10810946
-0.34774506
-0.09032380
-0.26521733
-0.06683620
-0.06641408
0.27958316
-0.09870807
0.39388880
0.06965924
-0.07537413
-0.01626507
0.22476748
0.06511374
0.18578598
0.10704281
-0.00578865
-0.00374319
0.11317504
0.08904540
-0.02383021
-0.12191073
-0.08675934
-0.10279105
-0.16213876
-0.02103896
0.34623697
0.28815657
0.04737251
-0.22478029
0.06260533
-0.09915252
0.10178307
0.09200961
0.29757997
0.15625900
-0.03643826
0.20586349
-0.04950076
-0.03785241
0.07797802
0.17990343
-0.01713826
-0.04658349
0.13306405
0.11146683
-0.04500873
-0.05806162
-0.15794285
0.02423860
0.14008507
0.11010183
0.21995176
-0.10962444
-0.31168827
-0.00224287
-0.08367570
-0.02376596
-0.01492172
-0.02047805
-0.03167769
-0.12649682
0.01375436
-0.13988708
0.07088303
0.17804991
0.18294407
-0.10386363
-0.00640856
-0.15633897
0.01891654
-0.02793354
0.09079637
-0.02081701
-0.06857980
-0.12339481
0.03022965
-0.02308971
0.06722564
-0.15199104
-0.13187511
-0.06170588
-0.05796086
0.16548267
-0.04230739
-0.08724575
-0.30205092
-0.11511954
-0.21988684
0.08974576
-0.05726953
-0.02974061
-0.11712165
0.14475147
-0.14545973
0.00312686
-0.28938773
0.32179108
-0.04279139
0.04709536
0.07979485
0.11357193
-0.19386064
0.18828733
0.11902881
-0.17162751
0.18876004
0.04718859
-0.00441574
0.10893939
0.23620519
-0.21343245
0.05820258
-0.00254458
0.10570917
-0.03025388
0.15708879
-0.12058487
0.34662858
-0.21706167
-0.00296740
-0.10227351
0.06178266
0.18488638
0.26885912
0.04465368
0.03250970
-0.40856287
0.00639136
-0.08059999
-0.02538679
-0.03406035
0.10764742
-0.01486113
0.20670271
-0.03042391
0.01444426
0.17219220
-0.25676122
-0.16122472
0.16306235
-0.05519797
0.22472419
0.16370468
0.00329269
-0.18598357
0.09850281
0.05830722
-0.09446735
0.25293437
-0.09953856
-0.08960254
-0.15662061
-0.11692025
-0.34234735
0.19409643
-0.06091391
0.25697333
-0.02976700
0.04410520
0.08969140
0.15855522
0.13052320
0.14357994
-0.05460960
0.03953074
0.10440807
0.12107734
0.07561593
-0.13914813
0.08194313
0.03274389
-0.00929276
-0.02585045
-0.14151706
0.02901845
0.29887724
0.20195223
-0.02998080
0.22861609
0.04865636
-0.13710512
0.04100860
0.30743349
0.19350560
0.14461297
0.03670776
0.07404927
0.13409950
0.22489676
0.09389864
0.09067272
-0.12383230
0.19246772
-0.04762496
0.00025434
0.15130612
0.01272986
0.04116499
0.13079683
0.02594369
0.19817625
0.32233590
0.19767304
-0.18278560
0.16887933
-0.12418981
-0.11097091
-0.25953805
0.13823803
0.12534253
-0.11941805
0.05698513
-0.09754597
-0.12827852
0.01357863
-0.11312778
0.01124341
-0.03222598
0.14978281
0.04369963
0.02323455
0.23537180
-0.02453666
-0.03277657
0.11550505
0.14843825
-0.00584033
-0.09692963
0.20117314
0.14429887
0.09322184
0.11117314
0.07932650
0.13677818
0.01960769
-0.13398483
0.04236906
0.24938314
-0.00338712
0.04325360
0.11854199
0.09359857
-0.06046438
0.07121371
0.17277128
-0.09297194
0.13631444
-0.14970832
-0.37331676
-0.02877712
-0.08000759
-0.07035358
-0.14899345
0.13884787
0.12181197
-0.31676060
-0.12183969
0.17352283
-0.03085401
-0.07458868
-0.05233683
0.19480398
0.03398566
-0.12421786
-0.00777219
0.09829448
0.16570689
-0.13067119
0.09068099
0.07756409
0.12651783
-0.09218376
-0.00489757
0.26158735
0.27419573
0.20110463
0.30471495
-0.09399398
-0.08129863
-0.04228359
0.04417633
0.17227189
-0.01628649
-0.32018226
0.18807004
-0.19603388
-0.02852095
0.02669239
0.07345929
-0.10057658
0.10068264
-0.03508503
-0.21119051
-0.05118487
-0.18670136
-0.01289743
-0.06700224
-0.18302587
0.02289321
0.00925500
0.03567180
0.03512619
0.20719665
-0.23169887
0.14210136
0.05664949
-0.02822954
0.01034818
0.04572866
-0.06858210
0.03522171
-0.24906419
-0.10138348
-0.21272692
-0.14622328
0.08717415
0.45628420
0.08501624
0.00913680
0.11627881
0.09874036
0.05819163
0.04389741
-0.03942141
0.01380102
0.13109103
0.22469495
-0.01981508
0.10614718
0.26168397
-0.21129994
0.00255024
0.23526786
0.01221673
0.14400409
-0.02508395
-0.17028873
0.11261111
0.13690007
-0.09505682
0.00574856
0.15827367
-0.14743669
-0.02341451
-0.03732353
0.08897522
-0.07252074
0.17207995
-0.01616709
-0.00118801
-0.07134347
-0.16243851
0.12562650
-0.00237023
-0.01790382
-0.08173985
0.00140395
-0.09425115
0.05007121
-0.05965424
0.03275734
-0.06317131
-0.03758844
0.20303290
-0.00279683
0.00139307
0.05690318
-0.14197657
0.39467016
0.04745911
-0.13364553
0.12322337
-0.04007027
0.18539467
-0.04850296
-0.13352893
0.12755500
0.08735688
-0.03004747
-0.03775825
0.03144329
0.13779035
-0.15331706
-0.26190045
0.03105545
0.09397256
-0.12317890
0.02031567
-0.14364089
0.08158219
0.02758385
0.15978526
-0.01989680
0.15712093
0.16177928
-0.10152615
0.07409472
0.08719309
0.02716091
-0.02523299
0.09457090
0.35503313
0.18934165
0.08035937
0.03543402
0.13363808
-0.00758484
0.10989752
-0.06739645
-0.34309855
-0.01395528
0.11887373
-0.11993498
0.07923833
0.06686557
-0.07438464
0.17567171
-0.09403685
0.15413417
0.08233695
-0.21658635
-0.04016560
0.06845768
0.17011569
-0.21892773
-0.00407348
0.13642946
-0.13778934
0.22179492
0.16832188
0.27043328
-0.12790720
0.13110270
0.06275044
-0.40971771
0.13279347
0.25304627
-0.29913798
0.25174558
-0.00099804
0.13393576
0.24721502
0.01408793
0.16070510
0.27158535
-0.03092049
-0.03873108
-0.02417291
-0.03976461
-0.05266533
0.14547230
0.14057305
0.03698209
-0.07846397
0.08646695
0.06698414
0.20577458
0.26725075
0.15163779
-0.03578494
-0.00841437
-0.06014056
-0.02501256
0.06198474
0.23692809
-0.06364375
-0.04461371
0.05219554
0.09857269
-0.02768616
-0.10697390
0.04988902
0.21093006
0.19120617
0.12150089
-0.16474444
0.01391998
-0.20406289
0.23027170
0.07728194
-0.00836012
0.09021142
0.14414930
-0.11189789
-0.07167985
0.02947427
-0.28679255
-0.10056097
-0.13185628
-0.06686410
-0.02826632
-0.13626207
-0.05443823
-0.03614049
0.16001126
-0.21510112
0.26623899
-0.01276596
0.07167203
-0.11088220
-0.00949995
-0.20389004
-0.02173715
0.16601972
-0.39249453
0.12386385
-0.26321754
0.03272323
0.03927521
0.08328731
0.22101924
0.05349482
0.26220301
0.01094656
-0.23019706
-0.07764214
0.18499303
0.02268588
0.21794353
0.07265274
0.07587804
-0.07171234
-0.04894613
0.18035713
-0.12761842
-0.00057929
0.02763700
-0.02225081
0.14665331
0.14871158
-0.03428493
0.00374616
0.01600604
-0.17685761
0.01287408
0.10861842
-0.03743187
0.21412462
0.33986861
0.29613549
0.13807704
0.16313781
-0.14741953
0.07048518
0.12332974
-0.12489186
0.12254434
-0.01031234
-0.17937116
0.19101062
-0.29195762
0.18525791
-0.14550808
0.15850763
-0.01416723
0.15258378
-0.19133355
-0.23401731
0.20139970
0.12204351
-0.13651609
0.19396605
0.12026447
0.15269659
0.13327302
0.18598799
-0.18506348
-0.25309575
0.05599496
0.02891612
-0.03813859
-0.02897333
-0.09738769
-0.15191348
0.16605584
0.02883589
0.11623076
0.00584354
-0.03272454
0.08972204
0.14754969
-0.00969332
-0.03209514
-0.08017053
-0.01932100
0.13029274
0.14413847
0.16490296
0.10540072
0.19594924
0.06292736
-0.19986995
-0.06580035
-0.05440846
-0.07584066
0.01405551
0.08529641
-0.11214542
0.03041163
0.33210075
-0.23783782
0.06285022
0.18158644
-0.07144649
0.00855555
0.33702418
0.07530829
0.15736191
0.12077622
-0.18882485
0.03170990
-0.10304058
0.01107001
0.06953687
0.00653929
-0.21224400
0.30226183
0.05658935
-0.04834037
-0.03872708
0.11926825
0.05421954
-0.15290976
-0.18954396
-0.06488062
-0.09682650
-0.12898789
-0.10225860
0.07192694
0.16767249
-0.01859184
0.01916948
-0.11865179
0.05545466
0.05470053
0.25534588
-0.08846591
0.00372713
-0.17617956
0.10143159
0.05059322
0.03406047
0.01591153
0.21747902
0.18411744
-0.14233451
-0.18219988
0.06814433
0.11965916
0.14625944
-0.11431028
-0.01376850
-0.08238139
-0.03405289
0.02907869
0.04347246
-0.06015848
-0.26039737
0.25614065
0.08737195
-0.15271062
0.17337714
-0.03283813
0.12263671
0.10167431
0.03643256
-0.12899308
0.07986832
-0.10393065
-0.07626921
0.10835701
-0.17349762
0.08009876
-0.07430093
0.04371019
0.06824811
0.17563277
-0.14466974
-0.08889488
-0.05410624
-0.05553262
0.23766087
-0.02644480
0.09568299
-0.14318457
-0.02021624
0.11330681
0.17157659
0.00310767
-0.13587774
0.22577801
-0.17028086
-0.19799477
-0.07801805
0.18327691
-0.03411805
-0.08715779
0.11709564
-0.13080810
-0.22083290
-0.12394135
-0.07768790
0.08060309
-0.07493006
-0.11242906
0.18975742
0.09631636
0.11173485
0.30629849
0.02996062
-0.23235472
0.00806230
0.12360892
0.16871436
0.03824426
-0.00086977
0.00636819
-0.28117642
-0.02867888
-0.13839829
-0.02223273
-0.20373324
0.20425066
0.05438733
-0.00526602
0.24162699
-0.01592202
0.08160836
0.26558587
-0.05506088
-0.01209446
-0.19819811
0.06580522
0.05155934
-0.12581840
-0.06992608
-0.13861915
0.02924876
-0.03545260
0.01110684
0.02364618
0.02572638
-0.09606818
-0.12173924
0.11998493
0.08433863
-0.42433706
-0.13308935
-0.09077612
-0.11425304
0.09123864
0.05384647
0.06064051
0.05133527
0.08681236
0.08461382
-0.13088927
0.11309754
0.15390669
0.26350772
0.02348183
0.17231970
0.06341189
-0.13085327
0.04873813
0.01495879
-0.12460224
0.24106285
0.03230212
0.11099783
0.10069957
0.04126175
0.12109814
-0.06625448
-0.06899634
0.17532420
0.11491559
-0.08768113
0.04108374
0.13204862
0.11169250
0.15466510
-0.03764939
-0.14408934
0.20128955
-0.03874016
-0.20084378
-0.25819102
0.19702256
-0.02237177
-0.06775440
-0.11762165
0.03804972
-0.16045344
-0.21775855
-0.11200526
0.01611088
0.04220986
-0.26479691
-0.14455014
-0.26870629
-0.26134998
0.05494596
0.10563776
0.07668988
0.07904503
0.06019278
0.10663743
-0.12826130
0.06371762
0.29121348
0.17992350
0.17882243
-0.16888866
-0.26578069
0.18046664
0.18294504
-0.07029050
0.00251187
0.06526347
0.23108976
0.05236443
-0.04512694
-0.06181153
-0.07561358
0.10830402
0.07889728
0.11427738
0.24631749
-0.04950023
-0.15940984
0.02936587
0.11671299
-0.11825278
-0.12888989
-0.15932639
0.14262486
-0.07438049
0.32444489
0.09125543
0.02533160
-0.05105326
-0.09185553
-0.23667729
0.18413660
0.17006917
0.05293377
-0.24223088
0.05319946
0.02427375
-0.01647439
-0.03703386
0.20843196
-0.07240422
0.00160324
-0.06933466
0.13141523
-0.01928326
-0.00273547
0.02352235
-0.00306479
-0.26611829
-0.08874581
0.07192601
0.06763881
0.05408033
0.08426768
0.01166252
0.11020171
-0.10891833
0.02614521
-0.09606458
-0.03281176
-0.00736139
0.06463520
-0.00262528
0.27799344
0.07870875
0.10152446
0.05984638
-0.02438710
0.06329012
0.05515856
0.07367474
0.17503390
0.06085989
0.21661288
-0.11711529
0.10515439
-0.15570311
0.07922880
-0.00706628
-0.03889046
-0.13829124
0.13135982
0.09309174
0.23326761
-0.07746783
-0.08689933
0.12565288
0.10987294
0.05987360
0.04945318
0.20156932
-0.03981103
0.28250268
-0.12135849
0.07650606
-0.05234133
0.05504137
0.00014120
0.17810324
-0.12130613
0.05367977
-0.04638521
0.08667060
0.15428710
0.14189652
0.00831063
-0.09992979
-0.04042646
0.08301103
0.11648297
-0.29011282
0.11885444
-0.11751879
0.26436439
0.05716753
0.03418760
0.12532386
0.18135430
-0.04028990
-0.05240518
0.11173327
-0.03333790
0.08447611
-0.19860414
-0.07294452
-0.00865118
-0.18080616
0.10829914
0.18565464
-0.21357441
0.05377274
0.06956202
0.08283185
0.20364401
0.06234778
0.21766303
0.30851540
0.00779593
0.14521335
-0.09182339
0.17137170
-0.11567601
-0.21079677
0.12393502
0.02962479
-0.23014216
0.13845696
-0.10673342
0.00838726
0.04749104
0.10033008
-0.15081014
0.19456862
0.06608265
-0.04727473
-0.18951637
0.25938612
0.00716029
0.07143823
-0.02077155
-0.03965121
0.12672120
0.10400069
-0.12747580
0.14680961
-0.09675387
-0.01058551
0.05048110
-0.14517778
-0.12934370
0.08598425
-0.20876248
-0.12965487
0.16337682
-0.01172767
-0.10990594
-0.08003895
0.14415482
0.26935235
0.28461114
0.09095003
-0.13666418
-0.17447397
0.12626015
0.06324171
0.05334807
-0.00627583
-0.02513191
0.12715417
0.24876583
-0.01173579
0.04402004
0.03930253
-0.03212350
-0.03628254
0.04273551
-0.05222096
-0.16105507
-0.02454984
0.00424274
0.27658001
0.15525717
-0.03962649
-0.01337420
0.11688520
0.17800604
0.04553424
0.13429235
-0.00835960
0.22978541
-0.01930464
0.03772463
0.07271210
0.13400689
0.12616299
-0.03044359
-0.10725672
-0.17199600
-0.13929036
0.00035611
-0.12916718
0.02553086
-0.15733863
-0.03809614
0.00845026
0.01188428
-0.26023144
-0.00475469
-0.05922976
0.12651077
0.16328225
-0.17496449
0.10957136
0.02304298
-0.24033037
0.12815766
0.06204050
-0.11237551
-0.17730464
-0.15875784
0.21217148
-0.04808912
-0.02234498
0.03385293
0.10452007
0.09048450
0.16217594
-0.30216360
0.02328274
-0.43047148
0.11225236
0.31414640
0.23940592
-0.00825942
0.04028013
-0.01900132
0.09699918
-0.41762322
-0.02360985
-0.05703072
-0.08139567
-0.02298771
0.17426352
-0.06857699
-0.09908432
-0.03502047
-0.13962433
-0.04274010
0.13445607
0.16701189
-0.08083354
0.09378296
-0.01509813
0.03200286
0.25387228
0.17748660
0.18496478
0.06989381
0.12702167
0.05238688
-0.18057962
0.22503273
-0.19935887
0.14088069
-0.27876687
0.15572613
0.21599326
-0.12071118
-0.02097911
-0.09352861
-0.13004181
-0.20694706
-0.04990530
0.24077778
0.12877671
-0.00050867
0.11536147
-0.07286896
0.29853791
0.04541068
0.02282442
0.01023867
0.00617307
-0.08712379
0.14740305
0.29960030
-0.06068576
0.00223702
0.01506273
-0.08976103
-0.02456949
0.06271895
-0.01076195
0.41023159
0.14478053
0.24151607
0.18760948
0.30012786
0.14692378
0.11634909
-0.13713929
0.20965253
-0.00370179
0.17194106
0.05611952
0.31419384
0.04455559
-0.03525656
-0.04402943
0.21249746
0.24974702
-0.02292680
0.09506087
-0.12506843
-0.09290098
0.15194432
0.13583390
0.09788841
0.23807907
0.13311364
-0.09992626
-0.02698658
-0.16875724
-0.15383208
0.26444873
-0.05023432
-0.11182059
-0.14685987
-0.14145833
0.19525038
0.15971860
0.07572355
-0.18087922
0.37173232
-0.17397727
-0.06049917
-0.05652876
-0.07384329
0.03329636
-0.05529284
-0.02901584
-0.05338434
-0.07873701
0.22758071
-0.13864525
-0.05641884
0.09557045
0.01340192
0.20316724
-0.05253227
0.26151451
0.00810330
0.12493868
-0.16289657
0.17049737
0.09241036
-0.00852339
0.03342057
0.22470419
0.22752944
0.22984312
-0.07047166
-0.00628274
-0.16268894
0.16556025
0.11859043
0.11107077
-0.07970238
-0.28625304
-0.09077839
0.05732611
0.10352937
-0.07868370
0.01251572
0.05003235
0.12921342
0.31815097
-0.01846009
0.10688704
0.04205308
0.21045682
0.07124206
0.00688679
-0.04268256
-0.11908300
0.06375948
0.04640341
-0.06817444
0.08706031
-0.06841308
0.05500073
0.15172009
0.10118991
0.26251239
0.23683657
0.04741026
-0.11469730
0.05942537
0.00599461
0.09162477
0.05932891
-0.09451146
0.11998301
0.07086559
0.13716307
-0.10736401
-0.05858753
0.22116849
0.13849498
-0.13825840
0.15221038
0.11890240
-0.03997246
-0.01879189
0.13932295
-0.04597426
0.03064944
0.05683845
0.15319581
0.04808534
-0.08290897
0.06576431
0.09843152
-0.05980951
0.11372026
0.15552533
-0.01826748
-0.07296025
-0.13607812
0.20256184
0.33438012
-0.08813374
-0.03111971
-0.13081999
-0.07328105
-0.10198452
0.05970824
-0.17241047
0.04917674
-0.11978842
0.23116642
-0.11073829
0.25651032
0.19864795
0.03022267
0.04925755
-0.03754757
0.00217675
-0.04769664
-0.00451446
0.19614021
0.26975542
0.24529505
-0.18820405
-0.13396443
-0.06319021
0.16527227
0.08726508
0.18472917
0.09160082
-0.04634514
-0.10457242
0.02885490
-0.00268690
0.12932006
0.17392051
-0.15295908
0.19954744
0.00693034
0.09254235
-0.17467414
-0.17404771
0.15467551
-0.00652486
0.11668687
-0.09315553
0.10582765
0.18376805
-0.05562421
0.01220141
0.18219008
-0.07353047
-0.09601516
-0.17834231
0.29750794
0.12755175
0.18488903
-0.01165352
-0.06603587
0.10015518
0.35368049
-0.11799031
0.08910537
0.20329206
0.04840695
-0.22688653
0.06756286
0.28535435
0.03079096
-0.05903831
-0.02145533
0.20305069
0.13968152
-0.05814873
0.05882882
-0.02956411
-0.06281616
-0.07286748
0.15270120
-0.19790691
-0.04363929
0.12703021
-0.08388133
0.11651269
-0.12734003
0.23849103
-0.02493108
-0.15027814
0.18119898
0.15020201
0.11623643
0.04729836
0.05808346
0.05863779
0.21777554
0.30242926
0.23167990
0.09716739
0.14072575
-0.09324634
-0.23900501
0.24778436
0.06461187
-0.09686298
-0.12072259
-0.16410328
-0.05159056
0.19456820
0.18404175
0.04159874
0.21210089
0.00856475
0.03382740
0.01762690
-0.04095014
0.06267767
0.00740785
-0.12783003
-0.01060394
-0.00834907
0.20505629
0.14119211
0.16434246
-0.03067425
-0.03887526
-0.12506978
-0.01480448
0.14028540
0.00100369
-0.10197798
-0.02634701
0.22430606
0.02504719
0.06387850
0.06384122
0.20109700
0.09911931
-0.33958578
0.19710945
0.15367937
0.04907586
0.10603759
-0.06169715
0.11155985
0.03459319
0.08531144
-0.06513652
-0.13587570
0.22645424
0.06128748
-0.01424246
-0.21081401
0.12375956
0.18696919
0.08299779
0.34128368
-0.09211381
0.05203731
0.16549569
0.22634894
-0.15786040
0.05042055
-0.19994870
-0.12990473
0.05817648
0.02544045
0.30547592
0.08053174
-0.17013703
-0.04647199
0.06391118
0.00722321
0.13136731
0.06704991
-0.18737732
0.10675608
0.22985795
-0.09959535
0.18519777
0.10295353
-0.04318269
0.28199086
-0.12677999
-0.07979059
-0.10275840
0.15677525
0.10934877
-0.12539646
0.05654675
0.26271719
0.14681675
0.09388488
-0.07213938
-0.14120552
0.12061197
0.07899618
-0.07127900
-0.11187346
-0.13006896
0.09159895
0.17926858
-0.16437472
-0.11104096
0.21431632
0.09426262
-0.23720193
0.09385316
0.01426550
0.23830521
0.01456654
0.19671439
0.04227521
0.01763204
0.20295650
0.06798077
-0.00823985
0.18534656
-0.11591983
0.16120917
-0.02690185
-0.14447141
-0.02110576
0.13847876
0.14777207
-0.00239947
0.05452346
0.11876961
-0.09721074
0.14962599
-0.07303951
0.24227911
-0.17637758
0.10837822
-0.17930923
-0.16681613
0.17582671
0.11436060
-0.05387217
0.15824504
0.14351624
0.14712673
0.10204127
-0.26249611
-0.05172845
0.11695472
-0.05896001
-0.01605729
-0.20537753
0.20959716
0.17353202
-0.06854293
-0.10682626
0.04788211
-0.12535007
-0.05651648
0.18622641
0.01325550
0.07548530
0.23121300
0.28903267
0.22355264
0.01414740
-0.17750105
0.22733472
-0.22554797
0.08926567
0.13571967
-0.11408559
0.08460358
0.10739677
-0.23112039
0.05641785
0.00163805
0.30457190
0.25551841
-0.01955102
-0.27721480
-0.20938593
0.26611748
0.31995735
0.01555573
-0.26690412
0.07712801
-0.20022132
0.22671814
-0.36998728
-0.02533022
-0.11633241
0.08364525
0.06291691
0.13275671
-0.19264311
0.19313084
0.04463683
-0.23528793
0.10701362
0.08452996
-0.10141201
0.03351520
0.21637648
0.05124976
-0.01243779
0.00811127
-0.05519629
0.00494261
-0.14531478
-0.08980911
-0.08907366
-0.12199089
-0.09929842
0.03238956
-0.21417804
0.04813715
0.28894022
0.25123909
-0.03833143
-0.01476240
0.07652266
-0.02554714
0.15101217
-0.00492619
0.28331617
0.20599321
-0.25643000
0.09434366
0.37346506
-0.05237036
-0.02960779
-0.16988634
0.06157797
0.08021882
0.03791860
-0.24220835
0.04732872
-0.04407777
0.11113133
0.08208717
-0.14145543
0.03334349
-0.06824235
0.02318353
-0.11727033
-0.22673938
0.22978258
0.16253108
0.25671935
-0.12931198
0.16685809
0.10035747
-0.03986013
-0.06740317
0.20857997
-0.08632092
0.50932282
-0.00005508
0.30375215
0.10653185
-0.08321743
-0.07310271
-0.24668704
0.03123759
0.11467008
-0.05490611
0.09336547
-0.02292898
-0.02709997
0.08839765
0.04009610
0.08062963
0.14770813
0.14338996
0.00899466
0.10171776
0.20972054
-0.06812638
0.01866940
-0.21319281
-0.14911871
-0.00248067
-0.08784617
-0.04880124
0.23134857
-0.08939105
-0.09174130
0.01033011
0.08520910
0.01131750
-0.11494689
-0.02185798
-0.23191966
-0.08611988
-0.01477132
-0.00984851
0.13663383
-0.11509138
0.26384175
-0.01755910
0.23118629
-0.05850033
-0.22826891
0.05565732
0.05584334
0.42644250
0.16493720
0.06521033
-0.02576797
0.18099241
0.17293474
0.31887040
0.16795480
0.24158661
-0.01655542
-0.02527790
0.05483244
-0.18498521
-0.09789386
0.16782190
-0.10640360
-0.00586775
0.07630897
0.08309876
0.03798052
0.05731173
-0.20852247
-0.25786203
0.11703502
-0.00491430
0.07510941
0.16275631
0.14655516
-0.07615038
-0.20830755
-0.07388296
-0.29623029
-0.09158837
-0.00345121
0.01452491
-0.12521483
0.03199193
-0.06879435
0.07653683
0.04983125
0.25459597
0.05188847
-0.04405246
-0.00854567
0.08195336
0.08534499
-0.01662881
0.26530641
0.27982804
-0.07433175
-0.05684999
-0.11319317
-0.22038406
-0.01623591
0.02233811
-0.01898705
-0.10924751
-0.02016024
0.06143913
0.00349357
-0.00363052
0.04399654
0.08597560
-0.11544665
-0.03490205
0.06435924
0.05077991
0.06907257
-0.00608920
0.10826754
0.13909157
0.23610295
0.06092407
0.02741631
-0.08817943
0.02530439
0.35967690
