-0.31970337
-0.04725320
-0.22719982
-0.00710354
0.32410184
0.02865700
-0.19113781
0.42555845
0.21830375
0.53826809
0.42780241
-0.16968076
0.15694579
-0.20721966
-0.29519206
0.28780708
0.03682686
0.37089729
-0.13457659
-0.25250891
-0.05531680
0.12360436
-0.22057268
0.20978829
-0.12960573
-0.20202377
-0.06457072
0.24447085
-0.24725270
0.37025058
0.22626078
-0.05673279
0.08353614
0.18247029
-0.19063616
0.06833218
0.03368587
0.06555941
0.33419579
-0.02882170
0.21924308
0.14084609
0.05872247
-0.18432820
0.31138462
-0.12076861
-0.07164983
0.20388193
0.29717577
-0.16717924
-0.16132018
-0.28705379
0.24319446
-0.14343634
0.20691502
-0.02975753
-0.20470653
-0.01052107
0.08609883
-0.35545054
-0.15927605
-0.22602987
-0.10707629
0.17582318
0.07435366
0.13959423
-0.04670340
-0.04872042
0.61370558
-0.33905295
0.36852536
-0.16998237
0.03976720
0.02044102
0.14097100
0.24983209
-0.12898770
0.11810976
0.29889554
-0.14163643
0.32243755
0.17575809
-0.27571151
-0.26333988
-0.42804772
0.19364125
0.21087672
0.30037552
0.04860860
-0.33133841
0.21968307
-0.10981482
-0.24063505
-0.07814229
0.04911041
-0.38372046
-0.13321885
-0.25543922
0.05144427
0.33308998
0.06181411
-0.35792643
0.10678998
0.08166622
0.18491609
-0.16956162
0.01299781
0.22245044
-0.10563224
-0.26294014
0.13585278
-0.27132544
-0.23434570
0.19887035
-0.25647563
0.03174328
-0.25511900
-0.15346250
-0.15854146
0.12367710
-0.11587542
0.07040367
-0.13880324
-0.10713194
-0.60332286
0.01411963
-0.36611319
-0.19558287
-0.03545005
0.05540151
0.08080639
0.29653454
0.18213595
-0.14487895
0.06309129
-0.00569461
-0.04454085
0.26248276
-0.05243330
0.18300264
0.29898870
0.09271564
0.36865446
-0.11261384
0.07077891
0.26848754
-0.33771446
0.13604559
-0.35994479
0.34383956
0.26423296
-0.13004296
0.09381071
-0.07625415
-0.10909769
0.12138437
0.13571663
-0.11923812
0.32142994
0.50320572
0.02276167
0.01932373
0.14873311
-0.06885663
0.09402236
0.35640407
-0.14506887
0.20422654
0.23963542
0.34515020
0.03342396
-0.14095643
0.09684002
-0.06155954
-0.30227584
0.23516172
0.02048263
0.53096133
0.04533890
-0.23455310
-0.06571346
-0.34288883
0.04338330
-0.08886372
0.53893679
0.29350698
0.24983265
-0.02017979
-0.36452577
0.35554013
-0.12483055
-0.23558062
0.49064928
0.16019288
0.52434063
0.11702505
-0.03879971
-0.27534282
-0.03502022
0.30298233
0.02902305
-0.01064665
-0.35640737
-0.22565325
0.23175658
0.00789872
0.35685897
0.14238816
0.06999959
0.01887140
-0.07495787
0.14644249
0.15705618
0.03524289
0.03151903
0.26694104
0.16816118
0.14275886
-0.01224372
-0.13211925
0.14573002
-0.15171100
-0.08283664
-0.37470913
0.17713627
0.35680574
0.34642562
0.30557355
0.00207420
0.32987779
-0.12931655
-0.05466299
-0.35180333
0.11225935
0.28342193
-0.19304679
0.13239695
0.05648334
-0.11697014
-0.28499636
0.14853792
-0.49349090
-0.24861683
-0.24560109
0.25496721
-0.05639524
-0.00767937
0.18555832
0.24734686
0.26244849
-0.06749061
0.05751876
0.19658467
-0.27737495
-0.05761823
0.23476681
0.14384224
0.34361711
-0.02408490
-0.21247220
0.02232786
-0.08072483
-0.10614279
-0.26076701
0.07971749
0.05502332
-0.26687840
0.17740262
0.07947761
-0.01387868
-0.05813143
0.24995705
-0.39992619
0.11309892
0.12903790
-0.20064764
-0.13266200
0.39889285
-0.01197701
-0.13501295
-0.31172657
0.05041949
0.00806929
0.16640516
-0.43788937
-0.60285616
0.08823411
0.04463676
0.01213227
-0.08091283
-0.03639299
-0.35731637
0.15244292
0.38323662
0.08478682
-0.01593299
0.16663311
-0.01975346
0.16123673
0.04534186
-0.17785433
0.33591783
0.12989202
0.18399934
0.13279483
0.01729620
-0.01970183
-0.15279287
0.12476012
-0.37022635
-0.06200212
-0.09216545
-0.13513653
-0.28429276
0.09598662
0.27678841
0.13687962
0.06242196
-0.06262974
-0.01874623
0.29676977
-0.44852662
0.10786200
-0.21227765
-0.29287815
-0.30367208
-0.02602823
0.12114237
0.03731446
-0.25140864
-0.24486934
0.03940570
0.28396794
0.07570235
-0.11020489
0.18348409
-0.14051600
-0.24299073
0.05971320
0.49251312
0.35250416
-0.04450821
0.26100942
-0.06691866
0.16808406
0.18394415
-0.00316778
-0.15236609
0.16453737
0.04780379
0.01870271
-0.32657427
0.05303096
-0.24363360
0.08958177
0.27676040
-0.05713207
0.05757196
0.16533038
0.07622584
-0.03674779
-0.35517928
-0.05811087
0.11166334
0.09500076
-0.05084280
-0.16403298
0.32056740
-0.00669582
0.15987548
0.17421988
0.10288867
0.13920335
0.23412740
0.06968367
0.05867117
0.28496349
0.09571906
-0.13942698
-0.40184391
0.03313383
-0.21780919
-0.01917126
0.16190422
-0.06832629
-0.30789122
0.24474698
-0.08944373
0.22878502
0.11626898
0.29039699
-0.24544744
0.08088558
-0.26214314
0.36857432
0.28804028
-0.12276334
-0.23167078
0.12295265
0.05262893
0.27791759
-0.23432027
-0.05325502
0.13669978
-0.09389744
-0.38829789
-0.10479916
0.09532741
0.00300885
0.21203740
0.22799537
-0.14804249
0.28999698
-0.40773547
-0.01038127
-0.09134150
-0.06086923
0.26224387
0.04453810
0.18568297
0.06697756
0.24067169
-0.26634312
-0.05417205
-0.00831444
-0.31460652
-0.06821288
0.08524818
-0.19280593
0.89640701
-0.38135946
-0.13443118
-0.01988286
-0.19519569
-0.20177557
0.09682722
0.29348639
0.00737740
0.23574783
-0.05548369
-0.44021931
-0.08988892
0.28385413
0.21582733
-0.13989064
-0.23405527
0.18941940
-0.02341226
-0.15687193
0.12451047
-0.09060097
-0.23000057
0.15424803
0.07596327
0.10536966
0.00264222
-0.17666185
-0.31116360
0.07846233
-0.10165835
0.18967821
0.06585152
-0.19937046
0.18909334
0.10906129
0.00739564
0.33128884
-0.07046986
0.02177837
0.05305241
0.05041474
-0.07155002
-0.15473145
-0.00831300
-0.29652593
0.00072212
0.00624614
-0.20611753
-0.17972833
0.01078284
0.17623535
0.05438327
0.09426610
-0.09736950
-0.07514553
0.08178240
-0.25896007
-0.24092016
0.46170136
-0.07176020
-0.05005882
0.20389929
-0.46830395
0.08158498
0.34168431
-0.41727468
0.25942248
0.08099543
0.05752131
0.06883837
-0.12154672
-0.06702020
0.28521717
0.06848501
-0.00908272
-0.00051091
-0.17616659
0.14810318
-0.28190836
0.09083012
-0.37173450
0.21713346
0.01652789
0.09157857
-0.20457849
-0.16689752
-0.37221944
0.31191868
-0.08751001
-0.31085363
0.22641554
-0.29837051
0.10783841
-0.12644570
-0.03019777
-0.00126279
-0.00836781
0.12976088
0.16602829
-0.25115809
-0.03499382
-0.24696508
0.15677695
-0.08210128
-0.13234000
-0.51757503
0.00409533
-0.00074855
-0.22612394
-0.00910151
0.11208045
-0.20222232
-0.15588766
-0.07679842
0.22807854
0.27693605
0.05341497
0.09727642
0.19628860
-0.11493963
-0.13206702
-0.07854161
0.00112396
-0.34603566
-0.29009348
0.25184500
-0.14566566
-0.30154258
0.26185921
0.07227246
0.08657219
-0.05841566
0.08653434
-0.04177467
0.25554726
-0.22375578
-0.14676054
0.02956374
0.18348336
-0.35103378
0.08226619
0.29141149
0.11545353
0.05271017
0.25053629
0.20769078
0.06261071
-0.03799596
-0.07194696
0.08551702
-0.10156114
-0.05086835
0.29919785
-0.13929926
-0.31316197
-0.31175676
-0.10647816
-0.16789092
-0.49814397
-0.12150260
0.06872326
0.01107170
-0.06615057
-0.13817890
-0.12955597
-0.03730585
0.34264886
0.00157522
0.13446018
-0.31536189
0.05437582
-0.34250122
-0.21446259
-0.35425964
0.15412612
0.17746074
0.15119323
-0.06138042
-0.22719103
-0.17719404
0.17343369
0.02744296
-0.05774821
0.12784792
0.16087846
-0.15914673
0.34490186
-0.17269999
0.08774278
-0.03074436
0.02333883
-0.00906887
0.26261601
0.09866916
0.47617057
0.01410540
-0.13956547
0.27404481
0.01810437
-0.15950900
-0.01920290
0.05997085
0.38879997
-0.26609886
0.00703178
0.13039945
-0.10066790
0.34532091
-0.04983310
0.19226079
0.04143719
0.06508727
-0.17201005
0.17059657
0.46720675
0.17680447
-0.18698131
-0.03718346
0.13482121
0.33988258
0.02146376
-0.08991165
-0.10226978
-0.02304656
-0.10166550
-0.20813714
0.10879467
-0.30300900
0.11833846
0.32688269
-0.29784933
-0.01146741
-0.08053420
0.11663892
-0.08570660
0.17143930
-0.42131788
0.08242746
0.00812560
0.21170357
-0.17296700
-0.17803784
0.26323926
-0.28537005
0.48292631
0.05338515
-0.14252129
-0.14779133
-0.17373255
0.08960095
-0.40503511
-0.14801651
0.18229784
0.12184178
-0.00893181
0.13197108
0.09817668
0.07330841
-0.36755097
-0.16154577
0.11186094
-0.15949525
0.10233627
0.45761219
0.05359006
-0.18094312
-0.14829201
0.11224263
0.16964482
0.01392274
0.56342769
-0.21369827
0.37883848
-0.24659885
-0.08335356
0.11834839
0.07316644
0.35424685
-0.26648563
-0.03947689
-0.18203279
-0.03609902
0.08989657
0.22127026
-0.33289793
-0.20192739
-0.12718457
-0.03840314
-0.00613811
0.29288903
0.33678535
-0.06851169
0.04732045
-0.19220956
0.20970917
0.17027509
-0.01959392
0.14614861
0.06307952
-0.34651476
-0.36118883
-0.29917800
0.01941394
-0.50420988
-0.17986396
0.05071987
0.30759117
-0.15639570
-0.15643360
0.06463072
-0.15998746
-0.30033556
0.01194377
0.07238836
-0.10281149
-0.01383798
0.00114276
-0.06662050
-0.13867967
-0.20379663
0.08350099
-0.20120321
0.00126003
0.16635336
0.22925809
-0.14351051
0.19256718
0.36953571
0.04310356
-0.26107588
0.16203457
-0.13002476
-0.01748350
0.06718483
-0.39970064
-0.20057036
-0.13409482
0.10646382
-0.24977812
0.12755479
-0.11887258
0.11012157
0.02200537
-0.24435188
0.41042289
-0.03388243
0.13415863
-0.07564992
-0.34313843
-0.09603553
-0.09710192
-0.05293950
0.07869879
-0.20115677
0.11813990
-0.01594096
-0.16919887
0.47802624
-0.04246628
-0.23785757
-0.46078295
-0.11462130
0.05845219
0.32903886
-0.37039322
-0.04714855
-0.00795386
0.09574767
0.05344411
-0.32143420
-0.10673042
-0.15042262
-0.11783833
-0.19650544
-0.12316082
0.19074324
-0.05986260
-0.03585658
-0.16645651
0.11157165
-0.21061495
0.38476172
-0.17335166
-0.32959315
0.27008191
0.03167905
0.05487445
0.22312045
-0.30573499
0.03284339
0.05413250
-0.17944901
-0.05731630
-0.06344421
-0.22182041
0.32118991
-0.15512867
0.00160451
-0.01424458
0.11105970
0.37210318
-0.18407738
0.15016139
-0.20175911
0.00795190
-0.02601038
0.49237311
-0.03310082
0.14573084
0.21429397
-0.01100584
0.27717713
-0.39705095
0.15690517
0.24407147
-0.17454357
0.13457465
-0.04094002
0.16732889
-0.05834383
0.18428577
0.39397693
-0.03284979
-0.09315909
0.21370864
0.17933717
-0.25388172
0.43694597
-0.15361425
-0.01497091
0.01233768
-0.13792813
0.30155814
0.03228372
0.01981570
-0.04583081
0.09491713
0.09483168
0.24669047
0.11121497
0.03742734
0.20688528
0.14160997
-0.57826316
0.06516011
-0.04650411
0.22941111
-0.05845591
-0.39361057
0.29858920
0.06591468
0.19851096
0.11320846
-0.07507819
-0.17952903
-0.12144103
0.08126143
-0.09023681
-0.08960778
-0.27861634
0.33302057
-0.20175295
-0.40880463
0.07002566
0.04866206
-0.05475885
-0.42484078
0.26855972
-0.23927975
0.15191226
0.30959421
0.39472604
-0.15875913
-0.31026492
0.10133578
-0.09473213
0.00931372
-0.12324928
-0.19457901
-0.19528507
-0.02781129
0.46782506
0.07591206
0.30099022
0.24128345
-0.00037709
0.18996033
-0.12791370
0.06861933
-0.08107393
-0.19027758
-0.45743731
0.14210396
-0.05208431
0.44393319
-0.21272005
0.11959489
-0.09750769
0.02188523
0.26490879
-0.16002272
-0.10406476
0.19621658
0.01551578
0.01905279
0.16576418
0.02747483
-0.01355560
0.21875578
-0.11444165
-0.16448326
0.20553562
-0.07692537
-0.24745367
0.24158458
-0.11430918
0.13313666
-0.02158745
-0.36802983
0.16905907
0.09043962
-0.27211687
-0.19728750
0.30914739
0.35795584
-0.03787940
0.18516666
-0.13675283
0.12899816
-0.04386730
-0.14659685
0.03877360
-0.05070634
-0.28140438
0.33122987
-0.13361153
0.07549726
0.40250260
-0.04015329
-0.16225587
-0.02696129
-0.28457069
0.04338977
0.23178776
-0.18045644
-0.23974149
0.07371592
-0.10053634
0.29409102
-0.15914312
0.11972670
-0.17821340
-0.29601184
-0.17220651
0.11886616
-0.06818731
0.39356697
0.12953253
0.16561668
-0.30925244
0.23997054
0.30300283
0.15580936
0.21842061
0.03856998
0.01969784
0.20305970
-0.19652867
-0.30746102
-0.22536612
-0.01456084
-0.43094334
-0.04799514
-0.23050679
-0.24016593
-0.03881775
0.40641269
0.19483896
-0.11072958
-0.23434940
-0.43818948
0.40000132
0.15726165
0.49706957
0.00902737
0.28063378
-0.39548898
0.11560548
0.10300469
-0.12423955
-0.10300366
0.15138771
0.31421876
0.11959662
0.23989366
-0.11011213
0.28387749
0.31397873
0.02964167
0.22872326
-0.18585566
0.35808161
-0.09050506
-0.04865849
-0.05175150
-0.33499399
0.05873748
-0.26516259
0.22412537
0.12317330
0.10772876
-0.16085951
-0.18544985
-0.50189435
-0.02125995
0.15917905
0.12207600
0.23939322
-0.17751834
0.25053680
-0.05602208
-0.02433518
-0.39995593
-0.05918511
0.31963211
0.17698075
0.07230008
0.49169621
-0.47326496
0.13898450
-0.11583753
0.28304350
0.01434519
-0.13736321
0.29404491
-0.33212551
-0.00807614
-0.01148103
0.10484898
-0.20714732
0.04132725
0.29239497
-0.51699668
0.33461922
0.34810781
-0.01827514
0.23014593
-0.00470547
-0.11121415
-0.07526639
-0.01581429
-0.14726768
-0.31086221
0.19514924
-0.09807207
0.18202186
-0.12891872
0.08975524
0.06369895
0.02522951
-0.14955795
0.08349434
0.20268457
0.15257478
0.02936084
0.02617572
0.18156424
-0.16095996
0.17470390
-0.07155554
-0.30128878
-0.29977313
0.43361786
-0.11202343
-0.00435464
-0.09020053
0.45778957
-0.32096201
0.11253385
-0.12639263
-0.28892788
0.37533665
0.03166766
0.01640566
-0.15376519
0.09263942
0.48363143
-0.27057013
0.04310320
-0.01911436
-0.13394408
0.25509626
0.12540628
0.13340594
-0.03754571
-0.05202149
0.39635873
-0.07927206
-0.03140769
-0.15470894
-0.12746525
-0.07593331
0.15450500
0.24363422
-0.00963657
-0.22124745
0.00250523
0.03388894
0.05320831
-0.21016784
0.00333247
0.29837865
-0.21887207
0.07382821
-0.28872806
0.03520667
0.08402367
0.08698729
-0.02308474
0.32208768
0.27700651
-0.12934920
-0.08383069
-0.29246208
-0.44382450
-0.08931884
0.02000567
-0.13121811
0.06148906
0.38615102
0.02275916
-0.10130192
-0.02815240
-0.17012395
-0.01135857
0.01181536
-0.08537286
-0.16637856
0.08242938
0.22975026
-0.20729291
-0.09139986
-0.32525057
-0.04038255
-0.30118120
0.07786400
-0.26562348
-0.11130128
0.03085266
0.19673237
0.00974609
0.22776978
-0.12239286
-0.10202479
-0.14829741
-0.16577010
-0.07733215
0.40380800
-0.06747272
0.09408503
-0.27471974
-0.14811370
0.00746225
-0.12276167
0.34147516
-0.27676156
-0.04445896
0.08653454
0.11748251
-0.29387018
-0.02571453
-0.08974373
-0.29218069
-0.01273681
-0.03055608
0.13241646
0.10080513
-0.06295422
-0.08549226
-0.10918517
0.05694132
0.21852611
-0.32953572
-0.18040897
-0.13680071
-0.12384157
-0.21699123
0.41805002
0.03836590
0.25522244
0.18089432
-0.03512325
0.08436558
-0.06034740
-0.29628778
0.03906290
0.43178782
-0.39504912
-0.47482038
0.03000897
-0.09537184
0.19844198
0.03378475
-0.12645479
-0.00908704
-0.02351893
-0.07216621
0.19724266
0.10922436
0.01211514
-0.21816504
-0.24711752
-0.18312739
-0.26242602
-0.11545361
-0.09012437
0.06417351
-0.19627552
-0.22227535
-0.44385108
-0.32896778
-0.34004718
-0.20385419
0.07486121
0.01189814
0.04541710
0.35941455
0.19379766
0.11937038
-0.08904845
-0.09172953
-0.17880395
0.24164239
0.02049386
-0.02301340
0.17578951
0.23268621
-0.27665630
-0.26670808
0.18226057
0.25173324
0.01629872
0.03184716
0.35892302
-0.27770996
0.03422668
0.28354946
0.29888371
-0.25221989
0.18704283
0.09342077
-0.14870028
0.18535770
0.19957019
-0.11758786
0.05381700
-0.28708521
0.33377340
0.34555599
-0.14146467
-0.27649629
-0.14975396
0.12980211
-0.15492916
-0.31377074
-0.24443944
0.28021455
0.13589121
0.01291627
-0.08099292
0.07384345
0.02145320
0.11433497
-0.03537893
-0.11550988
-0.02554497
-0.47244534
-0.23049110
0.00628595
0.22384906
0.11345521
-0.06805366
-0.09605111
0.00456463
0.00527562
-0.09736422
0.22057454
0.17240746
0.04879545
-0.28049514
0.24475420
0.19518159
0.10655814
-0.28089294
-0.42152411
-0.08779044
0.13472962
-0.16424501
0.15407030
0.18481691
0.04862841
-0.09815498
0.54503912
-0.01555395
0.45552209
0.35140675
-0.33872834
-0.10985522
0.13897994
0.13361320
0.27740586
-0.08175287
0.09525824
-0.25547916
-0.07029648
-0.58732188
-0.05876046
-0.29136458
-0.32647175
-0.24570982
-0.20204826
0.04891395
-0.22651124
0.27038729
0.00888978
-0.06908745
0.18586913
-0.22861169
-0.07897100
-0.00112785
-0.13848627
0.08443213
0.07223991
-0.04381628
-0.05325286
0.11017871
-0.00550861
0.32986957
-0.00465378
-0.06301215
0.12387040
0.10437359
-0.22813991
-0.16024716
-0.30945942
0.27206865
-0.13810349
-0.12103936
0.21525773
0.03850999
0.12646355
-0.16696864
-0.16600831
0.37920749
0.52011096
-0.11276533
-0.06784783
-0.25176975
-0.12229666
0.05048295
-0.06971352
-0.14129336
0.05744560
-0.08007270
-0.10023447
0.14740771
-0.18559179
0.08772163
0.21918291
-0.18250497
-0.11789613
-0.12119336
-0.15996899
-0.12568109
-0.04668859
-0.03700009
-0.18387255
0.11013594
-0.18808801
-0.16992344
-0.08657708
0.00949608
0.40395692
0.23820257
0.14171946
-0.07199095
0.12524077
0.20978504
-0.02595646
-0.29896691
0.01804213
0.20465823
0.02888668
-0.17927125
0.07526563
-0.33771434
0.12149382
-0.04838626
-0.10769099
0.02108363
0.03472351
-0.31594014
-0.06581435
0.27136788
0.18290721
-0.02965760
-0.29759413
0.14339842
-0.35920388
0.20951608
0.20059910
-0.02444719
0.17437565
0.01981488
0.21555038
-0.17700408
0.14223965
-0.49012211
0.09290477
0.14730112
-0.43270919
0.04333800
-0.26479030
0.03672357
0.08126034
0.36472824
0.06208841
0.03231287
-0.33711007
-0.05096145
-0.09232102
-0.40469608
0.14960749
0.02708055
0.08800755
0.07505090
-0.25641543
0.07033565
-0.13008882
0.05079491
0.07191176
0.02655958
-0.14397502
-0.06112237
-0.26641130
0.04448574
0.10528314
-0.23730953
0.18501869
-0.13526030
-0.11978202
0.32851136
-0.23585473
-0.11704107
0.06362117
0.41016838
0.03081308
-0.37793154
-0.24037908
0.00419704
-0.20345382
0.07370508
-0.11551491
-0.00538978
0.06662157
0.06237372
0.03159921
-0.07965440
0.11819236
-0.09267738
-0.08037656
-0.10489780
-0.06246068
0.29303014
-0.16079564
0.18756396
-0.05078281
-0.18541963
0.09794056
0.05385029
-0.07020719
0.05508294
-0.14774364
0.11344273
0.21792965
0.22723366
0.06052374
-0.25148210
0.04047736
0.28403285
0.04969625
0.00158078
-0.29136127
-0.27330461
-0.16854520
0.00475264
-0.35671279
-0.05350263
0.13071181
-0.07032210
-0.01571841
-0.27824008
-0.07279370
0.04149842
0.42687589
0.06484360
0.43411970
-0.27191627
-0.09610967
-0.19790407
-0.17610559
-0.14141223
0.20289049
-0.33334014
-0.07710429
0.04085040
0.02921995
-0.09557151
-0.02881509
-0.15954947
0.00277586
0.03286322
0.48212123
0.14883408
-0.21227886
0.06524079
-0.03194642
-0.11184199
-0.19152316
0.18676198
-0.24612275
-0.05724305
0.03827644
0.39847946
0.16272630
-0.09629108
-0.29587096
0.00356507
-0.05913863
0.00327437
0.06751551
-0.28612587
0.11660078
-0.06999160
-0.23429717
0.18135442
0.15654077
0.02091195
-0.09179720
0.11536592
0.05504419
-0.17419355
-0.07780058
0.03115631
-0.20372005
0.11958272
0.07613435
0.00089362
0.10775951
0.32598820
0.05597001
-0.07689751
0.02360812
0.09302028
-0.19299993
-0.14066102
0.21281552
-0.27441540
-0.07431638
0.02279647
-0.13524809
-0.25443900
-0.02115738
0.08385117
0.31755191
-0.09763862
0.01100398
0.08044019
0.22277792
-0.36181822
0.13795212
-0.12499537
-0.10746675
-0.08602646
-0.38765559
0.11877467
-0.18009117
0.15046686
-0.47553208
0.02478751
-0.30297282
0.31417990
-0.02708000
-0.10549930
0.18704359
-0.16849396
0.22382952
0.02820948
0.22821106
-0.04816812
-0.13416766
-0.14161845
-0.13910939
-0.27266642
-0.07094525
-0.29818645
0.13425921
-0.21838500
0.17250381
-0.14264078
0.10029548
0.35461578
-0.29853478
-0.30778304
-0.02552993
-0.10950967
0.05307534
-0.18266430
-0.37437657
-0.08480651
0.02607924
-0.29241294
-0.01406853
-0.16204037
-0.00618258
0.09976012
0.01886986
-0.13290207
-0.03708401
0.26341173
-0.11747610
0.29664487
-0.39884478
-0.35127360
-0.00842086
0.07704917
0.02969560
0.12238350
-0.32687607
0.27527615
0.00977527
0.11960888
0.03741810
0.01283726
-0.37898642
0.01106069
-0.25696039
0.02023212
-0.19285363
-0.08076779
0.15035397
-0.22546642
0.15644769
-0.49589181
-0.12978190
0.49139893
-0.07569505
0.02643948
-0.49828631
0.05308706
-0.03311693
-0.14368656
0.37536848
0.24006134
-0.20753333
-0.02790695
0.23205592
0.39002362
-0.07532930
0.11739077
0.43434408
-0.14898749
0.52225131
0.33242780
0.08317550
0.18363495
0.06830107
0.23988742
-0.17449659
0.36405534
0.01719300
0.16143869
0.26498562
-0.21654037
0.09108299
-0.00616489
-0.06200913
-0.15705755
0.04080918
-0.03779339
-0.07832406
0.04072063
0.47397533
0.27153888
0.18547711
-0.18306881
0.20252329
0.14905046
0.21736321
0.13572653
0.12062154
0.01013939
0.17292222
-0.16282105
-0.04271878
-0.05895015
-0.25051305
-0.13914761
0.05794449
0.20468487
0.02724868
0.11682976
-0.00795298
0.18617065
-0.00187488
-0.00608419
-0.23552869
0.11762699
0.16546716
0.20334610
0.10637222
-0.29408962
-0.15458113
-0.21439059
0.22433904
-0.03529823
0.28335893
0.11985011
0.29576972
-0.02304200
0.34174383
0.11385992
-0.04786541
0.23470941
-0.19343147
-0.03129436
-0.29882443
-0.18275151
-0.05041551
-0.31386310
0.20457703
-0.19735287
0.37101144
-0.06909668
0.17689644
-0.37307325
-0.16052637
-0.61060303
0.02334488
-0.29542109
-0.21820918
0.00516611
0.14360407
0.15520835
-0.09565026
-0.02460344
-0.08459523
0.02519299
-0.37527797
0.10436593
0.26501137
0.17515843
-0.13934995
-0.36270526
-0.02833997
-0.35410041
-0.09121930
-0.08885093
0.07912778
-0.07539203
-0.16276257
-0.08236841
-0.39223024
0.01901416
0.15125036
-0.06668776
0.11100839
-0.48623335
-0.02376211
0.26127008
0.09904691
-0.26098731
-0.19506401
0.07767346
-0.28992486
-0.10561974
0.05890965
-0.03687925
0.42079479
0.00134452
-0.24570787
0.05847372
-0.42783910
0.31212556
0.04784349
-0.08653452
0.08167367
0.17986941
-0.01773299
0.46560931
0.18833129
0.24111700
0.39181474
0.04651070
-0.19364038
0.30818671
0.07367149
0.14014742
0.20246178
0.01634845
0.02065233
0.24762978
0.07873233
-0.04721713
0.28133965
0.09181194
-0.26765305
0.03743730
0.15805520
0.08589766
-0.05764037
0.05842926
0.18875194
-0.18680353
0.09334028
-0.32174966
0.10481244
-0.10464685
0.27832699
0.08999569
-0.10359664
0.23484464
-0.31532475
0.17993136
-0.23316942
-0.01988067
0.13771889
-0.25059292
0.11915424
0.32316169
-0.14434832
0.23253582
-0.17731547
-0.02827312
0.03643054
0.00678729
0.30939260
0.07000906
-0.23639731
-0.05478865
-0.12739035
-0.14854707
-0.17892417
0.59172243
-0.03037862
-0.28949246
0.21369392
-0.08792537
0.14835453
0.11086172
-0.13687898
0.07326440
-0.16874222
-0.30641747
0.10774948
-0.21821426
0.18876357
0.20525695
-0.12525886
-0.36714515
-0.47080144
0.27686304
0.22092244
-0.23076184
-0.07866199
-0.16288388
-0.03907210
-0.43492496
-0.05008056
0.01902823
-0.38552096
0.02097560
0.30237406
0.22636752
0.20499271
-0.08833757
-0.24715605
0.02022549
0.27942228
-0.05596307
-0.26359317
-0.21035279
-0.07182593
-0.30733755
-0.14430612
-0.13976373
0.05783711
-0.15749222
-0.02788559
-0.00238358
-0.19767305
-0.04304894
0.23803756
-0.02590098
-0.38672447
-0.10460093
-0.03462330
0.00570121
-0.13083698
-0.02474680
0.26405117
0.06376775
-0.14378682
0.28408149
-0.17266041
-0.01364998
-0.09731793
-0.03785283
-0.12806253
-0.01634427
0.18795122
0.07655711
-0.15411772
-0.27589041
0.23592961
0.07415375
-0.17225404
-0.35226786
-0.12144362
-0.21834300
-0.04756667
-0.00558174
0.11061074
0.19439878
0.22968769
0.05556030
0.12893878
-0.10761905
-0.12440420
-0.16198552
0.06512824
0.43674326
-0.27136457
-0.14819823
-0.09917357
0.20307371
0.36659870
-0.11524611
-0.23087183
0.01660747
-0.46364468
0.23453541
0.30067086
-0.13242336
-0.06641583
-0.13481995
0.57335490
-0.02877136
0.19022201
0.21076232
-0.01269006
-0.04905745
0.11748766
-0.01045938
-0.08731941
-0.23491767
-0.14385486
0.31023976
0.05638061
0.01320781
0.03892320
0.06278441
-0.59211779
-0.17863768
-0.48647243
0.12125577
0.34338799
0.20514369
-0.14731899
-0.00893092
0.05434354
0.07945566
0.14830855
0.07251757
0.31564417
-0.09418865
-0.11011980
-0.08071993
-0.15764767
-0.04693328
0.04242559
-0.42586988
0.16578005
0.00225258
0.24457170
-0.48333141
-0.14602752
0.11365740
0.36020124
-0.34878126
0.27937135
0.19705790
-0.06500088
0.12262029
-0.01403671
-0.34236813
-0.22238550
-0.29286852
0.19939817
-0.02358821
0.19151631
-0.08171057
0.03651110
-0.02616536
-0.23624100
0.08365418
0.28316751
-0.29954934
