-0.35024536
0.02253890
-0.16632994
-0.04071062
0.14708740
0.06292604
-0.14686494
0.33194938
0.18719503
0.23870116
0.46104351
-0.10777865
0.27883229
-0.09694397
-0.34021413
0.07164463
-0.00974841
0.12284394
-0.09039181
-0.20203412
-0.05088865
0.15674683
-0.19065696
0.10713890
-0.05454950
-0.22640219
0.05420307
0.35514811
-0.09472999
0.36866650
-0.00038728
-0.06326362
0.07151212
0.09113682
-0.22923888
0.10580974
0.00304246
-0.02135804
0.26702216
0.01490456
0.14290409
0.07545672
0.05520051
-0.09497178
0.47421697
-0.08814409
-0.04027163
0.01025206
0.14360091
-0.16502005
-0.18823279
-0.20509736
0.17249930
-0.19156840
0.18485963
-0.19375829
-0.14157686
-0.01846731
0.10030787
-0.32518423
-0.10340460
-0.06940172
-0.08625293
0.26797292
0.00437081
-0.00326916
-0.01852152
0.02356467
0.54474676
-0.33910319
0.18536822
-0.12636256
0.12770826
-0.02116287
0.16227955
0.28746542
-0.08422413
0.12632430
0.17849115
-0.10194674
0.12097014
0.08348062
-0.28103945
-0.26537532
-0.18921413
0.05886149
0.14934953
0.51822490
0.11887683
-0.43145424
0.09243017
-0.07794183
-0.15703720
-0.05495965
0.13543266
-0.20526382
-0.09701908
-0.03925904
0.00225777
0.23031788
-0.00960029
-0.20660445
0.10683263
-0.00197016
0.24544573
-0.17839271
-0.02510716
0.24793620
-0.09772862
-0.22371544
0.25881818
-0.29640365
-0.22916317
0.05370452
-0.22308303
0.01792692
-0.13180165
-0.07389651
-0.08744671
0.21803033
-0.10008161
-0.06838869
-0.04682460
-0.13947687
-0.84932655
-0.09731936
-0.18759353
-0.13082364
-0.04525225
0.00299117
0.20360857
0.08534459
-0.00179321
-0.22058079
0.04794977
0.05914271
-0.06571945
0.42682904
-0.07598870
0.04962170
0.27401149
0.13076894
0.16321342
0.01119063
0.08338516
0.22069007
-0.21119739
0.11357030
-0.22174476
0.38064799
0.13049163
-0.18920512
0.03512883
-0.07995571
-0.11837465
0.03528704
0.08387394
0.02081483
0.22999041
0.46806493
-0.01479502
-0.08600215
0.08884728
-0.13946915
0.07052784
0.15256809
-0.14417565
0.20638859
0.13501678
0.16463454
0.11004951
-0.14450328
0.01903812
-0.25166246
-0.09352420
0.39039493
-0.10407712
0.28621611
0.02637201
-0.31013420
-0.11418254
-0.22368731
0.01395099
0.01958128
0.45183098
0.30135944
0.07162078
0.05494913
-0.25635198
0.20306814
-0.08084710
-0.12730017
0.16938058
0.15450242
0.66161096
0.01890547
-0.04552245
-0.34451437
-0.14042452
0.25693765
0.10024415
-0.02590632
-0.22278503
-0.31222367
0.22913517
-0.00576935
0.34384885
0.10690411
0.06219188
0.01864538
-0.00680109
0.19552256
0.14293182
0.07686171
0.05279190
0.12543108
0.16491200
-0.00469582
-0.01871400
-0.06620642
0.01059418
-0.10800932
-0.03340806
-0.29806745
0.18281429
0.44465995
0.08996782
0.49761829
0.07128623
0.16842073
-0.18092330
0.05746939
-0.16751233
0.03148378
0.09888957
-0.09008511
0.06595907
0.08449682
-0.25865111
-0.29734376
0.04457208
-0.59939516
-0.17952918
-0.18647158
0.14791159
-0.02433236
-0.01697060
0.11151441
0.14732221
0.32859868
-0.05952916
0.02543710
0.02675515
-0.39604998
0.04191272
0.13418442
0.10342413
0.13872531
0.01647743
-0.18841799
-0.01683307
-0.08477465
-0.04659634
-0.22854924
-0.00110669
0.11612985
-0.22913091
0.01843019
0.02257734
0.02718491
0.10285226
0.20577179
-0.29670841
0.10817987
0.15310878
-0.06651322
-0.08652195
0.26771936
-0.00132441
-0.11039989
-0.24232419
0.20605212
-0.03556002
0.04290721
-0.43629819
-0.71921694
-0.01714800
0.05004471
0.01865535
-0.21935998
-0.06943975
-0.24053410
0.22585915
0.21573238
0.05385434
0.06915472
0.05405697
0.04072641
0.14982454
-0.05751457
-0.21689421
0.21967646
0.22419448
0.28154179
0.13599220
0.01624485
-0.02973661
-0.16077425
0.09781161
-0.22009812
-0.20564955
-0.00297795
-0.06808629
-0.35893551
-0.00647786
0.23940563
0.02235091
0.07755435
-0.05494295
-0.08275592
0.18840292
-0.27989870
0.07357766
-0.06037310
-0.23118204
-0.18554971
-0.08439568
0.12641218
0.10080919
-0.10950714
-0.15763651
0.03428562
0.25148222
0.06997517
-0.07409837
0.11292629
-0.07201084
-0.27063191
-0.01821391
0.22054540
0.41799095
-0.02917252
0.08553234
0.03297572
0.16433352
0.27225968
0.00072810
-0.06033671
0.22984800
0.02136168
0.05613349
-0.16548389
0.03677884
-0.25774804
0.01476251
0.27676195
-0.04790405
0.02506047
0.15424410
0.15360028
0.05544022
-0.24302699
-0.16715123
-0.04124133
0.05901133
-0.01681858
-0.10790556
0.20545705
-0.01116842
0.15243234
0.04803783
0.02344904
0.06106842
0.18091060
0.17045313
-0.01969471
0.12844673
-0.02526027
-0.01101587
-0.22616708
0.11132235
-0.16094135
-0.03021494
0.05105051
-0.00428377
-0.22557431
0.15298104
-0.09770346
0.16912143
0.03179596
0.26111585
-0.09790362
0.07103378
-0.18221611
0.37205422
0.45979002
-0.07840849
-0.22468983
0.12880456
0.06845067
0.07761300
-0.09359690
-0.10013928
0.09273739
-0.00740779
-0.49597186
-0.04835075
0.01793149
0.02623316
0.18742916
0.13340029
-0.10072824
0.07219768
-0.22596218
0.03734273
-0.07711994
-0.01325353
0.09923343
0.04400782
0.10183746
-0.01305651
0.45550486
-0.14635763
-0.00696488
-0.05962583
-0.17322659
0.00352364
0.22826286
-0.28658715
0.78728390
-0.22281945
-0.03375085
0.01830540
-0.11006729
-0.24598488
0.06244532
0.13246393
0.04529205
0.06136277
-0.16683534
-0.41172481
-0.05039057
0.32453254
0.18356386
-0.20612910
-0.19394431
0.09390667
-0.14020270
-0.23897877
0.10852852
-0.10623392
-0.06631531
0.03876533
-0.03977574
0.06221148
-0.03686832
-0.10561148
-0.14936975
-0.00640004
-0.02171725
0.24475636
0.07735681
-0.10318985
0.02049351
0.17174774
-0.01870206
0.37757564
-0.04797882
0.05346782
0.13511992
0.01662827
-0.02582518
-0.14036821
-0.01311708
-0.26730132
-0.10181141
-0.00697903
-0.18064128
-0.10704038
-0.01529050
0.13773288
0.09314993
0.07464733
-0.05912787
-0.07020938
0.04793242
-0.33864596
-0.03241322
0.36281413
-0.06826404
-0.02016553
0.02849392
-0.58381462
0.03489501
0.33913651
-0.36539036
0.27454215
0.06558591
0.01726610
0.04172024
-0.24638781
-0.03476551
0.12181288
0.02544883
-0.01306151
0.02409297
-0.18466382
0.12837392
-0.12648343
0.02707817
-0.15190595
0.12410708
0.08202878
0.03920117
-0.08867005
-0.14286447
-0.31755069
0.14293261
-0.00193738
-0.32522750
0.23849800
-0.28044420
0.10890093
-0.17784452
-0.10820132
0.01461626
-0.03242897
0.03199434
0.16159344
-0.11885656
-0.06295316
-0.32873547
0.06342564
-0.03088522
-0.03925033
-0.18351613
0.07843456
0.00555830
-0.19750321
0.03157507
-0.01303313
-0.17632161
-0.10027077
0.01611887
0.44357434
0.04537410
0.01848153
0.06171605
0.22799964
0.03189548
-0.12988771
-0.03862445
0.06748330
-0.46907452
-0.16773146
0.32068893
-0.21640311
-0.13214462
0.08697267
0.09161741
0.03743659
-0.04029533
0.05392118
-0.02321279
0.25369003
-0.43449631
-0.12543422
0.08506498
0.19247749
-0.44594511
0.03635239
0.15938573
0.10160923
0.07704600
0.13604501
0.07576165
-0.06057369
0.01645884
-0.06571375
0.14718983
-0.07956213
-0.11496536
0.21437062
-0.04724121
-0.09553621
-0.43319374
-0.16597715
-0.14665122
-0.23187408
-0.08406800
0.08053890
-0.01127544
-0.06535421
-0.08002067
-0.03624012
-0.05783564
0.37031433
-0.03157624
0.08375326
-0.36202702
0.08920435
-0.27083805
-0.38045922
-0.16056694
0.00102442
0.13213053
0.06420036
-0.05284816
-0.15924509
-0.26211739
0.18198101
0.03801725
-0.22846542
0.12291771
0.19217004
-0.02897192
0.33879432
-0.10278871
-0.00129734
0.00469193
-0.03570465
0.04268795
0.16095880
0.13503900
0.52714235
-0.00561756
-0.13193163
0.03086583
0.04735234
-0.10360534
-0.18665111
-0.02104710
0.16390878
-0.14091726
-0.02922082
0.11792380
-0.05227317
0.20438489
-0.05271993
0.06452234
0.12811349
0.03788970
-0.31897214
0.28195378
0.29597345
0.15176307
-0.11418667
-0.08429085
0.01050143
0.19078311
-0.00736319
-0.08668678
-0.12045729
0.06113127
-0.06578570
-0.04982362
0.04519375
-0.25766811
0.08281194
0.20190579
-0.17424951
0.07358579
0.01517486
0.09474478
-0.05548734
0.05715558
-0.31795877
0.20051806
-0.01935762
0.26774117
-0.16807823
-0.10372923
0.31314754
-0.17770675
0.39309537
0.00051470
-0.08041065
-0.04597965
-0.09553628
-0.03892585
-0.52712142
-0.17118892
0.17064103
0.10986628
0.04314209
0.15931545
0.17472598
0.02975469
-0.16961244
-0.20255020
0.04595384
-0.16198258
0.02965469
0.36457798
0.14556965
-0.20506901
-0.20431449
0.01204454
0.19260608
0.04865716
0.19327889
-0.04489602
0.37430423
-0.35887894
0.01546178
0.16474852
0.07593181
0.47214267
-0.17302306
-0.01906323
-0.27401355
-0.02872087
0.01249407
0.14612047
-0.20226066
-0.20522352
-0.09994651
-0.02750566
-0.01218055
0.06397197
0.17922801
-0.04159225
-0.05198634
-0.14768678
0.10631240
0.22917806
-0.04502649
0.12883320
-0.00064027
-0.24941075
-0.36603823
-0.18753529
-0.00798771
-0.13441543
-0.18436478
-0.02844029
0.21293443
-0.12121096
-0.16486612
0.08557386
-0.07579561
-0.17095558
0.09238738
-0.01424847
-0.04652567
-0.09442978
0.02329449
-0.17194352
-0.16238746
-0.28222507
-0.00516977
-0.20207502
-0.07964258
0.10102562
0.17775247
-0.20451033
0.20500697
0.24770394
0.06764755
-0.12939499
0.15589188
-0.11997990
-0.15519924
0.08653136
-0.13654466
-0.25500235
-0.20743346
0.05828577
-0.41773057
0.10401940
-0.07923073
0.10756088
0.04065918
-0.21685886
0.34577215
-0.03193773
0.16195022
-0.06951004
-0.33350992
-0.03716411
-0.08932056
0.01149269
-0.01268922
-0.39183545
0.08399648
0.02088264
-0.03252503
0.21155749
0.01280166
-0.31360897
-0.30905259
-0.23039904
0.09382022
0.09078935
-0.15090142
-0.07658379
-0.03655785
0.11082517
0.13859603
-0.18809131
-0.06360564
-0.16882432
-0.05654714
-0.06294654
-0.08051626
0.15405902
0.03502025
0.02870672
-0.17138925
0.06575560
-0.16577873
0.47402701
-0.27748618
-0.13533403
0.16512376
0.02933791
0.08468856
0.02878609
-0.21113470
0.02428727
0.05108026
-0.07040646
-0.02991902
-0.12610950
-0.17169413
0.11359525
-0.14099444
-0.00824827
-0.02824006
0.16738425
0.18932794
-0.16774136
-0.01308859
-0.08099110
0.06328896
0.03446041
0.77571028
-0.03287474
0.20333950
0.14600873
-0.06719752
0.14373216
-0.16010357
0.12648213
0.04187487
-0.23292057
-0.03074864
-0.13352931
0.20633839
0.06852040
0.25101843
0.28886271
-0.09065378
-0.15304436
0.11528118
0.13731940
-0.25204051
0.24373983
-0.12239619
-0.03911896
-0.01744755
-0.11270668
0.18505137
0.09710656
-0.01092155
0.07455388
0.02992118
0.02075098
0.23511656
0.15951964
0.04742323
0.08378815
-0.00570303
-0.21157455
-0.03571873
-0.15641579
0.18500730
-0.04474794
-0.31387264
0.22947171
0.04058089
0.01382085
0.06722147
-0.05162044
-0.17515834
-0.09568367
0.06325661
-0.00135239
-0.06609485
-0.06221178
0.36937433
-0.32998142
-0.29682988
0.11577293
0.10238558
-0.01525960
-0.33950189
0.29130241
-0.01611129
0.06110882
0.08426376
0.20513248
-0.13881949
-0.35742551
0.11704192
-0.03000158
0.09872939
-0.21195057
-0.38915417
-0.13123709
0.00244326
0.44208696
-0.00517223
0.20372926
0.02034082
-0.04516634
0.15142453
-0.09710979
-0.11360709
-0.06195215
-0.09751627
-0.47716680
0.04329045
-0.01145366
0.16876966
-0.07656141
0.06019244
-0.04456855
0.02163824
0.05659833
-0.26155117
-0.12764002
0.06052971
-0.13481633
-0.00046834
0.12302399
0.00256524
-0.20705548
0.36190569
-0.09763325
-0.09441757
0.17599206
-0.02196347
-0.46985734
0.08393086
0.01110509
-0.00720438
0.05318487
-0.36875895
0.11063039
0.01222952
-0.21341522
-0.19752505
0.15007521
0.06474048
0.03100028
0.09741794
-0.09117391
0.17426014
-0.01720646
-0.20351535
-0.10518290
-0.11737480
-0.41339782
0.33448651
-0.06951676
0.07180467
0.21693635
-0.06895868
-0.11806271
0.00837918
-0.16961749
-0.02812733
0.12421938
-0.35672709
-0.19993880
0.00386815
-0.11747015
0.41158241
-0.09072401
0.15743800
-0.14091216
-0.35173604
-0.06202192
0.07379519
-0.22545265
0.23357022
0.04595758
0.12947033
-0.21185562
0.17426603
0.04757151
0.11750817
0.01556071
-0.02839430
0.03524918
0.12418856
-0.08188283
-0.33760130
-0.08009440
0.03024848
-0.47489041
-0.07938255
-0.31969407
-0.10667413
-0.06512338
0.36203486
0.11322447
-0.12948379
-0.10816652
-0.32861745
0.09698374
0.27118677
0.38213673
0.00739637
0.21899432
-0.61081535
-0.00366608
0.11925690
-0.12334151
-0.13717102
0.09250067
0.19358104
0.10348323
0.09901906
-0.12026291
0.37082294
0.34653091
-0.04523000
0.34773898
-0.16584629
0.30585551
0.06616006
-0.00787239
-0.01267205
-0.21983816
-0.03233511
-0.22475058
0.08911601
-0.03914831
-0.00574664
-0.13472804
-0.20942011
-0.30259326
0.04457188
0.09174261
0.06525138
0.19571623
-0.15610616
0.10522687
-0.06355621
0.00021056
-0.47897896
-0.00154530
0.15046839
0.07748654
0.01081343
0.26111823
-0.44866946
0.03070773
-0.07342218
0.10273910
0.01691190
-0.13025972
0.15209387
-0.42347813
0.00098164
0.01617476
0.04549942
-0.23148343
0.00546955
0.24897298
-0.20034997
0.24499230
0.17058165
-0.04961218
0.10975319
-0.09771507
-0.09828959
-0.04972595
0.02799695
-0.10452342
-0.19810162
0.13263887
-0.08983792
0.05582794
-0.02436205
0.15402009
-0.03620759
-0.03217521
-0.02470188
0.01808562
0.21734904
0.14411081
0.01915062
-0.03089661
0.17454717
-0.07602357
0.05928167
-0.02081504
-0.25155845
-0.37651056
0.25366199
-0.07873137
0.02112376
-0.11282864
0.13538142
-0.23539132
0.05928167
-0.05736698
-0.24621281
0.39188430
0.00931599
0.02254560
-0.18078753
0.00766472
0.49229994
-0.21762565
0.03494807
-0.03376256
-0.17939483
0.43851224
0.08575148
0.15811652
0.05143284
-0.03302544
0.28671470
-0.02180945
-0.04358793
-0.16425227
-0.12841144
-0.07724492
0.09068312
0.30143610
0.01309459
-0.38680440
-0.00785188
-0.03726997
0.08221220
-0.15468866
-0.02602107
0.27721062
-0.07591412
0.04045780
-0.27738774
-0.00218088
0.04591834
0.08044467
0.07023076
0.22483401
0.21416788
-0.19478434
-0.09898303
-0.08617076
-0.51808023
-0.12387264
-0.08088703
-0.06929919
-0.10719528
0.27327701
0.04266111
-0.04501832
-0.04926122
-0.13290499
0.02718061
0.02928526
-0.04195845
-0.13826680
0.00428617
0.04912833
-0.08388161
-0.11342910
-0.13502462
-0.04725448
-0.54381669
0.07002134
-0.13040584
-0.17053150
0.08963753
0.12443104
0.10855158
0.15975457
-0.11926062
-0.09762961
-0.08418678
-0.08681003
-0.09638804
0.39169455
-0.06595095
0.02894422
-0.27209008
-0.17794624
0.06251607
-0.16384813
0.24522136
-0.29831165
-0.19629140
0.06301402
0.13485652
-0.08250139
-0.01133958
-0.14602718
-0.27474606
0.02586311
-0.03072911
0.14443716
0.03631498
-0.06084350
-0.10221439
-0.15211982
0.02371319
0.37545094
-0.34095079
-0.20383185
-0.02278462
-0.11358016
-0.22054608
0.28209186
0.02578662
0.15023002
0.04685433
-0.04245901
0.07718468
0.02399937
-0.33521846
0.03376649
0.53428996
-0.11557066
-0.26275948
0.01547394
-0.04910795
0.28440842
-0.05623953
-0.04576080
-0.10508868
0.02165695
-0.15975221
-0.00474911
0.01939381
0.03722851
-0.15528512
-0.18356250
0.01016429
-0.17928267
-0.08864128
0.03503893
-0.00037274
-0.18581912
-0.37052584
-0.66311920
-0.22167820
-0.41747239
-0.04539724
0.07798057
-0.07261828
0.08892790
0.11073317
0.12069865
0.17443199
-0.05013567
-0.10147348
-0.13877079
0.09808215
0.00664342
-0.09981955
0.04808389
0.10900943
-0.14391232
-0.14500247
0.12364896
0.14348978
-0.03734199
0.02392989
0.28054434
-0.18293358
-0.01547126
0.31537890
0.12015599
-0.19606075
0.11896840
0.06380781
-0.06145187
0.20913216
0.06913517
-0.17451631
-0.00257839
-0.12453526
0.13989455
0.31428027
-0.05029057
-0.13630849
-0.07648439
0.11367277
-0.10696024
-0.26442292
-0.30595154
0.16397744
0.06709486
-0.07593184
-0.10979328
-0.03725438
0.15724337
0.13131270
-0.02176452
-0.11664979
-0.09636880
-0.51296967
-0.06501666
0.04555314
0.31065020
0.07344758
-0.32997754
0.02151231
0.04769480
-0.09384369
-0.21699074
0.10476732
0.02519375
-0.03127377
-0.22594318
0.19290918
0.19240788
-0.02248915
-0.21093434
-0.53207356
0.02421762
0.11000011
-0.12736082
0.22440594
0.04294933
0.06727339
-0.14622308
0.27478388
-0.03349121
0.53100836
0.15280886
-0.28083658
-0.15673751
-0.00594808
0.04899716
0.11594322
-0.05893774
0.04238940
-0.12920074
-0.10314874
-0.72173572
-0.24904552
-0.32100606
-0.37292311
-0.31331781
-0.07431930
0.03296636
-0.07398628
0.17284308
0.07191467
-0.06355093
0.11151674
-0.12223448
-0.25925210
0.00274976
-0.11453588
0.05135171
0.05106277
-0.01886647
-0.03759098
0.03071238
-0.03214557
0.05251572
-0.02445794
-0.09292296
0.08279895
0.04177554
-0.26216540
-0.08655441
-0.17625652
0.19355537
-0.04773627
-0.23532866
0.16913058
0.01952027
0.14099298
-0.17292543
-0.07030363
0.30371013
0.48878616
-0.03197444
0.08411561
-0.28279275
-0.13244936
0.17953429
-0.09798574
-0.09053382
0.04004674
-0.15247540
-0.28156602
0.23181042
-0.43920586
0.02194211
0.29594216
-0.15863182
-0.03767093
0.00392866
-0.04116727
-0.13258417
0.03468145
0.02504813
-0.07722668
0.05989832
-0.28160322
-0.13417371
-0.07371952
-0.02843780
0.23556377
0.04557116
0.05000484
-0.03087845
0.36379012
0.18969060
-0.06497312
-0.07551879
-0.02339441
0.14372136
0.03680826
-0.11003865
0.12690367
-0.09991436
0.04498298
0.01369912
-0.12530117
0.03321000
0.05121336
-0.10765281
-0.09319017
0.08343151
0.29264063
-0.04896448
-0.37784505
0.09651715
-0.59713900
0.47288987
0.15655623
-0.02485640
0.19578804
0.18729295
0.04447541
-0.19151655
0.02357573
-0.44840705
0.06537624
0.08643887
-0.26945809
0.00587974
-0.23683465
0.01816997
0.05160114
0.30332896
-0.01884994
-0.05563404
-0.16712771
-0.05073789
-0.04663365
-0.66630358
0.07588462
-0.12914416
0.03193427
0.12399621
-0.22154194
-0.02995848
-0.05018217
0.00681359
0.03619234
0.03073775
-0.09670790
-0.09429506
-0.26565084
-0.07294989
0.12127503
-0.31990418
0.14738563
-0.19765037
-0.08525458
0.20050375
-0.20965083
-0.10919992
0.04359055
0.12547024
0.01141523
-0.22966744
-0.10144041
0.06945603
-0.06882845
0.07646196
-0.09110667
-0.03482707
0.03887771
-0.00905824
0.09155552
-0.06658567
0.20648298
-0.04399743
-0.03001083
-0.13774756
0.01994545
0.11068014
-0.16474593
0.10793342
-0.04383197
-0.10166866
0.08278069
0.07114789
-0.01222401
-0.00928501
-0.12990712
0.13248627
0.11341137
0.00574763
0.12404959
-0.17129439
0.03230709
0.11221006
0.10761990
-0.06785972
-0.30549833
-0.31686470
-0.05728825
0.00909264
-0.14588512
-0.04860864
0.01125450
-0.10262232
-0.05403231
-0.31874540
-0.05461733
0.06142094
0.39593688
0.10926943
0.30015719
-0.12574551
-0.07797959
-0.21770090
-0.25955445
-0.24889059
0.07501295
-0.49775395
-0.07000700
-0.00600989
0.03189369
-0.05946131
-0.00884050
-0.16793160
-0.01042347
0.06432115
0.54250038
0.09552157
-0.18385476
0.00039779
-0.14156269
0.00417067
-0.32917577
0.02944918
-0.16341004
-0.06489189
-0.00783142
0.34543782
0.30088013
-0.01120612
-0.56295133
-0.04054531
-0.14298613
-0.00447208
0.02188946
-0.17297159
0.27996841
-0.24400353
-0.16941656
0.12747230
0.06070425
-0.00314437
-0.09800139
-0.01887063
0.04192138
-0.10154816
0.01229674
-0.01458190
-0.10902172
0.14136110
-0.06140972
0.05871297
0.09354906
0.18747379
0.08314685
-0.00543677
0.06304275
0.10242731
-0.18316090
-0.07686906
0.33754846
-0.15081364
-0.03751250
0.05979741
-0.01684025
-0.04425099
0.00469553
0.17462915
0.20957842
-0.07187064
0.01771534
-0.00333207
0.18815857
-0.38422638
0.07097623
-0.09181079
-0.17934147
-0.20904815
-0.36422628
-0.00901892
-0.12178196
0.19519725
-0.53133851
-0.09530703
-0.24506685
0.20953305
-0.01280807
-0.03288161
0.06686999
-0.11179093
0.24571255
0.03767736
0.07322960
-0.06138745
-0.19324836
0.00185849
-0.09542285
-0.27359298
-0.11375209
-0.16092810
0.14745060
-0.21543178
0.05699609
0.02736076
0.11972473
0.26686147
-0.18364121
-0.24742736
0.06009607
-0.01011256
0.07627128
-0.15884693
-0.33601481
-0.02948951
0.08051042
-0.40732449
0.06313650
-0.08109663
-0.11395341
0.14133409
-0.01327590
-0.01698172
-0.06149090
0.12692055
-0.17817251
0.19403562
-0.56679070
-0.48059335
-0.00953820
-0.11076979
0.01856713
0.04152026
-0.10799295
0.35656318
0.00433143
0.09164449
0.04338784
-0.00597072
-0.33284888
0.06395625
-0.35823402
0.07517703
-0.13387862
-0.12060983
0.14797211
-0.22971523
-0.00690231
-0.74866462
-0.10770988
0.13494451
0.01709469
-0.10020901
-0.26185650
0.01937235
-0.07427409
-0.05676048
0.28579026
0.12817843
-0.16433646
-0.09150434
0.20720848
0.41725081
-0.01571060
0.10852978
0.40268633
-0.11109748
0.24121635
0.07129995
-0.08292730
0.14957711
0.09430001
0.33130860
-0.34599146
0.45461085
-0.00221574
0.10738455
0.05905800
-0.14673258
0.02325288
-0.02904635
-0.01590581
-0.17900859
0.02734957
-0.16806354
-0.08327582
0.05657533
0.42984769
0.16868147
0.36968789
-0.05381331
0.13454638
0.05986463
0.19153440
0.03901720
0.12936783
0.06128309
0.08992700
-0.11640088
0.05569243
-0.06677015
-0.20845920
-0.16848803
0.10421111
0.13144901
-0.01023541
0.15808474
-0.00014761
0.22705418
-0.05578779
-0.07334165
-0.25178817
0.13538858
0.08093384
0.26192945
0.04359953
-0.40813825
-0.10147038
-0.04512272
0.24196671
0.06044982
0.13274476
0.14554955
0.17911269
-0.06847004
0.49234444
0.01020737
-0.03957722
0.27701461
-0.20241718
-0.15687561
-0.11137745
-0.05364832
0.02431555
-0.18890369
0.13213962
-0.30856326
0.11737409
-0.05828270
0.14539222
-0.24833201
-0.28415295
-0.94632250
-0.08048043
-0.11275434
-0.18631326
0.02332776
0.00960937
0.11680508
-0.08679771
0.03992738
0.06234503
0.00804626
-0.41855183
0.05450163
0.09660583
0.05759780
-0.06919087
-0.38316217
-0.01931362
-0.11138798
-0.03897965
-0.08590979
0.00109006
-0.01588862
-0.04816817
-0.05594528
-0.12449916
-0.00794947
0.20955512
-0.13159646
0.09919642
-0.28030875
-0.03927930
0.18494231
0.06752262
-0.15133704
-0.11072624
0.07323534
-0.27348208
0.02769567
0.13617562
0.00798245
0.29328817
-0.06155068
-0.25698173
0.01817878
-0.44652441
0.05948073
0.09495577
-0.12099061
0.05155134
0.10233498
-0.00058201
0.32752845
0.05441440
0.14780053
0.58003646
-0.14075917
-0.12407711
0.35718277
0.05509428
0.14065541
0.25718415
-0.08156277
0.06751192
0.06038816
0.05932057
0.00365783
0.11890475
0.13973045
-0.12517408
0.07570509
0.12665544
0.06454102
-0.07642670
0.01172105
0.11317305
-0.13348328
0.06276496
-0.17940035
0.22099981
-0.00615888
0.15135965
0.06612335
-0.03994495
0.20120585
-0.25801739
0.11574312
-0.07771929
0.07064040
0.11028920
-0.16130190
0.08550741
0.22243968
-0.10770370
0.09164599
-0.20345201
-0.04395793
0.04805786
0.00314253
0.12403756
0.07202196
-0.12933984
-0.04660267
-0.08262429
-0.14834835
-0.10914500
0.44362786
0.04555089
-0.13076432
0.14951657
-0.09080359
0.07286755
0.03002698
-0.07313030
0.03258093
-0.00053356
-0.17729890
0.10455336
-0.10552192
0.15004414
0.15500355
-0.10371572
-0.34950608
-0.39411122
0.13711864
0.09120280
-0.14336248
-0.02127064
-0.21676829
-0.02500545
-0.15183549
-0.00236569
-0.05292298
-0.52949423
0.05553516
0.42293906
0.23485626
0.11833251
-0.10204311
-0.11398569
-0.05052821
0.14008236
-0.04606042
-0.16512135
-0.12441563
-0.12798862
-0.22165589
-0.05362841
-0.05296937
0.04058502
-0.18968660
0.01700151
-0.00286404
-0.13271642
-0.02663056
0.14483672
-0.03659873
-0.39159051
-0.11653968
-0.09150562
0.00324414
-0.10053674
-0.01446328
0.17928170
0.06980284
-0.11218969
0.12785794
-0.11308970
0.15767501
-0.10884442
-0.03027892
-0.05274295
0.00175693
0.20638977
0.02440432
-0.13301198
-0.13971676
0.12373190
-0.02692843
-0.10360451
-0.09848858
-0.11404506
-0.03292007
-0.02440774
-0.08203626
0.16958402
0.06884177
0.18968454
0.12952425
-0.01737682
-0.19157659
-0.07870263
-0.07486040
0.02053881
0.29660985
-0.07486912
-0.29117346
-0.12164837
0.05663394
0.17739394
-0.04319548
-0.19030906
-0.00196084
-0.27255896
0.11128552
0.33684668
-0.07941236
-0.14839353
-0.15272357
0.52168381
0.02687128
0.08079034
0.08358329
0.08012651
-0.13131633
0.00585224
0.00458835
-0.18026076
-0.16235742
0.02272795
0.23339967
0.06358423
-0.03505544
0.02405437
0.07757559
-0.81673408
-0.21190776
-0.54587984
0.10994487
0.22049347
0.02733897
-0.07100748
-0.02388566
0.00968998
0.07484467
0.09162021
-0.02230512
0.15196404
-0.09034236
-0.09719309
-0.06729493
-0.07120767
-0.03142109
0.21624932
-0.48123503
0.16989852
-0.09447716
0.06422725
-0.16616414
-0.13962246
0.08654200
0.50070584
-0.18230155
0.14556691
0.03609262
-0.06524202
0.03644577
-0.04531137
-0.28704539
-0.11753448
-0.22717232
0.24562913
0.03783322
0.16348083
-0.01670293
-0.02925747
0.02066614
-0.13062328
-0.04794272
0.07000265
-0.28152123
